%YAML:1.0
my_svm: !!opencv-ml-svm
   svm_type: C_SVC
   kernel: { type:LINEAR }
   C: 5.0000000000000000e-001
   term_criteria: { epsilon:2.2204460492503131e-016, iterations:1000 }
   var_all: 2025
   var_count: 2025
   class_count: 11
   class_labels: !!opencv-matrix
      rows: 1
      cols: 11
      dt: i
      data: [ 1, 2, 3, 4, 5, 6, 7, 8, 9, 10, 11 ]
   sv_total: 55
   support_vectors:
      - [ 6.75677875e-005, 5.85231755e-005, -5.72699428e-005,
          -7.97465764e-005, -7.25252539e-005, -6.38796191e-005,
          -6.26233814e-005, -5.98771803e-005, -4.71922467e-005,
          -3.19912178e-005, -2.12142786e-005, -4.84399925e-006,
          -5.60616763e-006, -7.68923383e-006, 4.96666780e-006,
          -5.41241097e-005, -8.42547524e-005, 1.00632118e-004,
          -4.49668296e-005, 6.47689667e-005, 7.87140525e-005,
          -3.76367934e-005, -8.50742872e-005, -5.45414732e-005,
          -4.05477331e-005, -1.86016026e-004, -2.42424227e-004,
          -7.38649615e-005, 7.39879979e-005, 7.98060064e-005,
          1.77878042e-004, 1.60920186e-004, 1.59834672e-004,
          5.87319983e-006, -6.22704465e-005, -7.35544600e-005,
          -8.64015019e-005, -8.12381622e-005, -8.31690268e-005,
          -8.02416325e-005, -7.95580199e-005, -8.52958547e-005,
          -8.40392531e-005, -6.08801965e-005, -4.50602347e-005,
          9.07407011e-005, 6.37935955e-005, -7.07191721e-005,
          -6.50621587e-005, -6.63617757e-005, -6.43585154e-005,
          -6.81905367e-005, -5.23848685e-005, -4.88133956e-005,
          -3.19470673e-005, -2.35036132e-005, -1.32982477e-005,
          -4.00705867e-005, -3.94235176e-005, 1.09271350e-004,
          -2.80811837e-005, -7.53587155e-005, 2.82074125e-005,
          -7.50045911e-006, -8.28628254e-006, 3.26975510e-006,
          -6.04460838e-005, -8.93973847e-005, -9.90268163e-005,
          -4.64492259e-005, -9.99505355e-005, 9.68519998e-006,
          9.47761582e-005, -7.95349115e-005, -8.18539775e-005,
          -4.97488145e-005, 1.87715312e-004, -2.03541822e-005,
          -4.42543060e-005, -6.31318981e-005, -6.95440394e-005,
          -7.80187620e-005, -8.08327313e-005, -8.74032776e-005,
          -8.06164971e-005, -8.21276772e-005, -8.21304784e-005,
          -8.47809060e-005, -7.01304743e-005, -5.98437873e-005,
          -5.00378737e-005, -5.77736355e-005, -4.85377459e-005,
          -4.24165919e-005, -5.17474255e-005, -5.85640446e-005,
          -5.90456875e-005, -4.38712850e-005, -2.65282069e-005,
          4.18077605e-007, 5.00064061e-006, -1.03104485e-005,
          -1.36304880e-004, -1.64459518e-004, -8.68010247e-005,
          -1.39636089e-004, -1.41677410e-005, -5.26646145e-005,
          -8.56322586e-005, -2.74610848e-005, 3.01923301e-005,
          -1.67544313e-005, -7.34413406e-005, -1.48253355e-004,
          -9.69103348e-005, -6.53161551e-005, -6.80342491e-005,
          -9.16898425e-005, -1.24682483e-004, -1.00847385e-004,
          5.11590806e-005, 1.89839338e-004, 8.40553985e-005,
          5.68894357e-005, -5.09514612e-005, -5.47783638e-005,
          -6.32179654e-005, -6.60170190e-005, -8.26692412e-005,
          -7.97780740e-005, -8.22365982e-005, -7.85813390e-005,
          -8.34679740e-005, -8.22881193e-005, -8.11118371e-005,
          -4.24630671e-005, -3.46828419e-005, -2.77767722e-005,
          -2.48088581e-005, -4.92476429e-005, -5.97755206e-005,
          -5.22859191e-005, -3.58045363e-005, -2.38251469e-005,
          -7.44288218e-006, 1.73443623e-005, -2.53064736e-005,
          -9.27148176e-006, -5.32817430e-005, -4.75298257e-005,
          -4.39562864e-005, -1.77573675e-005, -4.03759259e-005,
          -2.67036339e-005, -1.20128448e-006, 1.70273925e-005,
          3.54117474e-005, 4.78515321e-005, -1.46847542e-005,
          -4.38507523e-005, -5.28821438e-005, -5.74422738e-005,
          -7.14826310e-005, -7.42882912e-005, -8.34582461e-005,
          -2.79659453e-005, 7.99821792e-005, 1.72290966e-004,
          3.86005704e-005, 4.17594492e-005, 3.16219848e-005,
          -8.03927014e-006, -3.96379583e-005, -4.93234038e-005,
          -6.57987766e-005, -7.35579015e-005, -7.26012440e-005,
          -7.56169538e-005, -7.77380046e-005, -8.53640740e-005,
          -4.27269879e-005, -4.00954414e-005, -3.44245091e-005,
          -5.03297924e-005, -5.05987300e-005, -5.07743935e-005,
          -3.13407181e-005, -2.55049126e-005, 4.69086490e-006,
          2.40683585e-005, 2.90710595e-005, 8.13390725e-005,
          3.17930098e-005, 9.26869120e-007, -1.70393214e-005,
          7.82565166e-006, -5.36764719e-006, -1.62360607e-007,
          2.76063038e-005, 1.21039120e-005, 5.20822050e-006,
          3.47669084e-005, 3.33649623e-005, 2.49768073e-005,
          -8.26274118e-006, -2.69642442e-005, -3.31293704e-005,
          -3.10670039e-005, -2.85568549e-005, -4.50988991e-005,
          -5.28266537e-005, -4.18877098e-005, -7.55433666e-006,
          2.12775230e-005, 2.19398687e-004, 1.91534011e-004,
          1.20891214e-004, -1.19835631e-005, -3.97636977e-005,
          -4.74140579e-005, -5.12171137e-005, -5.54420913e-005,
          -6.88605287e-005, -7.63662756e-005, -8.40972498e-005,
          -4.30840228e-005, -4.08131091e-005, -4.05091487e-005,
          -4.88417463e-005, -5.25140567e-005, -6.20883366e-005,
          -1.09046523e-005, 3.19960018e-005, 9.33201227e-005,
          1.75353431e-004, 1.33989568e-004, 3.28884998e-005,
          -9.92854802e-006, -9.12628730e-006, 7.25227983e-006,
          1.57915165e-005, 1.26743953e-005, 4.72673237e-005,
          5.03456577e-005, 5.94399789e-005, 4.64281911e-005,
          2.75570983e-005, 2.18911700e-005, 9.90878016e-006,
          2.53674989e-005, 3.14387871e-005, 2.32449838e-005,
          5.01502655e-006, -4.14136730e-006, -5.76586790e-005,
          -7.46335136e-005, -5.36920707e-005, -4.72167303e-005,
          -2.57127576e-005, 5.41773406e-005, 1.80224699e-004,
          1.56149501e-004, 4.69024853e-005, -3.15298093e-005,
          -3.33967837e-005, -3.93405353e-005, -4.15224022e-005,
          -5.69433541e-005, -7.69874969e-005, -8.39876448e-005,
          -6.81923339e-005, -4.47735729e-005, -3.89525885e-005,
          -6.30424911e-005, -5.42160451e-005, -2.81008997e-005,
          -1.56273800e-005, 9.10504532e-005, 2.06860961e-004,
          1.02577898e-004, 5.99455343e-005, 1.23153438e-006,
          -9.33817410e-006, 1.08115019e-005, 2.32354923e-005,
          3.43561369e-005, 5.44231843e-005, 3.12081102e-005,
          3.58715442e-005, 3.03473607e-005, 2.20427228e-005,
          1.97832578e-005, 2.53762937e-006, -3.03700267e-006,
          -7.91201637e-006, -1.97993413e-005, -4.94317601e-006,
          -1.53465462e-005, -2.20376955e-006, -3.91245630e-005,
          -6.83034814e-005, -5.75111626e-005, -4.00279132e-005,
          -2.48994620e-005, 1.13051401e-005, 9.72743510e-006,
          5.70064039e-005, 2.51019483e-005, -6.99387783e-006,
          -2.23362695e-005, -3.51802082e-005, -3.32258278e-005,
          -1.85145491e-005, -6.19458733e-005, -8.31350262e-005,
          -5.36678417e-005, -5.64442889e-005, -6.01569300e-005,
          -5.98885490e-005, -3.96117139e-005, 2.87875064e-005,
          1.02815320e-004, 7.90656341e-005, 1.25427570e-004,
          1.02796301e-004, 3.20522595e-005, -3.70969042e-006,
          -2.27007040e-005, -3.57339309e-006, 2.58247001e-005,
          3.39733306e-005, 4.32884190e-005, 2.59104363e-005,
          3.64084190e-005, 2.50980211e-005, -3.48175263e-006,
          4.56863017e-006, -1.77822858e-005, -2.36035630e-005,
          -2.62984322e-005, -2.75388193e-005, -3.52373099e-005,
          -3.32673335e-005, -3.98873635e-005, -5.93841032e-005,
          -5.03148112e-005, -1.48231084e-005, 2.30518731e-006,
          -1.70446071e-006, 6.27153213e-006, 1.82561926e-005,
          2.39246547e-005, 8.45584946e-005, -2.50266403e-005,
          -6.15032695e-005, 4.53033135e-006, -6.24017321e-006,
          -4.48654737e-006, -2.58292275e-005, -4.63401157e-005,
          -6.45988039e-005, -6.69196452e-005, -7.32034532e-005,
          -6.91252862e-005, -7.97373104e-006, 9.97839161e-005,
          7.06021310e-005, 3.78225195e-005, 8.20490677e-005,
          5.85095913e-005, 1.13665901e-005, -5.80482447e-006,
          -3.24204811e-005, 1.39292979e-005, 2.42907045e-005,
          2.93142202e-005, 8.11000700e-006, -2.58374166e-005,
          -4.87560283e-005, -5.41276131e-005, -7.48413513e-005,
          -7.38538874e-005, -9.44848362e-005, -8.94709374e-005,
          -8.34229650e-005, -7.22317200e-005, -5.81363274e-005,
          -4.27272062e-005, -4.08470260e-005, -7.23129924e-005,
          -4.79697337e-005, -3.09224415e-005, -1.96668152e-005,
          1.09273446e-006, -1.01508322e-005, -1.32046398e-006,
          6.57660303e-006, 1.41081127e-005, 1.46110215e-005,
          -2.63450943e-006, 8.78678111e-006, -1.24395992e-005,
          8.30094814e-006, -5.58038982e-006, -2.11146107e-005,
          -4.51424930e-005, -5.76809689e-005, -4.18224627e-005,
          -1.90073933e-005, 9.07112917e-005, 1.03813189e-004,
          -9.81068479e-006, 3.50156333e-005, 4.48305072e-005,
          9.99408439e-006, 5.88526291e-006, -2.05125198e-005,
          1.30893595e-005, 1.70332678e-005, -6.82793143e-006,
          -1.95742759e-005, -5.51833255e-005, -8.37147963e-005,
          -9.23139014e-005, -9.95261798e-005, -1.02198836e-004,
          -9.51810071e-005, -1.02007551e-004, -9.76396623e-005,
          -8.91264863e-005, -8.28153279e-005, -8.05216187e-005,
          -6.57772762e-005, -4.45332735e-005, -4.55746485e-005,
          -5.25499709e-005, -4.93982952e-005, -3.97393269e-005,
          -2.17554916e-005, 8.26969426e-006, 9.29444104e-006,
          -7.81113613e-006, 7.34807873e-006, 2.91580745e-005,
          1.04107548e-005, -8.13407969e-005, 6.34900653e-006,
          1.70474232e-005, 7.33844399e-006, 3.46710181e-006,
          -4.59283801e-005, -3.97536278e-005, -2.30558871e-005,
          4.35210313e-005, 1.22087353e-004, 7.52164269e-005,
          5.07905534e-005, 6.25974717e-005, 3.56707933e-005,
          1.96974852e-005, 1.81970495e-006, 2.79920823e-005,
          3.73048861e-005, 1.57177983e-005, -2.63562852e-005,
          -7.63186326e-005, -8.53536912e-005, -9.99518743e-005,
          -8.06080789e-005, -7.49290703e-005, -6.03219414e-005,
          -5.20621688e-005, -5.06048600e-005, -5.83550427e-005,
          -5.47076415e-005, -5.89289702e-005, -4.62999851e-005,
          -6.22727239e-005, -6.74812181e-005, -5.37384367e-005,
          -5.42098715e-005, -4.67208629e-005, -4.99448797e-005,
          -5.27329903e-005, -2.24222385e-005, -1.40642442e-005,
          -1.34982965e-005, -2.54531210e-006, 3.06013535e-005,
          5.98478364e-005, -5.99671002e-005, -4.18285672e-005,
          -6.78818560e-006, 1.64790181e-005, 2.04076855e-006,
          -3.61529310e-005, -3.52144452e-005, 4.41849033e-006,
          -2.47378875e-006, 6.55544791e-005, -6.20668061e-006,
          5.01770592e-005, 2.59421577e-005, 6.21520885e-005,
          6.02591535e-006, 2.72661855e-005, 4.66151869e-005,
          2.74216709e-005, -5.28724377e-005, -8.09742196e-005,
          -8.53483143e-005, -1.19347562e-004, -1.30629342e-004,
          -1.03692044e-004, -4.70813575e-005, -1.95456141e-005,
          -1.13110355e-005, -1.95336379e-005, -1.60360632e-005,
          -1.13572887e-005, -1.10655819e-005, -2.12113519e-005,
          -2.63508791e-005, -3.00218344e-005, -7.72010826e-005,
          -8.48129930e-005, -7.83173164e-005, -7.92717183e-005,
          -4.69456063e-005, -5.04019918e-005, -4.28184394e-005,
          -9.49438163e-006, -1.32871792e-005, 3.64624771e-006,
          4.61614545e-005, 6.24648528e-005, -9.09848313e-005,
          -6.31020957e-005, -2.89505169e-005, 3.09384959e-005,
          -4.02913356e-005, 5.70829689e-005, 6.05698151e-005,
          5.54720937e-005, 3.47096866e-005, 4.42894379e-005,
          1.74344750e-005, -4.31331227e-006, 1.05178615e-005,
          1.30513790e-005, 5.03491683e-005, 6.59687612e-006,
          -4.94662709e-005, -6.97814758e-005, -1.29051303e-004,
          -1.44250458e-004, -1.67942504e-004, -1.50444277e-004,
          -1.27408231e-004, -1.07644191e-004, -7.74788423e-005,
          -1.74059114e-005, -1.52830598e-005, -7.69276812e-006,
          8.18878380e-006, 2.95998507e-005, 1.39596032e-005,
          -3.39929029e-005, -4.61913733e-005, -4.89908198e-005,
          -4.25421640e-005, -4.27282866e-005, -4.55787776e-005,
          -6.42040541e-005, -4.68865692e-005, -2.46862674e-005,
          -1.76025731e-006, 2.04961761e-005, -1.04027831e-005,
          2.82721976e-005, 5.64660622e-005, 1.60665386e-005,
          -1.83689099e-005, -2.02962365e-005, 6.19824277e-005,
          -5.88434923e-005, 1.22677928e-004, 8.80038569e-005,
          -1.18066137e-005, -1.74635966e-006, 1.21273197e-005,
          1.90335941e-005, 2.67677569e-005, 2.25190070e-005,
          1.90175342e-005, 1.86888974e-005, -2.76149694e-005,
          -7.57799644e-005, -1.42016055e-004, -2.04074691e-004,
          -2.20284943e-004, -2.19785259e-004, -1.99265254e-004,
          -1.71089123e-004, -1.34556030e-004, -1.05648462e-004,
          -8.97955542e-005, -1.62476936e-005, 1.50857259e-005,
          5.30019061e-005, 2.71353565e-005, 5.53675090e-006,
          -2.09993923e-005, -3.34909455e-005, -4.49374129e-005,
          -5.20256326e-005, -4.77964859e-005, -2.55654431e-005,
          -2.14718129e-005, -5.95698766e-005, -2.58759610e-005,
          -2.55886744e-006, 1.45132490e-005, 3.48680041e-005,
          1.18021524e-006, 3.30068106e-005, 9.13710901e-005,
          1.49059797e-005, 3.62026221e-005, 6.62465172e-005,
          4.26112383e-005, 1.78273083e-004, 1.69942155e-006,
          -2.61005061e-005, 3.67140274e-005, 2.37031109e-005,
          2.74262075e-005, -2.07312269e-006, 5.66877588e-006,
          2.85682636e-005, 1.01676605e-005, -2.87191815e-005,
          -4.47720595e-005, -1.34650589e-004, -1.14200870e-004,
          -1.06296204e-004, -1.36553339e-004, -1.64833371e-004,
          -1.93795131e-004, -2.14372238e-004, -1.36986695e-004,
          -9.52778428e-005, -5.19431742e-005, 4.11804394e-005,
          3.95559764e-005, 3.37549282e-005, 6.88281671e-006,
          4.63179567e-005, 6.51253285e-005, 4.12335576e-005,
          -1.32295881e-005, -5.36727130e-005, -4.87252764e-005,
          -2.36282322e-005, 3.10646510e-006, -2.36577762e-005,
          6.87883903e-006, 2.70811615e-005, 2.07668490e-005,
          -1.07597816e-005, 2.63788497e-005, 9.32403636e-005,
          1.25269784e-004, 1.58414987e-005, 5.81020067e-005,
          8.42682275e-005, 9.86772793e-005, 9.64867359e-005,
          6.81533402e-006, 6.04334818e-005, 4.05421488e-005,
          3.35123041e-005, 1.77965703e-005, 3.07813607e-005,
          5.23330964e-005, 1.84232194e-005, 9.40284372e-006,
          -6.85593550e-005, -4.39279356e-005, 4.89284139e-006,
          4.01695215e-005, 5.12582301e-005, -1.12449843e-005,
          -1.03986931e-004, -1.80576026e-004, -1.90172534e-004,
          -8.20962232e-005, -2.43080212e-005, 4.26736842e-005,
          1.59088813e-005, 4.91634091e-005, 3.82587205e-005,
          5.68915930e-005, 5.42931120e-005, -2.70781788e-006,
          5.28020573e-005, 1.23925773e-007, -5.31264013e-005,
          -2.46893651e-005, -1.18469516e-005, -2.64925966e-005,
          6.99071734e-006, 8.26634107e-007, 2.38628472e-005,
          2.76277533e-005, 2.40378340e-005, 6.54313917e-005,
          9.36161960e-005, 5.60867702e-005, 3.83975967e-005,
          1.91336614e-004, 2.70634657e-004, 7.47014346e-005,
          4.15575232e-005, 8.66886840e-005, 6.68997454e-005,
          2.62657450e-005, 2.14319898e-005, 6.04902525e-005,
          3.14064637e-005, 5.43722781e-005, 6.80038138e-005,
          -1.28904139e-005, -1.73550779e-005, 2.31425638e-005,
          6.47203706e-005, 1.38819611e-004, 1.31105553e-004,
          3.76015414e-005, -1.18180353e-004, -1.83320386e-004,
          -1.12302616e-004, -8.67296603e-006, 4.25437647e-005,
          5.48375938e-005, 4.27584382e-005, 2.82529872e-005,
          3.12893144e-006, 1.35431192e-005, -4.16704970e-005,
          -9.66223161e-006, 5.55939505e-006, -1.03674021e-004,
          -5.90073214e-005, -3.97545591e-005, -3.10739597e-005,
          9.91218258e-007, -2.44692528e-005, 6.97821724e-006,
          1.88083995e-005, 1.15118355e-005, 3.11330186e-005,
          3.09521420e-005, 2.38809353e-005, 6.32247247e-005,
          2.81447195e-004, 2.65716953e-004, 8.80940424e-005,
          6.62787570e-005, 7.02905163e-005, 7.27679071e-005,
          3.05623216e-005, 3.49387701e-005, 7.07275976e-005,
          5.30347897e-005, 7.79658149e-005, 5.72693098e-005,
          -1.78674909e-005, -8.28079064e-005, -4.02359983e-005,
          2.18727691e-005, 1.36207833e-004, 1.85534111e-004,
          1.28618572e-004, -7.43604469e-005, -1.78774208e-004,
          -1.38632749e-004, 1.60014188e-005, 5.56386076e-005,
          2.89313375e-005, 2.72133148e-005, -1.91797608e-005,
          -1.85444205e-005, -7.48101520e-005, -3.42517633e-005,
          5.94508538e-006, -1.92741390e-005, -1.08415341e-004,
          -9.25601635e-005, -7.08189400e-005, -2.50382782e-005,
          1.39644808e-005, -1.90134906e-005, -2.90091812e-005,
          1.31088282e-005, 1.66508005e-006, 2.84186044e-005,
          5.50627301e-005, 1.27813517e-004, -1.12348725e-005,
          1.23783233e-004, 1.12522057e-005, 6.74647745e-005,
          7.40881878e-005, 6.14639139e-005, 5.37943342e-005,
          4.98226000e-005, 5.73858051e-005, 7.06868959e-005,
          5.99515188e-005, 8.89691291e-005, 4.61334166e-005,
          -8.16360043e-005, -1.30358458e-004, -7.35745925e-005,
          -1.37510633e-005, 8.61304652e-005, 1.22794925e-004,
          1.58727824e-004, -2.41736525e-005, -1.59251489e-004,
          -1.55759059e-004, -5.21103630e-006, 3.65135602e-005,
          -3.09859643e-005, -5.89723713e-005, -6.29550195e-005,
          -3.68764995e-005, -8.79497020e-005, -1.04323317e-005,
          2.36200958e-006, 3.32339141e-006, -7.41122203e-005,
          -9.72550697e-005, -8.23293158e-005, -2.15035980e-005,
          1.46824932e-005, -1.59786487e-005, -3.40103725e-005,
          -1.60339441e-005, 1.57475733e-005, 2.66825555e-005,
          9.33573901e-005, 1.42137549e-004, 9.09962473e-005,
          7.64789147e-005, 1.11576031e-004, 6.42682644e-005,
          7.43126220e-005, 6.02992404e-005, 2.90547578e-005,
          3.11555596e-005, 8.04813099e-005, 6.35233155e-005,
          4.14259339e-005, 6.76075069e-005, 5.43724018e-005,
          9.05162960e-006, -1.13544884e-005, 5.39676512e-006,
          2.80218464e-005, 4.60294250e-005, 1.15210918e-004,
          1.41364901e-004, -7.91464481e-006, -1.43017081e-004,
          -1.58456838e-004, -1.28153233e-005, 1.55616344e-005,
          -4.92701474e-005, -8.88360810e-005, -7.33978886e-005,
          4.40245685e-007, -4.73432883e-005, 7.40322366e-006,
          3.35964614e-005, 2.06283730e-005, -6.10371644e-005,
          -9.12255491e-005, -6.28386188e-005, -2.44648745e-005,
          2.05043198e-005, -1.05778636e-005, -4.01051329e-005,
          -2.27715336e-005, -1.21685543e-005, 8.81687811e-006,
          7.70825573e-005, 9.66177249e-005, 6.30005161e-005,
          8.79773070e-005, 8.84945839e-005, 4.63704309e-005,
          8.08780460e-005, 7.43608398e-005, 6.93540687e-006,
          3.95223360e-005, 7.40401447e-005, 4.11183719e-005,
          1.06483321e-005, 3.37750407e-006, 1.08042495e-005,
          1.93779670e-005, 3.96727701e-005, 5.23474846e-005,
          5.72738682e-005, 1.03839651e-004, 1.58104740e-004,
          8.18251356e-005, -3.43440952e-005, -1.49624932e-004,
          -1.60106938e-004, -3.20341460e-005, -9.90185163e-006,
          -8.21234644e-005, -1.03700469e-004, -5.69760959e-005,
          2.97667266e-005, -2.49516925e-005, 2.64908067e-005,
          4.09162240e-005, 1.33378762e-005, -5.60729713e-005,
          -7.83242576e-005, -4.87718171e-005, -2.18999412e-005,
          1.02285858e-005, 4.28510361e-007, -2.17624256e-005,
          -3.16282058e-005, -3.71324859e-005, -3.79769263e-005,
          3.01009877e-005, 5.53219361e-005, 2.06006243e-005,
          7.22845143e-005, 6.24546419e-006, 1.93777705e-005,
          5.80901724e-005, 5.73158432e-005, 6.88303942e-007,
          3.37777601e-005, 7.77988389e-005, 2.90732569e-005,
          1.14979057e-005, 5.84415420e-006, 1.60346935e-005,
          2.44750172e-005, 7.83783980e-005, 1.03750652e-004,
          1.91118364e-004, 2.30172853e-004, 2.04573662e-004,
          5.55236693e-005, -5.94615231e-005, -1.52494249e-004,
          -9.47342924e-005, -4.33405221e-005, -1.00368497e-005,
          -7.63761927e-005, -9.81320991e-005, -2.29454909e-005,
          6.31996809e-005, 1.44745718e-006, 4.55477020e-005,
          4.08926098e-005, 2.91874294e-005, -5.55960542e-005,
          -8.37117623e-005, -3.76094795e-005, -3.15047237e-006,
          1.40390011e-005, -2.06404002e-006, -3.59411097e-005,
          -4.53837238e-005, -5.70375232e-005, -6.36639088e-005,
          -5.10402642e-005, 6.24969562e-006, 1.35632590e-005,
          4.03478734e-005, 6.30150753e-005, 3.37587335e-005,
          3.64493826e-005, 1.57001814e-005, -1.65989168e-005,
          3.07362970e-005, 7.93570289e-005, 2.71671943e-005,
          8.81640972e-006, 5.63998265e-006, 2.15773289e-005,
          3.90766181e-005, 8.38587730e-005, 1.68125742e-004,
          2.40127018e-004, 2.74531922e-004, 1.60347656e-004,
          6.97365340e-006, -1.15357971e-005, -5.96243081e-006,
          5.55694942e-006, 2.23586921e-005, -5.33854336e-006,
          -8.40791326e-005, -1.09297107e-004, -8.17286036e-006,
          8.32726219e-005, 2.24469477e-005, 4.97394431e-005,
          3.07564042e-005, 1.89891525e-005, -5.62378518e-005,
          -7.39254319e-005, -1.42466088e-005, 2.15334912e-005,
          3.37970014e-005, 1.85680910e-005, -2.08661277e-005,
          -4.71705061e-005, -5.74597143e-005, -5.80351661e-005,
          -3.57791978e-005, 5.67348206e-006, -6.00071689e-005,
          2.80647910e-005, 3.65623637e-005, 4.34687354e-005,
          3.63743638e-005, 2.03477284e-005, -1.32899349e-005,
          1.64895773e-005, 7.10564200e-005, 2.85823608e-005,
          -6.59715306e-006, 2.51735105e-006, 1.73713306e-005,
          3.32089876e-005, 6.70591180e-005, 7.59243703e-005,
          9.84177095e-005, -5.34889114e-006, -1.06139087e-004,
          6.39249447e-006, 1.98563255e-004, 2.20783520e-004,
          1.34295042e-004, 9.65008949e-005, 2.50983503e-005,
          -7.53949207e-005, -1.01201469e-004, -4.47591901e-006,
          1.11361434e-004, 4.37861308e-005, 6.81640231e-005,
          3.11630865e-005, -2.28413614e-006, -6.76416312e-005,
          -6.61419472e-005, -5.19445484e-006, 3.27573325e-005,
          4.25209109e-005, 1.62322249e-005, -2.77238250e-005,
          -4.47629754e-005, -4.96220673e-005, -7.71468622e-005,
          -9.55178330e-005, -3.94172966e-005, -4.39646064e-005,
          1.00331032e-004, 5.83271940e-005, 4.12168483e-005,
          4.95923596e-005, 4.09479726e-005, -2.58814885e-006,
          1.24044127e-005, 5.82217981e-005, 2.95604841e-005,
          -1.57332579e-005, -1.59585961e-005, 1.09312496e-005,
          -1.36990502e-005, -1.59159626e-005, -1.22405894e-004,
          -2.58712855e-004, -3.87099542e-004, -2.83936242e-004,
          2.31982067e-005, 3.19361570e-004, 3.50815622e-004,
          2.88811425e-004, 1.64397890e-004, 3.77480428e-005,
          -8.46094190e-005, -9.81779885e-005, -6.41570523e-006,
          1.26551429e-004, 6.44762767e-005, 5.62338646e-005,
          2.90123171e-005, 9.19380363e-006, -6.14709861e-005,
          -6.32233059e-005, 6.07206630e-006, 3.23855820e-005,
          5.81160712e-005, 2.49780760e-006, -3.73640432e-005,
          -4.08223241e-005, -4.67503341e-005, -4.29995307e-005,
          2.14281845e-005, 5.48723438e-005, -1.32161576e-005,
          8.95059056e-005, 9.15086712e-005, 5.05790922e-005,
          6.28386042e-005, 4.62889548e-005, 1.23855161e-005,
          2.18462428e-005, 5.41551490e-005, 3.37818165e-005,
          -1.92540156e-005, -1.42376275e-005, 1.20797597e-006,
          -3.82103717e-005, -1.23835023e-004, -3.12109274e-004,
          -4.71178355e-004, -4.83391836e-004, -2.80724576e-004,
          7.15441493e-005, 3.35449207e-004, 4.09595115e-004,
          3.34777083e-004, 2.13464155e-004, 5.00752612e-005,
          -9.15979472e-005, -1.06498373e-004, -1.43931647e-005,
          1.24935686e-004, 6.64928739e-005, 7.65160512e-005,
          3.69627342e-005, 1.13142878e-005, -5.69306321e-005,
          -6.20183855e-005, -3.28241640e-006, 2.91090182e-005,
          5.43879396e-005, -8.35910942e-006, -4.98752670e-005,
          -3.97973599e-005, -3.85269923e-005, -1.07178030e-005,
          6.41258011e-005, 1.08922475e-004, -2.33057131e-006,
          -1.98501457e-005, 1.05803963e-004, 2.41774651e-005,
          4.95803542e-005, 3.88855333e-005, 2.07026096e-005,
          -6.02145883e-006, 3.61909697e-005, 3.83654660e-005,
          -1.14550348e-005, -1.81409778e-005, -1.29097061e-005,
          -5.90243399e-005, -2.12717816e-004, -4.25477716e-004,
          -5.35980915e-004, -4.32361179e-004, -1.69280582e-004,
          9.65362124e-005, 3.41977779e-004, 4.57650603e-004,
          3.23221699e-004, 2.24437448e-004, 4.90622551e-005,
          -6.56335687e-005, -1.01827216e-004, -2.09320460e-005,
          1.10201552e-004, 7.33356937e-005, 6.36967816e-005,
          4.08098385e-005, -3.31436422e-005, -3.96383584e-005,
          -5.81058557e-005, 5.11915232e-006, 2.20990987e-005,
          6.41371080e-005, -9.05839352e-006, -4.93359694e-005,
          -2.96818125e-005, -4.38693205e-005, 6.61464901e-006,
          7.47148588e-005, 1.18385869e-004, 6.76873315e-005,
          6.22240768e-005, 7.48379316e-005, -1.53781766e-005,
          3.66105451e-006, -4.92683102e-006, 3.42689673e-005,
          -9.64968785e-006, 3.96651330e-006, 4.49218096e-005,
          2.31732374e-005, 1.70699786e-005, 1.50253536e-005,
          -4.23330202e-005, -2.18018220e-004, -4.17711359e-004,
          -4.13051195e-004, -2.87982693e-004, -1.11932357e-004,
          1.05967323e-004, 3.69307876e-004, 4.24179772e-004,
          3.03153211e-004, 1.93857573e-004, 3.81544305e-005,
          -6.62626262e-005, -1.19275894e-004, -6.23355372e-005,
          3.85733729e-005, 1.06341846e-004, 1.16870018e-004,
          5.66040362e-005, -2.76910341e-005, -3.38369173e-005,
          -5.99997693e-005, 1.60238687e-005, 1.37900070e-005,
          3.91459289e-005, -3.10068754e-005, -5.36531734e-005,
          -5.95780184e-005, -5.97933686e-005, 4.90335788e-006,
          1.01564699e-004, 1.37293973e-004, 1.20279292e-004,
          1.15826679e-005, 2.11849820e-005, 8.33883587e-006,
          -1.21541370e-005, -1.51324787e-006, 1.79585695e-005,
          -5.22991759e-005, -2.36684027e-005, 2.42568622e-005,
          3.32565942e-005, 1.39407348e-005, 2.89850141e-005,
          -2.72019624e-005, -1.57482777e-004, -3.12174321e-004,
          -2.96736718e-004, -2.18669578e-004, -1.19248318e-004,
          8.50526121e-005, 2.41139118e-004, 2.43236078e-004,
          1.29573702e-004, 1.07256725e-004, 1.53648270e-005,
          -7.03420010e-005, -1.29994471e-004, -1.31297522e-004,
          -2.26964221e-005, 3.08115013e-005, 4.44662728e-005,
          3.53089345e-005, -2.24658233e-005, -4.71002131e-005,
          -2.02387564e-005, 1.88812010e-005, -9.61971364e-006,
          1.41843184e-005, -5.37354681e-005, -4.64894110e-005,
          -4.38565221e-005, -2.91213237e-005, 8.05626860e-006,
          1.06641448e-004, 1.17847638e-004, 6.22621519e-005,
          -1.03677441e-004, 4.88525147e-005, 3.80013535e-006,
          -7.87170648e-005, -6.51470400e-005, -1.73986082e-005,
          -5.52384954e-005, -7.20726894e-005, -2.96199942e-005,
          5.55966380e-006, -7.35169124e-006, -3.08028248e-005,
          -1.01911603e-004, -1.15168608e-004, -1.14189206e-004,
          -1.33625013e-004, -8.36815088e-005, -6.47158595e-005,
          2.46544778e-006, 1.42102535e-005, -9.25904678e-005,
          -1.27248335e-004, -2.62718731e-005, -9.46961700e-006,
          -3.54747499e-005, -1.05291998e-004, -1.93938278e-004,
          -1.07831293e-004, -3.23473687e-005, -2.97133465e-005,
          3.09845268e-006, -1.21447765e-005, -5.27147531e-005,
          2.99719727e-006, 1.66025784e-005, -4.70502819e-005,
          -3.65204469e-005, -6.84906481e-005, -3.93314112e-005,
          -1.90195715e-005, -1.82065287e-005, 3.69592453e-005,
          1.39997210e-004, 3.63494764e-005, -1.23430596e-004,
          -8.50355864e-005, -1.76045825e-004, -2.18284003e-006,
          -5.44819450e-005, -7.03354235e-005, -4.23242927e-005,
          -4.26802544e-005, -8.73277022e-005, -4.32636807e-005,
          -1.77903366e-005, -3.20109684e-005, -1.19579076e-004,
          -2.02801646e-004, -1.61935837e-004, -5.45671246e-005,
          -3.77886754e-005, -2.95842426e-007, -6.64935305e-006,
          -5.50561126e-005, -1.55868562e-004, -2.84125708e-004,
          -2.51441088e-004, -9.70097026e-005, -2.69244356e-005,
          -1.86708003e-005, -8.16029424e-005, -2.13057967e-004,
          -1.73524910e-004, -1.20211378e-004, -1.23818550e-004,
          -9.99777694e-005, -9.16573190e-005, -3.66402019e-005,
          1.79037434e-005, -3.87083128e-005, -1.44743071e-005,
          -7.49721221e-005, -6.89711451e-005, -3.48450922e-005,
          -4.39592404e-005, -8.90494539e-006, 3.16104233e-005,
          1.00002646e-004, 8.55420585e-005, -1.17712581e-004,
          -3.03581091e-005, -9.49937676e-005, -1.94518543e-005,
          -1.58491621e-005, -8.28172633e-005, -5.33820566e-005,
          -4.09619643e-005, -5.82320718e-005, -5.92450051e-005,
          -3.22133274e-005, -2.86883133e-005, -1.58178867e-004,
          -2.54226092e-004, -2.18217334e-004, -9.28235240e-005,
          -1.36743247e-005, 2.80042150e-005, -9.43639043e-006,
          -6.44581160e-005, -1.75143403e-004, -2.38593610e-004,
          -1.91557381e-004, -7.79194379e-005, -4.50928019e-005,
          -6.23487404e-006, -2.24092382e-005, -1.30590206e-005,
          -9.89105611e-005, -1.18191936e-004, -1.18830852e-004,
          -9.34301788e-005, -3.40456427e-005, -1.35057398e-005,
          -6.04838315e-005, -5.48643984e-005, -5.48748540e-005,
          -6.58200661e-005, -4.63228571e-005, -2.67599607e-005,
          -2.01785406e-005, -5.27147822e-005, -1.47230203e-005,
          2.08262190e-005, 3.82346516e-005, -7.54827342e-005,
          3.42570784e-005, -6.18974736e-005, -1.21953781e-004,
          1.62513129e-006, -5.05999560e-005, -5.40422589e-005,
          -5.50892473e-005, -5.01808136e-005, -7.87656245e-005,
          -3.89221495e-005, -1.48195932e-005, -3.56682649e-005,
          -1.02001737e-004, -1.42844336e-004, -7.28531377e-005,
          -1.88074828e-005, -1.41919299e-005, -2.11213046e-005,
          -3.02076933e-005, -4.54616129e-005, -5.81088570e-005,
          -4.15293434e-005, -2.66017341e-005, -1.97935096e-005,
          2.63166603e-005, 4.39615214e-005, 5.48009484e-005,
          1.66753616e-005, -2.26697557e-005, -3.19916944e-005,
          -3.19973260e-005, -2.02817700e-005, -4.83912008e-005,
          -4.49735999e-005, -3.32450691e-005, -7.78792819e-005,
          -4.51779306e-005, -3.60716658e-005, -4.35628644e-005,
          6.86218482e-006, -5.55430634e-005, -2.21859091e-006,
          -6.25974099e-006, -3.54957010e-005, -3.47432724e-005,
          1.34736183e-005, -1.39878875e-006, -3.13539495e-005,
          -4.34642834e-006, -3.84584164e-005, -2.59286790e-005,
          -8.14929517e-005, -4.17948977e-005, -5.93621880e-005,
          -7.21872566e-005, -3.06728325e-005, -1.20448913e-005,
          -9.43422219e-006, -8.91548407e-005, -9.88079628e-005,
          -7.54217763e-005, -5.12987317e-005, -3.23726272e-005,
          -1.34509655e-005, 8.68878942e-006, 2.68275235e-005,
          3.51256749e-005, 4.39341820e-005, 3.62634892e-005,
          8.98946964e-005, 8.76525883e-005, 7.98683250e-005,
          6.01142710e-005, 3.60347840e-005, -1.17470354e-005,
          -3.45542176e-005, -6.48615533e-005, -4.96572138e-005,
          -3.71241440e-005, -7.60154653e-005, -6.07093571e-005,
          -3.30976472e-005, -3.11877593e-005, -2.92595578e-005,
          5.75085141e-006, 4.08354617e-006, 1.85861227e-005,
          4.44401085e-005, -1.95903413e-005, -7.45985017e-005,
          1.71966094e-005, 7.45601665e-006, -4.47010789e-005,
          -5.97278922e-005, 4.93102634e-005, 7.93512299e-006,
          -5.57185122e-005, -6.00681669e-005, -5.31883670e-005,
          -4.93318876e-005, -7.69691906e-005, -2.06649493e-005,
          3.88970648e-006, -1.04395695e-005, -2.99886833e-005,
          -3.83371989e-005, -3.86008542e-005, -1.28447573e-005,
          1.84674282e-005, 5.34321189e-005, 6.77603821e-005,
          7.24660640e-005, 8.77914354e-005, 8.70139702e-005,
          9.30862443e-005, 8.21603826e-005, 6.42760278e-005,
          5.43000278e-005, 4.11825895e-005, 1.82138447e-005,
          -6.79622735e-006, 3.63012964e-006, -2.45319679e-005,
          -5.71015080e-005, -5.52004130e-005, -2.45223473e-005,
          -8.93926699e-006, -4.57787501e-005, -7.31592627e-006,
          3.50905648e-005, 1.91123370e-004, 2.11124236e-004,
          2.51891124e-005, -3.45035369e-005, -4.12706468e-005,
          2.05012529e-005, 7.35427830e-006, 8.47471483e-007,
          1.80301122e-005, 1.82835192e-005, 1.21319223e-004,
          -6.84491442e-006, -5.13483174e-005, -6.14934615e-005,
          -5.58611064e-005, -4.80810959e-005, -5.35988293e-005,
          -2.20508518e-005, -2.59836611e-006, -1.28919755e-005,
          -1.13154583e-005, -2.28016233e-005, -2.09758091e-005,
          -1.45271315e-005, 1.86283942e-005, 4.10458706e-005,
          4.97606961e-005, 6.47363850e-005, 6.10525822e-005,
          6.35553370e-005, 5.01698341e-005, 4.43961326e-005,
          1.82048134e-005, -7.19012451e-006, -1.20236846e-005,
          -2.41641592e-005, -4.83883814e-005, -6.33119489e-005,
          -3.60448175e-005, -3.45766894e-005, -1.33697240e-005,
          -2.55283339e-005, -8.59532975e-006, 5.61304878e-005,
          2.00513969e-004, 2.17495122e-004, 9.80166369e-005,
          1.58828680e-005, -4.63654897e-006, -1.29684759e-006,
          7.11326675e-006, 2.96710641e-006, 9.46635009e-006,
          7.59224531e-006, -6.13524753e-005, 3.35499244e-005,
          8.09531412e-005, 4.23258571e-005, 6.29187562e-005,
          -2.23242605e-005, -2.85989554e-005, -2.37482946e-005,
          -3.18381426e-005, -8.76390823e-006, -8.03611147e-006,
          -1.15760640e-005, 1.06152693e-005, 8.27002441e-006,
          -7.50034815e-006, -5.44599334e-006, -2.36998699e-006,
          2.61707874e-006, 1.24017188e-005, 2.66628581e-006,
          -5.47689524e-006, -5.51946596e-006, 1.13450069e-005,
          1.91539766e-005, 2.87344892e-006, -9.77503987e-006,
          -2.35642474e-005, -3.02032258e-005, -1.95372522e-005,
          -2.02283027e-005, 1.33218527e-005, -9.81282847e-006,
          -1.35107521e-005, 1.32140694e-005, 1.76044545e-004,
          1.98048132e-004, 7.33385095e-005, 1.65232341e-005,
          7.23086168e-006, 1.63794848e-005, 1.93779742e-005,
          4.62294201e-006, 3.31403044e-006, -1.94462973e-006,
          -5.32632157e-006, -1.75214736e-005, -7.40217147e-005,
          1.16386567e-004, 1.93121057e-004, 1.49859479e-004,
          -1.05855806e-005, -3.71216884e-005, -1.75445130e-005,
          -8.57697250e-006, -1.85196404e-005, -2.36133346e-005,
          -4.95107497e-006, 1.12105381e-005, 1.81508403e-005,
          -2.59741364e-006, -1.03397942e-005, -5.51987159e-006,
          4.89557522e-007, 5.79545804e-006, -9.04091485e-006,
          -1.20023442e-005, -1.58451458e-005, -1.49280759e-005,
          -1.61460848e-005, -1.20090599e-005, -6.79107325e-006,
          -1.69768850e-006, -3.49919719e-005, -5.29532826e-006,
          7.89680416e-006, 2.14876309e-005, 3.65172964e-005,
          -4.43523263e-008, 1.54620502e-004, 2.06751138e-004,
          1.25602222e-004, -4.28536732e-005, -1.96361561e-005,
          1.07467495e-005, 2.10460112e-005, 2.10142207e-005,
          -1.19847448e-006, -1.80153245e-006, -6.29084639e-007,
          1.69029011e-006, 1.40752300e-005, -1.86966572e-005,
          -8.64329995e-005, 2.81725970e-005, 1.91531653e-004,
          1.12014304e-005, -1.95970351e-005, -2.55870382e-005,
          -2.50141293e-005, 3.64443554e-006, 9.24365577e-006,
          -2.98946043e-006, -1.37694769e-005, 4.98572717e-006,
          -1.33416756e-006, 1.18995729e-007, 1.09129178e-005,
          1.28173879e-005, 1.44892374e-005, -3.79748030e-006,
          -1.83106058e-005, -2.54374245e-005, -2.15264754e-005,
          -1.17752224e-005, 2.08095062e-005, 6.13570728e-006,
          1.99992173e-005, -2.65254607e-006, -1.67978687e-005,
          1.42678346e-005, 2.11308432e-007, -1.91922481e-005,
          1.04761093e-004, 2.38644978e-004, 1.28492364e-004,
          4.10447792e-005, -5.85282760e-006, 6.18739364e-007,
          5.44386603e-006, 1.52457878e-005, 1.76606627e-005,
          -3.85926069e-005, -3.40244187e-005, -3.80496458e-005,
          -3.69482696e-005, 1.53315455e-006, -3.80291749e-005,
          -9.03722685e-005, -1.05733794e-004, 1.46903667e-005,
          1.12892310e-004, 1.76672656e-005, -2.13746334e-005,
          -1.74077595e-005, -4.26666847e-005, 1.58574603e-005,
          3.76958051e-005, 4.09107924e-005, 4.37235140e-005,
          3.05257818e-005, 1.54423051e-005, -5.51533276e-007,
          -4.01029092e-006, -5.90132549e-006, -2.07107259e-005,
          -2.63550355e-005, -2.70293476e-005, -1.14989944e-005,
          -6.64376739e-006, 2.63020829e-005, 4.20978577e-005,
          2.30803307e-005, -2.59371373e-005, -1.55032267e-005,
          1.54512691e-005, 1.14599052e-005, 6.12946169e-005,
          1.37860538e-004, 8.36235049e-005, 1.13866072e-005,
          -3.88343142e-005, -2.37555832e-006, 2.29651118e-006,
          9.30356236e-006, 2.46694781e-005, 1.90953288e-005,
          -3.20660511e-005, -3.33240932e-005, -3.35702680e-005,
          -3.24035791e-005, -3.39797225e-005, -3.85527310e-005,
          -4.51734631e-005, -4.47007042e-005, -1.30762755e-005,
          -1.25834122e-004, 2.29152283e-005, 5.23010494e-005,
          -1.63043369e-005, -2.44408602e-005, -4.06177569e-005,
          2.64441023e-005, 5.11318904e-005, 8.19209090e-005,
          6.59632933e-005, 6.02977670e-005, 3.69747904e-005,
          7.48076764e-006, 1.16135220e-006, 2.32277216e-006,
          2.82457404e-005, 2.05532560e-005, 1.37935922e-005,
          1.82669100e-005, 9.20385901e-006, -2.78052903e-006,
          -7.52387950e-006, -1.18679864e-005, -3.11187941e-005,
          4.32159823e-006, -1.74167981e-005, -1.35633218e-005,
          5.28473465e-005, -1.86006691e-005, -4.64064506e-005,
          -4.23227830e-005, -3.48162175e-005, -3.41530504e-005,
          -3.15232173e-005, 1.47597375e-005, 2.26428747e-005,
          -2.86269660e-005, -2.90876305e-005, -8.70252848e-007,
          1.39054191e-005, 1.96889850e-005, 1.01898786e-005,
          -2.54374186e-006, -3.13883402e-006, -1.65707588e-005,
          -6.49147041e-005, -8.93458564e-005, -3.89798515e-005,
          1.15899302e-005, -8.18141052e-005, -8.13697261e-005,
          -2.37790664e-005, 3.16779042e-005, 4.82436189e-005,
          5.36133375e-005, 4.30877008e-005, 6.21060171e-005,
          5.93230470e-005, 6.36928453e-005, 4.97868859e-005,
          4.05218889e-005, 3.70894522e-005, 1.87555688e-005,
          -3.42732733e-006, -3.52350944e-005, -4.81570823e-005,
          -3.89256275e-005, -2.56974035e-005, -4.24266327e-005,
          -5.75975719e-005, 1.02111888e-004, 1.73186691e-005,
          -3.05880203e-005, -4.36968730e-005, -3.86507782e-005,
          -3.09650495e-005, -3.25692527e-005, -3.10771284e-005,
          -3.07191294e-005, 1.05379445e-006, 8.13151629e-020,
          1.00454002e-007, 1.57586164e-005, 1.83035281e-005,
          1.74560810e-005, 1.97373174e-005, 2.08619567e-005,
          1.96889850e-005, 1.29936825e-005, -1.57326667e-006,
          5.80269671e-006, -5.91677890e-005, -1.06360116e-004,
          -1.16508352e-004, -5.65813971e-005, -2.01890907e-006,
          2.13139247e-005, 3.68405490e-005, 3.30224611e-005,
          3.59845544e-005, 4.37762938e-005, 5.57070780e-005,
          1.08055865e-004, 1.24212223e-004, 9.16291028e-005,
          8.26703472e-005, 5.50615514e-005, 1.56807473e-005,
          -3.05770991e-005, -4.62418975e-005, -2.86041613e-005,
          -6.84496772e-005, -1.76074482e-005, 1.55608905e-005,
          2.56500643e-005, -2.45072243e-007, 3.68918954e-005,
          1.08144095e-005, 2.83078725e-006, -1.16770627e-006,
          -3.78725872e-006, 8.13151629e-020, -3.31583010e-007,
          3.66701556e-007, 8.13151629e-020, -8.28957525e-007,
          1.92111293e-005, 2.15990858e-005, 2.03921627e-005,
          1.99666501e-005, 1.78158334e-005, 1.84908749e-005,
          1.96019046e-005, 1.78900773e-005, 1.11965110e-005,
          -2.42654437e-006, -1.89509774e-005, -4.23133170e-005,
          -3.84954692e-005, 3.68170404e-005, -6.28478520e-005,
          -5.21224865e-005, -7.58562601e-005, 4.81350762e-005,
          2.53989379e-006, -1.43742918e-005, 5.89470983e-006,
          3.57695644e-005, 7.47056838e-005, 9.05328416e-005,
          8.88517534e-005, 3.89780362e-005, -2.39210458e-005,
          -3.12472439e-005, -9.95985247e-005, -3.63520189e-006,
          1.88506567e-006, 1.56510541e-005, 7.19538684e-006,
          6.73787281e-006, 2.57360298e-005, 2.07172689e-005,
          6.66502956e-006, -6.02943999e-007, 5.48269918e-006,
          5.08273615e-007, 1.75592625e-008, 2.38261487e-006,
          3.16138312e-006, 3.66701556e-007, 2.47429034e-006,
          2.05966408e-005, 2.08954734e-005, 2.09948867e-005,
          1.95885314e-005, 3.33398384e-005, 1.82877811e-005,
          2.01513467e-005, 1.82542408e-005, 1.61021744e-005,
          -1.28799650e-006, -5.03472506e-007, 3.38735003e-006,
          1.69887483e-006, -9.97906341e-007, -6.25682369e-005,
          -1.52333814e-004, -1.24325219e-004, 5.96285718e-005,
          1.22950514e-005, -4.15742988e-006, 7.52919223e-005,
          1.85632030e-004, 9.51488691e-005, 5.92187607e-005,
          -4.13063799e-006, 8.99092265e-005, 1.40256190e-004,
          1.54683439e-004, 5.56232662e-005, -1.59047813e-005,
          -3.17426675e-005, 3.86636857e-005, 3.90848545e-005,
          1.23217001e-006, -1.70188036e-006, 7.33438981e-007,
          -2.84092380e-006, 5.38020186e-006, -4.99390217e-006,
          1.93056599e-006, -1.65791505e-007, -7.41161230e-008,
          -1.65791505e-007, 1.14546981e-006, 4.51473679e-005 ]
      - [ 9.50145295e-006, 1.63416371e-005, 4.74683293e-005,
          6.03957051e-005, 6.87897846e-005, 4.46516206e-005,
          3.74660958e-005, 3.00309421e-005, 3.31366064e-005,
          3.65611049e-005, 3.76754979e-005, 2.84922444e-005,
          2.32614111e-005, 5.45068724e-005, 5.64605834e-005,
          5.33871171e-005, 2.04102853e-005, 1.16878646e-005,
          1.40440279e-005, 2.03049767e-005, 2.62655212e-005,
          -2.89366744e-006, -1.21338271e-005, -1.47146611e-005,
          -3.26253685e-005, 2.74578565e-006, 6.30795985e-005,
          6.11602809e-005, 2.79987034e-005, 4.38513332e-008,
          -3.47611967e-005, -6.17334590e-005, -6.94085174e-005,
          -4.44257457e-005, -3.84830164e-005, -4.19124735e-005,
          -1.46745033e-005, 9.10768631e-006, 9.64254741e-006,
          -4.85494729e-006, -6.61083004e-006, -1.30846929e-005,
          2.37980453e-006, 4.56943126e-005, 1.31314155e-004,
          8.47690444e-006, 9.65029631e-006, 2.99751500e-005,
          3.41239429e-005, 2.54201259e-005, -1.91505137e-006,
          2.00142108e-006, 1.73548287e-005, 2.53300641e-005,
          2.59625667e-005, 2.61100322e-005, 2.37565237e-005,
          3.71198876e-005, 2.63720940e-005, 2.46742966e-005,
          2.47393418e-005, 4.95030599e-006, -5.26281246e-006,
          7.18481033e-006, -6.68222583e-007, -1.28841589e-006,
          -9.13006170e-006, -7.65466666e-006, -2.61104087e-005,
          -1.57632385e-005, -1.37119594e-006, 1.40943584e-005,
          3.02129611e-005, 5.31340129e-006, 4.84718203e-006,
          -4.11707833e-006, -1.61383869e-005, -4.92985200e-005,
          -3.27487251e-005, -3.82235121e-005, -3.26117333e-005,
          -1.43873995e-005, 3.08064932e-006, -3.04306354e-006,
          -1.72634725e-006, -6.89585795e-006, -4.54853944e-006,
          -4.05030187e-006, 2.82535475e-005, 5.09238453e-005,
          1.66364498e-005, 1.79747312e-005, 1.96935889e-005,
          1.29277705e-005, 2.76504238e-006, -3.37078054e-005,
          -2.59645076e-005, 1.25295753e-006, 2.50677513e-005,
          1.71822630e-005, 6.39810878e-006, -1.38078781e-006,
          4.21162622e-005, 6.40815233e-006, 4.03588001e-006,
          -3.96974474e-006, -2.36760989e-005, -2.54203260e-005,
          -3.30022303e-005, -3.79302946e-005, -3.83239640e-005,
          -3.82069920e-005, -5.27400989e-005, -4.72179199e-005,
          -5.09494603e-005, -2.92674686e-005, -1.85008666e-005,
          -3.97637177e-006, -9.09590563e-006, 3.32781092e-008,
          -1.95818811e-005, -2.10045091e-005, -3.43202264e-005,
          -1.88318063e-005, -3.51517083e-005, -4.56536363e-005,
          -4.08050910e-005, -9.00517080e-006, 1.06047682e-005,
          7.83469477e-006, 1.65878714e-006, 3.86761121e-006,
          5.85857663e-007, 6.80586754e-006, -1.60399723e-005,
          -3.01536002e-005, -1.10546043e-005, 2.73757564e-006,
          1.57332543e-005, -6.98474378e-006, -2.47296375e-005,
          -5.85451562e-006, 3.30021903e-005, 5.89825831e-005,
          4.82410360e-005, 4.18818890e-005, 4.12123263e-005,
          7.09595406e-005, 4.82481410e-005, 2.34299478e-005,
          -3.68572205e-006, -2.98993541e-006, -5.94084622e-006,
          -1.08566601e-005, -1.38713558e-005, -3.37472193e-005,
          -2.59456228e-005, -3.43305146e-005, -3.56339187e-005,
          -2.95015598e-005, -2.78282596e-006, 2.46739346e-005,
          3.91435460e-005, 3.30295261e-005, 4.48977626e-005,
          5.67685420e-005, 5.24598945e-005, -2.56723597e-005,
          9.82969323e-006, 1.35694418e-005, 4.42787086e-006,
          -1.56710848e-005, -2.21237005e-005, -8.18080753e-006,
          8.87474380e-006, 1.23610762e-005, 6.01703550e-006,
          9.28653571e-006, 2.92354871e-005, -4.99223233e-006,
          -5.83917608e-005, -4.84960692e-005, -4.17002957e-005,
          -4.24406535e-005, -5.37186752e-005, -3.20015024e-005,
          -8.49324533e-006, 1.95360990e-005, 5.58739084e-005,
          8.75060359e-005, 6.17956975e-005, 7.03744590e-005,
          3.94984127e-005, 2.86542254e-005, 1.20765890e-005,
          2.44047314e-005, 8.41106157e-006, 2.11031420e-005,
          9.46185264e-006, -7.37567461e-007, -9.77203217e-006,
          -9.67996493e-006, -5.25001860e-006, -8.09651647e-006,
          4.06017807e-006, 2.31067679e-005, 2.68235945e-005,
          4.78304100e-005, 6.33403979e-005, 4.68204598e-005,
          6.31386283e-005, 6.28418784e-005, 5.69405784e-005,
          5.59229011e-005, 1.40049005e-005, -1.21750247e-006,
          1.40607226e-005, -3.74473120e-006, -3.94674571e-005,
          -2.09836799e-005, 3.06398215e-005, 5.46879928e-005,
          5.74591613e-005, 5.29714125e-005, 2.32955044e-005,
          -3.67765861e-005, -6.26280817e-005, -5.12419174e-005,
          -5.89981064e-005, -6.83437320e-005, -4.74354820e-005,
          -2.60144807e-005, 2.82867386e-005, 4.94855267e-005,
          6.72974493e-005, 4.82210708e-005, 1.57538016e-005,
          -1.10813953e-005, -1.22219637e-006, 4.99458656e-005,
          5.13141713e-005, 2.31041795e-005, 8.53829079e-006,
          1.98684302e-006, -6.42572513e-006, -1.62592387e-005,
          -1.92415173e-005, -8.06208391e-006, 3.17395370e-006,
          1.73272947e-005, 2.44135881e-005, 3.14652680e-005,
          4.87659272e-005, 5.28084165e-005, 2.50967150e-005,
          3.19979990e-005, 4.03078229e-005, 7.05700586e-005,
          9.11787793e-005, 1.06724008e-004, 6.83093604e-005,
          4.61038289e-005, 3.59552496e-006, 1.84767396e-005,
          6.56689508e-006, 2.07455123e-005, 4.19303688e-005,
          4.68158760e-005, -3.23523250e-006, -2.08974088e-005,
          -8.36267573e-005, -7.11714019e-005, -4.37242888e-005,
          -5.84753361e-005, -7.64150609e-005, -6.99356533e-005,
          -5.21560069e-005, -3.74712436e-005, 2.98619889e-005,
          1.40809616e-005, -1.59905303e-005, -3.39431135e-005,
          -2.35402695e-006, 2.94577621e-005, 2.48543020e-005,
          8.34133880e-006, -2.58156183e-006, 1.02419563e-005,
          1.46256230e-006, -6.45250111e-006, -1.86634261e-005,
          -1.95709999e-005, -1.84206783e-005, -8.61087938e-006,
          1.36757008e-005, 2.73123496e-005, 3.12153752e-005,
          3.73418843e-005, 4.15180693e-005, 3.89527995e-005,
          4.15465074e-005, -6.29716715e-006, 6.48596597e-006,
          2.04729968e-005, 2.41258949e-005, 4.96044340e-005,
          4.65282719e-005, 3.63093750e-005, 3.66367931e-005,
          4.74310655e-005, 2.94591009e-005, 8.14653595e-006,
          3.24523098e-005, -3.44816872e-005, -5.79279331e-005,
          -5.25449577e-005, -3.59011210e-005, -2.26775774e-005,
          -4.11764886e-005, -3.41793348e-005, -2.61064451e-006,
          -1.25443175e-005, 1.76925860e-005, 1.87566275e-005,
          1.02772549e-006, -3.61392777e-005, -1.48942590e-005,
          -8.88388240e-006, 6.45571981e-006, -9.30989791e-006,
          -2.11115548e-006, -1.83217999e-005, -2.83170739e-005,
          -5.47579875e-005, -6.81619713e-005, -7.47264858e-005,
          -7.49381434e-005, -6.98743315e-005, -5.70480261e-005,
          -2.81849425e-005, -4.79002483e-006, 8.27147960e-006,
          -3.84119630e-006, -5.39683515e-006, 1.19272736e-005,
          1.41263772e-005, 2.22910094e-005, 2.62624490e-005,
          2.52085520e-005, 3.35855548e-005, 8.30276804e-006,
          9.14147222e-006, 3.30553739e-005, 4.12737427e-005,
          5.35862746e-005, 2.85067053e-005, 7.18338106e-006,
          2.25185213e-005, -7.58982424e-006, -5.15166867e-005,
          -9.27439323e-005, -8.16967295e-005, -7.11492758e-005,
          -5.87674404e-005, -3.06190777e-005, -3.93330265e-005,
          -7.29635985e-006, -2.97377301e-005, -4.82916403e-005,
          -7.02246252e-005, -5.80982523e-005, 6.58753095e-007,
          -4.26679180e-005, 2.09191639e-005, 6.86399471e-006,
          1.43119878e-005, -4.36808623e-005, -6.14352975e-005,
          -5.74641017e-005, -6.89086664e-005, -8.04271258e-005,
          -8.26816613e-005, -7.12047258e-005, -4.89174163e-005,
          -4.06471408e-005, -2.48608358e-005, -1.75055466e-005,
          -1.50446895e-005, 3.55888778e-006, 9.59057070e-006,
          2.59165990e-005, 2.28618883e-005, 2.42093083e-005,
          4.17179945e-005, 1.72244327e-005, -1.58375533e-005,
          -1.34603524e-005, 9.63836283e-006, 1.79546314e-005,
          1.77829788e-005, -7.28880352e-008, 1.11909173e-006,
          -2.19974409e-005, -1.92797070e-005, -2.96294729e-005,
          -7.75587687e-005, -7.17778021e-005, -6.06923677e-005,
          -6.57626370e-005, -4.18507625e-005, -4.08483866e-005,
          -6.77669523e-005, -6.86449785e-005, -9.71687623e-005,
          -7.61371048e-005, -5.78206527e-006, -3.77688739e-005,
          -7.49496053e-007, 2.61905170e-005, -1.03364118e-005,
          -2.19884478e-005, -2.63500988e-005, -3.80131023e-005,
          -4.40619806e-005, -5.19286004e-005, -6.41023798e-005,
          -6.84554325e-005, -5.49310826e-005, -3.01586460e-005,
          -2.92248878e-005, -1.40603834e-005, 2.21474443e-006,
          2.38896291e-006, 6.65067591e-006, -8.94847108e-006,
          1.78299852e-005, 2.26722987e-005, 1.76658759e-005,
          3.25126712e-005, 2.74184276e-005, 7.16157683e-006,
          -6.84702218e-006, 4.73650289e-006, 1.00383331e-005,
          2.54255997e-006, 2.54574061e-005, -6.91340711e-006,
          -2.81455887e-005, -1.84788314e-005, 5.25016958e-006,
          -6.34918906e-005, -6.74720141e-005, -6.90497545e-005,
          -4.97274705e-005, -4.97803740e-005, -3.90335881e-005,
          -3.24111352e-005, -3.84194027e-005, -1.34209422e-005,
          -4.73350582e-007, -4.93443149e-005, -1.75776131e-005,
          7.95107371e-006, 2.45804472e-006, 1.64911817e-005,
          -6.36208242e-008, -9.97728785e-006, -1.14809382e-005,
          -2.68169479e-005, -3.55660995e-005, -4.44739380e-005,
          -5.11049984e-005, -4.15050490e-005, -2.64192277e-005,
          -1.85633107e-005, -7.95614142e-006, 6.23224787e-006,
          1.31684237e-005, 1.98383350e-006, -5.85403541e-007,
          -9.42276529e-006, -1.20380719e-005, 1.02912954e-005,
          1.51424501e-006, -9.01731073e-006, -1.15753101e-005,
          -4.05598303e-006, -7.36473385e-006, -2.63146694e-006,
          2.77959807e-005, 1.27335761e-005, -1.24693941e-006,
          -1.33871063e-005, -1.15646972e-005, -2.98025952e-007,
          -6.50697839e-005, -6.09739436e-005, -6.91046080e-005,
          -5.95947531e-005, -4.02657424e-005, -5.73681828e-005,
          -4.46870254e-005, -2.42357091e-005, 2.37715212e-005,
          -2.16933076e-005, -2.70353903e-005, -1.14391823e-005,
          -6.56952307e-006, 3.58671205e-005, 3.12247575e-005,
          1.60670334e-005, 1.45765061e-005, -3.06216225e-006,
          -1.24719782e-005, -3.84520572e-005, -4.30550244e-005,
          -3.44229229e-005, -2.18782970e-005, -1.70239164e-005,
          -1.12954422e-005, -4.17324736e-006, -2.03817763e-006,
          1.23608261e-005, 1.67509679e-005, 2.78333732e-006,
          -1.62555098e-005, -1.38882633e-005, -3.58150101e-005,
          -3.50644259e-005, -4.88820115e-005, -2.58462296e-005,
          -1.79540712e-005, -5.83592737e-006, -1.05801009e-005,
          1.79945255e-005, 5.76886305e-005, 2.62570466e-005,
          7.76369325e-006, -5.02688408e-006, 1.03042896e-006,
          -6.55787371e-005, -6.03847220e-005, -1.63381480e-006,
          -2.89098589e-005, -7.37181545e-005, -9.69808607e-005,
          -7.71792256e-005, -5.45122894e-005, -7.17156508e-005,
          -3.67018802e-005, -1.99080623e-005, -3.96913347e-005,
          -6.45850434e-007, 3.23687236e-005, 3.65762317e-005,
          3.07419250e-005, 2.54214865e-005, 1.66956179e-005,
          5.07889126e-006, -1.52665016e-005, -2.23875850e-005,
          -2.03954351e-005, -3.31381525e-005, -2.25103777e-005,
          -1.25652741e-005, -4.09739005e-006, 1.29925111e-005,
          -1.57275008e-006, -7.34201285e-006, -2.25968652e-005,
          -3.53850883e-005, -4.42121855e-005, -2.82968667e-005,
          -6.03288354e-005, -6.30462964e-005, -3.03395500e-005,
          -1.26052737e-005, 7.18923366e-006, -1.85596728e-005,
          2.97911402e-006, 6.36479017e-005, 2.02765168e-005,
          2.38157354e-005, 1.22177726e-005, 2.00929776e-006,
          -4.71733001e-005, -4.29738793e-005, -3.32247619e-005,
          -3.98010634e-005, -1.03844330e-004, -7.74427463e-005,
          -9.70798937e-005, -1.11923589e-004, -7.77987734e-005,
          -3.49712755e-005, -6.99100347e-005, -1.36628933e-005,
          5.00001488e-006, 7.36316042e-006, 3.07188166e-005,
          -3.54562502e-007, -3.18997882e-005, -4.57120259e-005,
          -2.93542362e-005, -2.16885692e-005, -2.30305086e-005,
          -3.10885080e-005, -3.73800540e-005, -5.42146227e-005,
          -4.67288664e-005, -4.85484343e-005, -5.14743988e-005,
          -6.14381352e-005, -7.43365745e-005, -7.37349983e-005,
          -8.22516013e-005, -5.96059399e-005, -6.40231592e-005,
          -5.17015760e-005, -5.11321232e-005, -2.50292032e-006,
          5.51348021e-005, 4.76013884e-005, 1.92282951e-005,
          -1.72772543e-005, 3.89146844e-005, 7.56403169e-005,
          5.13943487e-005, 5.66130757e-006, -3.99128112e-006,
          -1.80632469e-005, -1.27379366e-007, 6.65306743e-007,
          -5.68574651e-005, -8.53479214e-005, -8.51338773e-005,
          -1.11677058e-004, -1.11059016e-004, -6.73382237e-005,
          -5.89177798e-005, -3.60840495e-005, -1.18118287e-005,
          5.82733664e-005, 1.07745691e-004, 2.45928895e-005,
          -1.26550776e-005, -4.45570804e-005, -5.61128509e-005,
          -4.46504600e-005, -1.05838926e-005, 8.13797960e-005,
          5.95656866e-006, -6.14792589e-005, -7.88575271e-005,
          -7.19777672e-005, -3.26606969e-005, -5.39026441e-005,
          -7.32149711e-005, -7.94232401e-005, -7.56187437e-005,
          -7.84523800e-005, -8.85506306e-005, -6.69191359e-005,
          -5.89172705e-005, -3.87896944e-005, 2.28900881e-005,
          6.57854907e-005, 6.24369495e-005, 4.22104240e-005,
          9.30714521e-007, 1.72940611e-006, 5.84400950e-005,
          2.69775646e-005, 1.09585426e-006, 3.43012493e-006,
          5.78866002e-006, 4.74845876e-007, -8.43436646e-006,
          -3.99697165e-005, -3.93275404e-005, -3.83623083e-005,
          -9.44251733e-005, -6.14884411e-005, 1.92498228e-005,
          -8.19860725e-006, -1.25052202e-005, -3.08027156e-005,
          3.58499965e-005, -2.03429354e-005, -3.45117442e-005,
          -5.69883050e-005, -1.06301071e-004, -1.22120531e-004,
          -1.31345296e-004, -1.03304374e-004, -4.51108572e-005,
          -1.42867775e-005, -5.29975150e-005, -6.95794661e-005,
          -2.33657302e-005, -7.51302869e-005, -1.11829970e-004,
          -1.28809101e-004, -1.24143306e-004, -1.18442578e-004,
          -9.23703192e-005, -7.93180297e-005, -9.44133135e-005,
          -6.16370671e-005, -5.88163930e-005, -4.59460425e-005,
          5.63649883e-005, 6.55736658e-005, 4.92559921e-005,
          2.58596283e-005, -2.05767501e-005, 4.21278564e-005,
          6.08010814e-005, 2.85411170e-005, -5.04173613e-006,
          1.86955021e-005, 2.35280680e-007, -2.35544521e-005,
          2.45149613e-006, -6.31858541e-007, -1.64912999e-005,
          -3.00444608e-005, 2.16493299e-005, -2.61227660e-006,
          -1.52118002e-006, -3.36485282e-005, -4.05247119e-005,
          -3.49467846e-005, -1.77566144e-005, -1.80888892e-005,
          -2.83133795e-005, -7.55076235e-006, -2.70671371e-005,
          -8.74571415e-005, -8.61373192e-005, -3.34635188e-005,
          -4.71514431e-005, -1.89317998e-005, 1.61893167e-005,
          -2.81369958e-005, -6.30249851e-005, -8.52899175e-005,
          -1.32604779e-004, -1.16818774e-004, -1.11864312e-004,
          -1.08092841e-004, -1.02563434e-004, -1.08433022e-004,
          -5.30639409e-005, -6.03712760e-005, -5.41982845e-005,
          -5.00809256e-006, 4.03710110e-005, 6.67044878e-005,
          5.30811485e-005, 1.70894546e-005, 7.18568970e-007,
          7.90887862e-005, 3.14882818e-005, -1.16481360e-005,
          1.28539477e-005, 2.01205385e-005, -1.57930037e-006,
          1.13816586e-005, 5.49345032e-006, -2.93246612e-005,
          3.07654445e-005, 8.78362189e-005, -5.78140907e-006,
          -2.13771164e-005, -4.03772283e-005, -6.44758111e-005,
          -2.23824190e-005, 1.04304827e-005, 2.63797756e-005,
          -1.62230572e-005, -1.96481415e-005, -3.08319250e-005,
          -1.22757279e-004, -1.84735429e-004, -1.85503348e-004,
          -1.20511744e-004, -1.40797147e-005, 2.87646762e-005,
          -3.56509699e-005, -6.13520679e-005, -8.14068480e-005,
          -1.09673747e-004, -1.24350074e-004, -8.20410205e-005,
          -1.16970099e-004, -1.25154940e-004, -9.29650923e-005,
          -6.95990238e-005, -5.54416656e-005, -6.57051278e-005,
          -6.17878177e-005, 2.28604986e-005, 4.89720587e-005,
          6.79619770e-005, 2.59093340e-005, -2.46601503e-005,
          3.68639994e-005, 5.10493264e-005, 1.01225560e-005,
          -1.20430350e-005, 2.18697478e-005, 1.13908800e-005,
          1.23864947e-005, -4.30277805e-006, -3.76578428e-005,
          2.59413337e-005, 5.40631045e-005, 5.42409282e-007,
          -2.97123916e-005, -4.16877701e-005, -5.96126592e-005,
          2.23635507e-005, 4.42746459e-005, 4.61803429e-005,
          8.83565372e-006, 3.00054689e-005, 4.84865159e-005,
          -7.29292651e-006, -1.32383764e-004, -1.62925920e-004,
          -1.43210054e-004, -4.52350650e-005, -8.35421088e-006,
          -5.12128718e-005, -4.86176650e-005, -8.30649224e-005,
          -3.97246731e-005, -4.62073949e-005, -2.53988965e-005,
          -9.06787391e-005, -1.45069906e-004, -9.84970975e-005,
          -7.27529332e-005, -3.24030989e-005, -4.84276825e-005,
          -3.67290704e-005, 2.25646672e-005, 2.57178726e-005,
          6.15960380e-005, 4.11293076e-005, -1.48220579e-005,
          3.74716801e-005, 6.30584327e-005, 4.57898896e-005,
          -1.86239959e-005, 1.11353911e-005, 2.66163588e-005,
          1.28812699e-005, -7.84942858e-006, -4.63969700e-005,
          -1.22775637e-005, 1.48418931e-005, -6.37733910e-006,
          -3.19084611e-005, -2.90561020e-005, -2.67963205e-005,
          7.10868699e-005, 6.61662489e-005, 3.95632269e-005,
          -1.04406136e-005, 1.26186569e-004, 1.81825511e-004,
          7.93051586e-005, -1.05251049e-004, -1.96611538e-004,
          -1.96102512e-004, -8.44920287e-005, -5.78110667e-005,
          -6.66026172e-005, -4.73283289e-005, -8.03964285e-005,
          -4.66112979e-005, -4.65711128e-005, -3.33521602e-005,
          -7.05502753e-005, -1.20951787e-004, -9.43886043e-005,
          -5.91485259e-005, -2.29791367e-005, -3.23060340e-005,
          -5.25381329e-005, 1.04147975e-005, 3.03846591e-005,
          5.72192912e-005, 2.12975210e-005, -3.52328643e-005,
          -3.44982664e-006, 6.44178363e-005, 6.92323083e-005,
          7.80667904e-007, 4.56618145e-005, 1.39747463e-005,
          2.10888975e-005, -2.34825566e-005, -3.12274060e-005,
          9.79930064e-006, -2.18800369e-006, -2.17764045e-005,
          -3.40039405e-005, -2.54060342e-005, 1.26480825e-006,
          1.70004292e-004, 1.62316326e-004, 1.12733542e-004,
          8.37413027e-005, 1.34637929e-004, 1.63723249e-004,
          2.61308560e-005, -1.65864367e-005, -1.07403881e-004,
          -2.25530821e-004, -1.19290424e-004, -7.24169950e-005,
          -6.25318280e-005, -4.19896714e-005, -9.11073075e-005,
          -4.07990265e-005, -4.42669043e-005, -3.02968674e-005,
          -3.14077552e-005, -9.62067134e-005, -8.21213907e-005,
          -4.42928758e-005, -5.14612748e-006, -2.02543233e-005,
          -4.25112303e-005, -2.91287070e-005, 1.83974626e-005,
          4.86842109e-005, -2.95498324e-007, -5.34750361e-005,
          -3.55752782e-005, 5.93635268e-005, 7.38050512e-005,
          -3.96793621e-006, 3.86871543e-005, 1.16812589e-005,
          1.59848678e-005, -7.20222852e-006, -1.55992493e-005,
          3.23034983e-005, -8.86638281e-006, -3.48809590e-005,
          -4.88153419e-005, -3.56300807e-005, -8.62887100e-006,
          1.40043485e-004, 1.33873982e-004, 9.07289141e-005,
          9.42076513e-005, 1.25754974e-004, 7.75215522e-005,
          -6.07411175e-006, -1.71458432e-005, -1.28281308e-005,
          -1.38095565e-004, -1.24644837e-004, -7.78729591e-005,
          -3.29094146e-005, -4.42874480e-005, -1.07788233e-004,
          -6.77314529e-005, -7.19176533e-005, -5.12490697e-005,
          -1.82326803e-005, -8.25788884e-005, -6.96568823e-005,
          -3.57841855e-005, 8.27185795e-006, -1.61360240e-005,
          -3.81366735e-005, -4.46140912e-005, 1.77327020e-005,
          4.71316562e-005, 1.64431767e-005, -3.24529683e-005,
          -3.00021693e-005, 5.72861718e-005, 8.41637375e-005,
          6.42527857e-006, 3.20621657e-005, 1.40055254e-005,
          -3.10826658e-006, -9.55716314e-006, 9.42805309e-006,
          4.05964165e-005, -1.52780158e-005, -4.60812480e-005,
          -5.59849504e-005, -3.31212177e-005, -7.13606187e-006,
          1.28919433e-004, 1.41485783e-004, 9.29493326e-005,
          4.74568624e-005, -1.69485975e-005, -2.40575664e-005,
          2.48623419e-005, 1.40032989e-005, 2.11546994e-005,
          1.07844953e-005, -1.03115861e-004, -5.87026116e-005,
          -2.41671096e-005, -4.55498703e-005, -1.24164915e-004,
          -8.79304935e-005, -8.43032976e-005, -4.97819019e-005,
          -1.14294589e-005, -5.86406168e-005, -6.44266693e-005,
          -2.48837114e-005, 1.68591014e-005, -1.04646215e-005,
          -2.78882508e-005, -4.79895389e-005, 4.79460641e-006,
          3.87405853e-005, 4.62916360e-005, -3.31029196e-006,
          -8.56999463e-007, 6.10769712e-005, 8.00395064e-005,
          1.42391273e-005, 3.39492472e-005, 1.61110493e-005,
          -1.01810074e-005, -4.09434870e-005, 1.35845028e-006,
          3.54004696e-005, -3.04964033e-005, -5.88377006e-005,
          -6.46854533e-005, -3.75278105e-005, -1.33495987e-005,
          6.20424034e-005, 7.32681729e-005, 6.02182263e-005,
          -8.16582542e-005, -4.38074348e-005, -6.51930604e-005,
          3.79440789e-005, 5.51663034e-005, 1.32941481e-004,
          8.55179533e-005, -6.61334925e-005, -4.62472162e-005,
          -1.45116855e-005, -3.86117899e-005, -1.39942174e-004,
          -7.69693725e-005, -6.47371198e-005, -3.73455805e-005,
          3.57254726e-006, -4.88207952e-005, -4.74803528e-005,
          -2.43865761e-005, 1.66463851e-005, -3.41423743e-006,
          -3.11209187e-005, -5.19658788e-005, 7.76764955e-006,
          3.47031310e-005, 4.39614741e-005, 1.58313960e-005,
          1.45332697e-005, 5.39674402e-005, 7.02094549e-005,
          1.59968113e-005, 2.72632715e-005, 1.61705666e-005,
          -1.29107939e-005, -3.30979892e-005, 8.17586897e-006,
          4.01332254e-005, -2.84615980e-005, -5.63874964e-005,
          -6.67850181e-005, -4.13516027e-005, -1.56133374e-005,
          -1.52914745e-005, -2.03010932e-005, -1.05496983e-004,
          -1.19868244e-004, -1.30582252e-004, -1.19578530e-004,
          -4.08767446e-005, 1.39038137e-004, 1.47978906e-004,
          1.35078066e-004, -5.10539485e-006, -9.96657491e-006,
          -1.86109594e-006, -4.01798752e-005, -1.39051495e-004,
          -7.51020561e-005, -5.01216527e-005, -2.14426782e-005,
          1.55146718e-005, -3.74897718e-005, -4.53914981e-005,
          -3.08853159e-005, 1.62653560e-005, -5.99430791e-007,
          -2.56765579e-005, -4.56299240e-005, 9.81422659e-007,
          3.28220267e-005, 4.09580971e-005, 1.48803392e-005,
          -4.08728397e-007, 3.85438289e-005, 7.41733675e-005,
          1.58384501e-005, 2.44959574e-005, 2.34842919e-005,
          -1.22066594e-005, -2.94431429e-005, 1.60999152e-005,
          4.21027180e-005, -2.12423802e-005, -5.44526447e-005,
          -6.84273255e-005, -3.76764001e-005, 3.09697907e-006,
          -7.98357078e-008, -7.04107151e-005, -1.25298408e-004,
          -1.91214815e-004, -2.20091577e-004, -1.87151862e-004,
          -2.21992450e-005, 6.96206116e-005, 1.37403433e-004,
          2.04232012e-004, 5.17218068e-005, 1.91529707e-005,
          1.77025722e-005, -2.47288626e-005, -1.28689004e-004,
          -6.84738625e-005, -4.22527082e-005, 1.24926592e-005,
          4.79933842e-005, -9.38882295e-006, -3.40407496e-005,
          -3.91500653e-005, -1.15873524e-006, -7.69763403e-007,
          -3.41604646e-005, -2.48260076e-005, -5.79191646e-006,
          3.71566202e-005, 4.35730690e-005, 3.01148357e-005,
          2.84462494e-005, 4.36675618e-005, 7.44747304e-005,
          1.50724109e-005, 3.24703942e-005, 1.20453951e-005,
          -1.47039200e-005, -4.66535312e-005, 1.23576528e-005,
          4.10933208e-005, 5.54231792e-006, -4.52268250e-005,
          -5.91052740e-005, -2.85543574e-005, 8.58877902e-005,
          1.03142651e-004, 2.61809109e-005, -2.70931559e-005,
          -2.14627667e-004, -1.97964488e-004, -1.27694089e-004,
          -2.76747451e-005, 2.85847927e-005, 1.23924969e-004,
          2.06057040e-004, 4.98214031e-005, 3.53183095e-005,
          9.21055016e-006, -2.79640699e-005, -1.09154782e-004,
          -5.16540240e-005, -1.35455148e-005, 5.60834633e-005,
          6.73409886e-005, -4.54040855e-006, -4.13078596e-005,
          -5.81375498e-005, -6.75359479e-006, -1.14292543e-005,
          -2.72418547e-005, 3.70816224e-006, 9.15087185e-006,
          4.27665291e-005, 4.88157566e-005, 2.41781090e-005,
          3.88316002e-005, 4.12105692e-005, 7.39175593e-005,
          -4.07078869e-006, 2.78473217e-005, 9.52491246e-006,
          -2.59262961e-005, -4.99591879e-005, 1.89484508e-005,
          3.78182049e-005, 2.35327570e-005, -4.94579035e-005,
          -5.93869154e-005, -2.68980239e-005, 7.18549636e-005,
          4.15032118e-005, -2.08437523e-005, -4.59952098e-005,
          -1.81729483e-004, -1.00725694e-004, -1.19185977e-004,
          -1.28802967e-005, 3.83530751e-005, 1.19712917e-004,
          1.68690502e-004, 4.12609588e-005, 4.38286734e-005,
          1.15336079e-005, -4.79435948e-005, -1.01842554e-004,
          -5.65006594e-005, -4.34384037e-006, 8.14166997e-005,
          5.74190854e-005, -1.95174835e-005, -7.01396202e-005,
          -5.60971093e-005, -1.88854131e-006, -1.07348260e-005,
          -4.60700649e-005, -2.27344099e-005, 1.01552459e-005,
          4.94474880e-005, 5.00490241e-005, 1.83006850e-005,
          3.70986781e-005, 3.12094198e-005, 6.66725828e-005,
          -2.49538061e-005, 5.25415817e-006, 1.15087832e-005,
          -2.21723622e-005, -3.67334615e-005, 3.98404081e-005,
          5.21084876e-005, 4.19392818e-005, -4.11001602e-005,
          -4.65947269e-005, -4.25551043e-005, -1.13093220e-005,
          6.41118413e-006, -4.98467089e-005, -6.01021275e-005,
          -2.79268443e-005, -6.65700572e-005, -7.57700473e-005,
          -8.99036313e-005, -3.43745960e-005, 6.71005328e-005,
          2.85222686e-005, 4.92831714e-005, 6.80538942e-005,
          2.62033245e-005, -5.92315773e-005, -1.04990395e-004,
          -9.52556074e-005, -3.17503836e-005, 4.69022852e-005,
          8.25866664e-006, -5.71744167e-005, -1.10114779e-004,
          -3.77254328e-005, 1.04971541e-005, -8.24449762e-006,
          -1.20921486e-005, -1.62035194e-005, 1.51450668e-005,
          5.77881692e-005, 2.68677650e-005, -1.81452906e-005,
          2.21134578e-005, 3.99275086e-005, 7.45650832e-005,
          -2.20344136e-005, -8.76004378e-006, 3.39567814e-005,
          -2.87194380e-005, -3.78978257e-005, 3.02119352e-005,
          4.80284180e-005, 4.77146750e-005, 8.27162148e-006,
          -4.46930317e-005, -5.25574069e-005, -7.53865461e-005,
          -4.33900859e-005, -4.08290507e-005, -7.03288824e-005,
          -8.21456197e-005, -8.44887836e-005, -1.27219319e-004,
          -1.14837407e-004, -4.34091598e-005, 7.35534559e-006,
          -7.75853259e-005, 2.33320152e-005, 9.47417902e-006,
          6.15409517e-005, -3.32834679e-005, -1.19617347e-004,
          -1.30810891e-004, -7.76014422e-005, -4.70598861e-005,
          -3.80893398e-005, -7.40096002e-005, -9.53237977e-005,
          -1.18515663e-006, 2.74413760e-005, -2.20802121e-005,
          -9.61201476e-006, -1.53957062e-005, 2.87285493e-005,
          6.28260532e-005, 1.13889437e-005, -3.84140258e-005,
          1.39489184e-005, 5.26182703e-005, 4.99321322e-005,
          -8.17956243e-006, 2.10717790e-005, 2.29692887e-005,
          -1.46078000e-005, -4.54058645e-005, -3.48915128e-005,
          2.74589311e-005, 5.13851446e-005, 6.09008282e-007,
          -3.84165505e-005, -3.57360695e-005, -8.70006406e-005,
          -1.57169881e-004, -6.74084658e-005, -8.53726815e-005,
          -1.59534495e-004, -1.81469470e-004, -1.39762982e-004,
          -6.71715388e-005, -7.27173247e-005, -1.43982470e-004,
          -1.55266636e-004, -8.42192676e-005, -7.21223987e-005,
          -3.21348198e-005, 1.04854407e-005, -4.46266858e-005,
          -6.58390272e-005, -5.64825241e-005, -3.22871347e-005,
          -5.42198577e-005, -8.86671769e-005, -1.13193037e-005,
          4.06120344e-005, 1.71894590e-005, 1.25887473e-005,
          -1.84995988e-005, -1.37915486e-005, 3.92696238e-005,
          6.57826240e-005, -4.13614953e-006, -3.79920930e-005,
          1.93816663e-006, 7.34876012e-005, 2.84239341e-005,
          -3.57638601e-006, -1.33273752e-005, -1.62890829e-005,
          -5.62618607e-006, -3.17505073e-005, -8.09370031e-005,
          -2.12283012e-005, 3.88570261e-005, -4.17654837e-006,
          -1.39554922e-005, -4.61620548e-005, -5.39603752e-005,
          -7.39038369e-005, -5.19742825e-005, -1.04964798e-004,
          -1.65827179e-004, -1.83918994e-004, -1.58317125e-004,
          -1.37264666e-004, -1.04929066e-004, -1.15070376e-004,
          -1.41042779e-004, -1.51548229e-004, -1.17414005e-004,
          -6.74008479e-005, -4.54033288e-005, -1.48621793e-005,
          5.52044867e-006, -7.09523738e-006, -1.07370979e-005,
          -1.70191051e-005, 1.63446093e-005, 4.16013027e-005,
          4.33846071e-005, 1.01170190e-005, -9.94864877e-007,
          -1.95056291e-005, 9.63813363e-006, 4.57852948e-005,
          2.34729887e-005, -4.13558337e-005, -4.86500103e-005,
          1.98969319e-005, 3.69936315e-005, 3.15025027e-005,
          1.10227454e-007, -8.63644073e-006, 2.02683950e-005,
          2.81907123e-005, -1.53906312e-005, -7.63236021e-005,
          -1.14205701e-004, -3.06159745e-005, -1.24944918e-005,
          -2.37662935e-005, -1.27517178e-005, -3.84086125e-005,
          -2.51096117e-005, -8.32273781e-006, -6.21252411e-006,
          -7.74694054e-005, -1.26781029e-004, -1.19308039e-004,
          -1.06027575e-004, -9.98085088e-005, -1.05721345e-004,
          -1.30960820e-004, -1.31492401e-004, -1.15121140e-004,
          -8.72593228e-005, -5.61366651e-005, -6.83467351e-006,
          5.02018484e-005, 4.68101098e-005, 3.93941518e-005,
          2.94037491e-005, 4.12269437e-005, 5.66852941e-005,
          3.15818797e-005, 1.88517097e-005, -2.27258697e-005,
          -1.69200539e-005, 1.83059637e-005, 3.98232696e-005,
          -5.31239994e-006, -2.44690200e-005, -5.76475395e-005,
          4.80837589e-005, 2.50400335e-005, 3.13820165e-005,
          6.21720801e-007, -2.72984403e-006, 1.29208627e-006,
          -6.36242657e-006, 2.07624616e-005, -4.31890003e-005,
          -1.37414114e-004, -6.05067289e-005, -6.37358107e-006,
          -2.46300406e-005, -6.61081003e-006, -1.19164743e-005,
          -1.58634466e-005, 2.47958474e-006, 1.31480929e-005,
          -1.33485937e-005, -5.15810789e-005, -5.58171159e-005,
          -6.58884601e-005, -5.92287397e-005, -5.53376740e-005,
          -5.95439997e-005, -5.45602270e-005, -6.34036114e-005,
          -5.66904528e-005, -4.75523666e-005, -1.35177197e-005,
          1.82104905e-005, 2.94327328e-005, 3.71310889e-005,
          3.22663218e-005, 4.44625039e-005, 4.16617186e-005,
          3.67052962e-005, -1.48503921e-006, -1.41515065e-005,
          4.35880429e-006, 9.70109522e-006, -1.27534031e-005,
          -1.36733925e-005, -1.30064318e-005, -3.53981959e-005,
          6.13920492e-005, 3.69172158e-005, 3.31068622e-005,
          -2.24015844e-006, -2.02607885e-006, 2.01339404e-007,
          2.23609295e-005, -2.41358930e-006, -1.36011104e-005,
          -6.55969125e-005, -6.99961602e-005, 4.63857623e-006,
          -1.11259260e-005, -2.01199946e-005, -5.95589563e-006,
          -1.97837585e-006, -1.95771809e-005, 2.01254934e-005,
          1.98237121e-005, 3.10016912e-006, -1.54159352e-005,
          -3.01667314e-005, -3.49308539e-005, -2.65909221e-005,
          -2.29971574e-005, -2.48311098e-005, -2.07185003e-005,
          -2.48062915e-005, -2.01127859e-005, 2.04641628e-006,
          1.25489687e-005, 1.97130339e-005, 3.30500116e-005,
          2.88468909e-005, 2.37301592e-005, 4.21730765e-005,
          1.04258979e-005, -2.12609666e-005, -1.99427723e-005,
          -2.94431720e-006, 1.01140859e-005, -8.44207352e-006,
          -8.08542791e-006, -5.99682098e-005, 3.21762782e-005,
          6.10452989e-005, 3.75999116e-005, 2.31933118e-005,
          -1.15089574e-006, 1.49138532e-006, -1.76665117e-006,
          1.11547915e-005, 1.06134785e-005, 1.76679096e-005,
          -1.21743587e-005, -6.55359545e-005, -2.06292643e-005,
          1.97111676e-005, -1.62429353e-006, -2.77673644e-005,
          -1.44898277e-005, -1.34321999e-006, -2.59288827e-005,
          1.85292606e-006, 2.85668830e-005, 1.50303931e-005,
          8.78608989e-006, 8.06371099e-006, 6.10079360e-006,
          3.02518902e-006, 6.13055863e-006, 1.03826633e-005,
          1.70132662e-005, 1.83379452e-005, 3.03039706e-005,
          3.44469736e-005, 2.93646244e-005, 1.76301583e-005,
          1.59857173e-005, 1.11894642e-005, -2.17857723e-005,
          -1.84287092e-005, -2.91229189e-005, -3.67212961e-005,
          -1.86184534e-005, 9.50473805e-006, 1.72185537e-005,
          -3.74603915e-005, 3.06092479e-005, 5.38417371e-005,
          4.06502113e-005, 3.77707402e-005, 3.21034832e-007,
          -6.35169442e-007, 9.54823008e-007, -1.94855988e-006,
          9.69970188e-006, 2.65333365e-005, -1.64474864e-006,
          -5.44004763e-007, -4.74442641e-005, -3.60513732e-005,
          5.25959076e-005, 3.60535778e-005, -8.37913649e-006,
          -2.65522358e-005, -2.10653889e-005, -1.39121903e-005,
          1.19732995e-005, -2.88513661e-007, 1.32366531e-005,
          2.13478288e-005, 1.23651225e-005, 8.71936572e-006,
          1.45343429e-005, 2.04417302e-005, 1.31550505e-005,
          6.74635248e-006, 1.38911701e-005, 3.37069541e-005,
          4.95576642e-005, 7.13289264e-005, 7.22191398e-005,
          3.41355371e-005, -1.17131021e-005, -3.81661775e-005,
          -2.02310730e-005, -3.36970297e-005, -4.04418533e-005,
          -3.16413352e-005, -2.20606125e-006, 4.43318868e-006,
          -2.48009565e-005, 4.71900530e-005, 4.98099689e-005,
          3.72598261e-005, 1.70679286e-005, -2.18346159e-007,
          -2.46976424e-006, 2.38178154e-006, -1.45613262e-006,
          6.52133804e-006, 3.91482317e-005, 1.69463074e-005,
          -4.60988122e-006, 6.59108446e-006, -7.79542897e-005,
          1.02994172e-005, 6.48548084e-005, 2.51776073e-005,
          -5.72278259e-006, -1.21151143e-005, -2.18494897e-005,
          -2.74231552e-005, -1.43576281e-005, 1.20472805e-005,
          1.41434439e-005, 2.64497030e-005, 2.61106161e-005,
          2.70433320e-005, 3.31023111e-005, 1.28665424e-005,
          9.87576095e-006, 4.37407107e-005, 7.53731001e-005,
          8.91049713e-005, 1.05243140e-004, 9.33304618e-005,
          6.61211525e-005, 1.06738671e-005, -2.73434071e-005,
          -5.20593021e-005, -4.31780245e-005, -5.24381103e-005,
          -3.52553325e-005, -4.49579456e-005, -2.57391112e-005,
          4.53084940e-005, 7.25646896e-005, 5.02788025e-005,
          3.97044059e-005, 2.65401536e-006, -5.84929865e-007,
          -1.08404470e-006, -8.09321591e-007, 1.06681136e-006,
          5.34559035e-007, 1.36464096e-005, 4.20500764e-005,
          2.29389861e-005, -5.37271717e-007, -4.20911274e-005,
          -4.07146872e-005, 3.42734384e-005, 7.71080959e-005,
          3.59065925e-005, 2.03187938e-007, -1.66258860e-006,
          -1.82767271e-005, -2.83944173e-005, -3.56144847e-005,
          -3.61588900e-005, -2.01816019e-005, -3.26052714e-006,
          8.58783824e-006, 1.04494420e-005, 9.61790738e-006,
          1.33221938e-005, 1.01602973e-005, 2.45337378e-005,
          6.36538898e-005, 9.74649010e-005, 9.84306243e-005,
          7.24280690e-005, 9.80936693e-006, -4.18152813e-005,
          -5.32084305e-005, -3.68367218e-005, -2.63900474e-005,
          -1.84649507e-005, -1.15739922e-005, 2.69646953e-005,
          7.50276813e-005, 6.40121216e-005, 4.22453631e-005,
          8.37682273e-006, -9.70740189e-007, -2.41611542e-006,
          -5.87824445e-007, 2.70686655e-006, -1.27842739e-007,
          -2.14189845e-006, 1.00578848e-006, 1.43355428e-005,
          3.51330709e-005, 2.56916555e-005, -2.53740154e-006,
          -6.94213725e-007, -1.22963438e-005, 4.45883961e-005,
          5.94238409e-005, 2.60252946e-005, 1.48534320e-006,
          -8.72753662e-006, -2.06675595e-005, -2.34515719e-005,
          -2.67732121e-005, -3.47017121e-005, -3.00176725e-005,
          -2.69447519e-005, -2.53314447e-005, -2.18932291e-005,
          -1.99617061e-005, -8.11596601e-006, 2.00305822e-005,
          4.60630872e-005, 8.36258187e-005, 6.98080257e-005,
          3.74365009e-005, -8.17538694e-006, -1.78373921e-005,
          -6.65620973e-006, -2.25105177e-005, -1.61566859e-005,
          -4.48315495e-006, 2.00240102e-005, 7.26620783e-005,
          6.61747617e-005, 3.80905076e-005, 9.28049121e-006,
          -1.12073565e-006, -7.28262194e-007, 1.51074880e-006,
          -2.03287907e-019, 2.32112015e-007, 1.32070255e-007,
          -2.03287907e-019, 3.66165608e-007, 5.69487725e-007,
          1.22151187e-005, 3.70878006e-005, 1.58458261e-005,
          1.59107367e-005, -2.65922372e-005, -1.45650693e-005,
          -3.99681767e-006, 1.40529551e-006, 7.80855498e-006,
          3.02701778e-006, -9.28242389e-006, -1.29101518e-005,
          -1.97615154e-005, -1.05145737e-005, 1.11577483e-005,
          1.90495521e-005, 7.90355989e-006, 1.26800587e-005,
          1.22870661e-005, 5.40920200e-006, 3.28550777e-006,
          1.96558231e-005, 3.35279292e-005, 3.02995013e-005,
          3.11741242e-005, 1.22728279e-005, 7.95807955e-006,
          4.21982586e-005, -6.11330643e-006, 4.31967283e-006,
          1.39691392e-005, 6.38972342e-005, 5.79957632e-005,
          3.49995680e-005, 8.31729449e-006, 6.93107836e-007,
          -2.03287907e-019, 1.73276959e-007, -2.03287907e-019,
          1.32070255e-007, -2.03287907e-019, 2.78128329e-008,
          4.76640821e-007, 6.10694428e-007, 3.92233694e-008,
          1.50600488e-006, 9.02607007e-006, 3.02241588e-005,
          1.85314748e-005, 1.93950364e-005, -1.37175184e-005,
          -7.97498160e-006, -1.69414561e-005, -1.09546927e-005,
          9.20448474e-006, 1.16885030e-006, 7.53119275e-006,
          3.23123058e-005, 3.91264330e-005, 4.34547073e-005,
          5.38748573e-005, 5.73580801e-005, 6.29778588e-005,
          3.78251680e-005, 3.64529369e-005, 1.70658714e-005,
          1.89797138e-005, 3.59810983e-005, 5.55154766e-005,
          5.52277343e-005, 3.18742095e-005, 2.46131071e-006,
          -1.07235028e-005, -3.76904495e-006, 3.28895585e-005,
          4.42109122e-005, 3.08341150e-005, 2.15575019e-005,
          8.65223774e-006, 5.19830905e-007, -2.03287907e-019,
          3.46553918e-007, 1.73276959e-007, -2.03287907e-019,
          6.10694428e-007, -2.03287907e-019, 2.51723691e-007,
          -2.03287907e-019, -2.03287907e-019, -2.03287907e-019,
          -2.03287907e-019, -2.03287907e-019, 8.59209194e-006,
          2.71680146e-005, 3.22824562e-005, 1.21748917e-005,
          5.60808767e-005, -7.48569892e-006, -2.19636750e-005,
          -2.65344715e-005, 8.22190850e-006, 3.08499184e-005,
          5.59526561e-005, 5.95515849e-005, 7.10213935e-005,
          7.96060413e-005, 7.20137177e-005, 7.53855275e-005,
          5.90926720e-005, 4.59073744e-005, 1.59074116e-005,
          2.10406470e-005, 7.02747348e-005, 9.81560661e-005,
          3.25963156e-005, -1.40689954e-005, 5.15683541e-006,
          -3.20133404e-005, 2.17103960e-007, 3.79411467e-005,
          2.83874961e-005, 8.48549735e-006, 2.45128490e-007,
          -2.00756631e-006, -2.03287907e-019, 1.73276959e-007,
          3.46553918e-007, -2.03287907e-019, -2.03287907e-019,
          1.92888649e-007, -2.03287907e-019, 3.05347214e-007,
          1.96116847e-008, -2.03287907e-019, 5.19830905e-007,
          4.98235863e-007, 2.64140510e-007, -1.39596966e-006,
          6.99579732e-006, 7.28896248e-006, 2.81325774e-005,
          4.69514671e-005, 3.51600756e-005, 2.93738922e-005,
          -1.75898203e-005, 2.32106049e-005, 4.01448196e-005,
          6.36062614e-005, 6.20661158e-005, 9.05788183e-005,
          9.30964015e-005, 1.01038866e-004, 6.85818959e-005,
          6.08672235e-005, 5.56421983e-005, 5.69699732e-005,
          3.33227581e-005, -4.95446830e-006, 3.82074104e-005,
          -2.64428709e-005, -5.84631598e-005, 2.37645600e-006,
          1.49363023e-005, 3.34203833e-005, 2.91547276e-005,
          4.75040179e-006, -2.12635791e-006, 2.23915072e-006,
          3.60822867e-007, 3.46553918e-007, 1.73276959e-007,
          -2.03287907e-019, -2.03287907e-019, 5.19830905e-007,
          1.73276959e-007, 1.96116847e-008, 1.32070255e-007,
          1.73276959e-007, 2.32112015e-007, -1.06104991e-007,
          5.88350524e-008, -2.03287907e-019, -6.58171416e-007,
          -1.08954396e-006, 3.63260455e-007, 1.17219652e-005,
          1.66300233e-005, 1.89069287e-005, 5.75523118e-005,
          7.63256976e-005, 6.56866323e-005, 4.24761638e-005,
          2.33337159e-005, -1.53465680e-005, 2.48934830e-005,
          2.51528104e-006, -1.45986323e-005, 1.20318209e-005,
          -1.15973635e-005, 1.60183808e-005, 4.14649803e-005,
          7.69848430e-006, -2.16826302e-005, -2.82511392e-005,
          -2.61084915e-005, 4.64315999e-005, 4.47697530e-005,
          3.62111423e-005, 3.77975994e-006, 2.34858544e-006,
          2.23001189e-006, -3.70618629e-008, -2.21158393e-006,
          -1.76802939e-006, -2.03287907e-019, -2.03287907e-019,
          -2.03287907e-019, -2.03287907e-019, -2.03287907e-019 ]
      - [ -4.41217016e-005, -3.97922777e-005, -3.68654510e-005,
          -3.26514273e-005, -2.55473660e-005, -3.10323921e-005,
          -3.67798457e-005, -3.62526662e-005, -3.03955658e-005,
          -1.79370218e-005, -1.14903423e-005, -1.58783166e-006,
          3.58550608e-007, -3.71152555e-006, 2.06567006e-006,
          2.03555628e-005, -1.89085295e-005, -7.41940748e-005,
          -6.30638096e-005, -3.22297601e-005, -5.15404172e-005,
          -1.22808779e-004, -9.66586595e-005, -5.81329332e-005,
          -8.87374044e-005, -1.70967818e-004, -2.09327161e-004,
          -1.25243911e-004, 4.96709035e-005, 1.06513275e-004,
          6.59978905e-005, 3.28620126e-006, -1.56656442e-005,
          -2.25503882e-005, -2.57381453e-005, -3.61265520e-005,
          -3.87271793e-005, -3.79749181e-005, -4.10164321e-005,
          -3.52219504e-005, -3.59499718e-005, -3.89818961e-005,
          -3.79996418e-005, -2.46086111e-005, -1.61250791e-005,
          -4.18677409e-005, -4.02058031e-005, -3.40870974e-005,
          -3.13356722e-005, -3.01181371e-005, -3.41638442e-005,
          -3.98497286e-005, -3.35107579e-005, -2.86608993e-005,
          -1.42294175e-005, -6.11797577e-006, -3.95654934e-006,
          5.62175364e-006, 2.14817228e-005, 9.28602549e-006,
          -4.31166809e-005, -9.21351748e-005, -9.92569476e-005,
          -7.98315959e-005, -4.39600626e-005, -3.87470063e-005,
          -5.51831836e-005, -4.70952291e-005, -4.15259638e-005,
          -5.54735925e-005, -1.00620564e-004, -1.07984408e-004,
          -8.96365964e-005, -4.85772434e-005, -3.83158767e-005,
          7.64770175e-006, 6.37898920e-005, 4.39389150e-005,
          2.20530856e-005, -2.18405185e-005, -3.30226976e-005,
          -3.87793989e-005, -3.79238372e-005, -3.99559649e-005,
          -4.00081990e-005, -3.64473781e-005, -3.72762042e-005,
          -3.78484583e-005, -3.12377852e-005, -2.63464372e-005,
          -4.15753020e-005, -3.90580899e-005, -3.06458278e-005,
          -2.83944373e-005, -2.87984767e-005, -3.54245713e-005,
          -3.84491759e-005, -2.61925288e-005, -1.64706198e-005,
          -2.82800738e-006, 1.32222422e-005, -1.83790362e-005,
          -7.36852453e-005, -6.48044661e-005, -4.10034409e-005,
          -4.63907199e-005, -7.12583860e-005, -5.93459299e-005,
          -4.14679089e-005, -2.61723926e-005, -2.38736484e-005,
          -2.43813211e-005, -3.96235337e-005, -5.70423581e-005,
          -6.20879946e-005, -8.01617425e-005, -8.54631071e-005,
          -9.57673110e-005, -1.04681145e-004, -9.42236875e-005,
          -1.80112220e-005, 9.83083664e-005, 1.61366275e-004,
          9.46063228e-005, 8.76739477e-007, -1.43551470e-005,
          -2.71442404e-005, -3.69678892e-005, -4.38304924e-005,
          -3.60661725e-005, -3.62776955e-005, -3.68207475e-005,
          -4.01864236e-005, -3.99286146e-005, -4.10200664e-005,
          -4.01496327e-005, -3.75801137e-005, -3.08928684e-005,
          -3.03344805e-005, -3.29795985e-005, -3.85273452e-005,
          -3.52821698e-005, -2.32541151e-005, -1.24827784e-005,
          -3.87666387e-006, 5.61702109e-006, -5.47441778e-005,
          -8.48735435e-005, -5.22616283e-005, -3.54648255e-005,
          -2.95777681e-005, -2.39671062e-005, -8.13719089e-006,
          4.98003010e-006, 6.58091449e-006, 7.66733410e-006,
          9.81069479e-006, 8.04948559e-006, 2.56709654e-007,
          -7.16833210e-006, -1.38515725e-005, -2.43481900e-005,
          -3.73970906e-005, -4.54291330e-005, -4.03709819e-005,
          -2.13109761e-005, 2.74824743e-005, 1.13472859e-004,
          9.78838871e-005, 8.35018291e-005, 7.75638255e-005,
          1.97260451e-005, -3.76993594e-005, -3.84826781e-005,
          -3.83886436e-005, -3.51001217e-005, -3.57045064e-005,
          -3.68774854e-005, -4.00870667e-005, -4.26805636e-005,
          -3.85693893e-005, -3.56439050e-005, -3.13919154e-005,
          -3.33056414e-005, -3.43084466e-005, -3.64387524e-005,
          -2.87713610e-005, -3.01191449e-007, -7.69824692e-006,
          -3.58807301e-005, -1.88653394e-005, -2.05257038e-005,
          1.81440610e-005, 7.98958536e-006, 1.64059543e-006,
          -2.31445993e-005, -2.45738192e-005, 4.27245027e-007,
          5.09890378e-006, 1.26588316e-006, 5.94992935e-006,
          7.61475712e-006, 7.18667980e-006, 5.30758962e-006,
          -6.04668548e-006, -2.07099242e-006, -7.98914789e-006,
          -1.19983051e-005, -2.36036794e-006, 5.42453790e-006,
          6.20467335e-006, 1.43454747e-006, -5.65547361e-006,
          2.26441771e-005, 9.01770982e-005, 1.61044431e-004,
          7.90072590e-005, 2.23379393e-005, -4.04045431e-006,
          -2.98857394e-005, -3.47726200e-005, -3.58272518e-005,
          -3.66583081e-005, -3.93075352e-005, -4.12423287e-005,
          -3.76068747e-005, -3.31540687e-005, -2.88087449e-005,
          -3.47116838e-005, -3.55108896e-005, -3.05987596e-005,
          -3.30149924e-005, -1.19906308e-005, -4.44436955e-005,
          -1.13704937e-005, 4.37327471e-005, 4.46382073e-005,
          3.40132501e-005, 2.78621337e-005, 2.01481780e-005,
          -1.50706592e-005, -2.70901564e-005, 3.96722771e-006,
          1.17635841e-006, -1.14165846e-006, 5.10303380e-007,
          -2.45120282e-006, -8.74085254e-006, -1.25606857e-005,
          -8.57869509e-006, -5.58421470e-006, -1.37968773e-005,
          -7.79489528e-006, -3.96000223e-006, -1.88790796e-006,
          3.77416518e-006, 6.75667980e-006, 8.92746175e-006,
          1.97950067e-005, 4.83082731e-005, 8.90788724e-005,
          1.52214576e-004, 9.11147508e-005, 1.98880280e-005,
          -1.47764767e-005, -2.68623935e-005, -3.53798350e-005,
          -3.55320735e-005, -3.82357175e-005, -4.03836857e-005,
          -3.58452417e-005, -3.19123101e-005, -2.88457431e-005,
          -3.28347087e-005, -3.24432149e-005, -2.67969008e-005,
          -4.73700966e-005, -6.54013202e-005, -1.08880595e-005,
          1.60979525e-005, 5.46230222e-005, 3.22148335e-005,
          2.84212438e-005, 2.36767410e-005, 1.31793067e-005,
          3.62929245e-006, -1.49368707e-005, -1.65713100e-005,
          -1.82422918e-005, -1.95435441e-005, -1.90332212e-005,
          -1.88544564e-005, -1.93620872e-005, -1.68806309e-005,
          -2.36349279e-005, -2.27194778e-005, -2.41829421e-005,
          -1.70266158e-005, -1.98432044e-005, -1.74946326e-005,
          -3.66791528e-006, 1.11743830e-005, 6.32411502e-006,
          1.40875281e-005, 2.52798454e-005, 3.38849095e-005,
          5.05602875e-005, 8.96395213e-005, 6.55510958e-005,
          -2.90524576e-006, -9.39807160e-006, -3.17812082e-005,
          -3.36264384e-005, -3.71389760e-005, -4.08464075e-005,
          -2.79526121e-005, -3.19168175e-005, -3.22998094e-005,
          -3.54282383e-005, -7.74652199e-006, 1.64053199e-005,
          -1.53941091e-005, -1.69171471e-005, -2.30201858e-005,
          -8.95952326e-006, 4.86750650e-005, 1.77300317e-005,
          1.32908308e-005, -1.51172662e-006, -4.88075045e-007,
          -1.04216588e-005, -1.65176552e-005, -3.33135758e-005,
          -3.14190402e-005, -3.84525047e-005, -4.98793415e-005,
          -4.29548199e-005, -4.54535839e-005, -4.20432843e-005,
          -2.64433293e-005, -1.75698788e-005, -1.35545015e-005,
          -1.08582781e-005, -9.40653263e-006, -7.88087254e-006,
          -4.61963509e-006, -1.19348788e-005, 2.72724236e-007,
          1.87953390e-006, 6.88727596e-006, 2.02949905e-005,
          2.56777844e-006, 3.38412865e-005, 5.65988876e-006,
          -2.00850773e-005, 2.21296159e-005, -1.33700014e-005,
          -2.76396113e-005, -3.15486141e-005, -3.36225276e-005,
          -2.59845947e-005, -2.91870492e-005, -3.00179872e-005,
          -7.63278513e-006, 2.48122051e-005, 9.42768565e-006,
          -3.59738078e-006, -8.64336016e-006, -3.48079084e-006,
          2.70941964e-005, 2.51712881e-005, 9.67598771e-006,
          -3.12473759e-007, -1.20216473e-005, -2.46513173e-005,
          -3.66649001e-005, -5.83022083e-005, -7.71625855e-005,
          -7.16469876e-005, -6.74881376e-005, -6.89427106e-005,
          -6.87557258e-005, -6.93410766e-005, -6.09609160e-005,
          -4.80290037e-005, -3.65340311e-005, -2.52866103e-005,
          -2.11111947e-005, -9.90316494e-006, -6.70690997e-006,
          -1.00301277e-005, -8.53300264e-007, -1.27162537e-006,
          -1.15387490e-006, 5.92793640e-006, 1.30818280e-005,
          8.61592252e-006, 2.45042111e-006, 1.28126758e-005,
          4.70173218e-005, 1.85896042e-005, -2.27913938e-006,
          -2.05384549e-005, -1.81859086e-005, -1.56078877e-005,
          -2.47107291e-005, -3.18657912e-005, -2.06320165e-005,
          1.63003715e-005, 9.70731344e-006, 6.48189189e-006,
          1.09397897e-005, 6.14280725e-006, 1.27570684e-005,
          1.70017192e-005, 7.23104085e-006, -6.74708008e-006,
          -1.75502810e-005, -3.46418128e-005, -5.34657447e-005,
          -7.15338028e-005, -7.16997092e-005, -7.95317828e-005,
          -8.13985607e-005, -7.17979274e-005, -6.77508433e-005,
          -6.04301385e-005, -5.42783564e-005, -5.25657779e-005,
          -4.97964611e-005, -4.64803597e-005, -3.86146457e-005,
          -2.81874200e-005, -1.54773861e-005, -1.04602605e-005,
          -6.79266759e-006, 9.53360723e-006, 3.99136616e-006,
          1.41389125e-006, 4.34347658e-006, 8.42720419e-006,
          5.21755601e-006, 1.33326475e-005, 1.19000388e-005,
          1.66460577e-005, -2.05212109e-006, -9.21831088e-006,
          1.15329394e-005, 5.81300537e-006, 2.65941230e-006,
          -3.15795078e-005, -2.08388792e-005, -1.52091425e-005,
          -2.26898483e-005, -7.48661841e-005, 2.64836599e-005,
          6.72600290e-005, 4.80601120e-005, 3.28139140e-005,
          1.50115566e-005, -3.43827173e-006, -1.54353111e-005,
          -3.51640520e-005, -6.32527153e-005, -7.14920243e-005,
          -8.32102014e-005, -8.03483999e-005, -6.79504883e-005,
          -5.42601920e-005, -4.61239579e-005, -3.89936213e-005,
          -3.21622538e-005, -2.79626274e-005, -2.98467603e-005,
          -2.30373607e-005, -1.92312255e-005, -1.52433859e-005,
          -2.67872565e-005, -2.88953252e-005, -1.92536918e-005,
          -1.45752583e-005, -1.18022608e-005, 2.33698461e-006,
          3.83732413e-006, -5.08492406e-007, -6.29240230e-006,
          6.02955743e-006, 5.77532273e-006, 9.07682443e-006,
          1.45037775e-005, 1.26467021e-005, -2.20457896e-005,
          -6.04516174e-007, 2.08494548e-005, 2.03703621e-005,
          -2.56074090e-005, 1.18690969e-005, -1.29004338e-005,
          -6.22225853e-005, 1.13617216e-005, 3.65213746e-005,
          5.17639455e-005, 3.44748660e-005, 2.81038483e-005,
          1.98831117e-006, -1.27023040e-005, -3.06949478e-005,
          -5.78321742e-005, -7.65564255e-005, -7.72277999e-005,
          -7.39696334e-005, -6.69516230e-005, -5.58747815e-005,
          -4.38486677e-005, -3.15496982e-005, -2.05162178e-005,
          -1.57019022e-005, -1.41610662e-005, -7.61494948e-006,
          -1.21127523e-005, -7.25873406e-006, -8.91623040e-006,
          -9.90920671e-006, -6.28320549e-006, -2.06395453e-006,
          -6.86125304e-006, -2.47571734e-007, -8.33525792e-006,
          9.81379890e-006, 8.80337097e-007, -9.63625007e-006,
          6.69827159e-006, 1.04123228e-005, 1.23190212e-005,
          1.96130477e-005, 3.17410449e-005, -2.77991276e-005,
          -5.80215201e-005, 7.29117073e-006, 5.72392710e-005,
          1.08376780e-005, -1.83566717e-005, -1.89539369e-005,
          -3.76699500e-005, 1.65581441e-005, 3.06473012e-005,
          3.12426746e-005, 1.42615754e-005, 2.30049955e-006,
          -1.57094437e-005, -3.66980130e-005, -7.39265379e-005,
          -7.97127723e-005, -8.04201918e-005, -8.28753400e-005,
          -7.96171880e-005, -7.07156942e-005, -6.35175893e-005,
          -5.91267853e-005, -5.17827357e-005, -3.86284082e-005,
          -2.76819683e-005, -1.94238437e-005, -1.66797126e-005,
          -8.32359729e-006, -2.41342286e-006, 8.23021855e-006,
          1.74067354e-005, 3.02752887e-005, 2.75726343e-005,
          1.01353162e-005, 1.51592822e-005, 1.61542521e-005,
          5.95870370e-006, 1.27469775e-005, 1.45551367e-005,
          1.84601668e-005, 2.90501703e-005, 3.17191334e-005,
          2.45036827e-005, 3.12716184e-005, -1.62263348e-006,
          -4.04606253e-005, 3.79025010e-007, 7.45416037e-005,
          -1.39989618e-006, -3.72927134e-005, -3.80734600e-005,
          -3.95101597e-005, 4.66648180e-006, 3.33646058e-005,
          2.31421036e-005, 1.56676742e-005, -4.56761472e-006,
          -3.45419321e-005, -5.64042384e-005, -8.68573261e-005,
          -9.98234536e-005, -1.07902117e-004, -1.32856832e-004,
          -1.20863500e-004, -9.38136945e-005, -6.58128702e-005,
          -7.86299279e-005, -8.97594145e-005, -8.18765911e-005,
          -5.32256781e-005, -3.01851014e-005, -1.80647094e-005,
          8.21605772e-006, 2.22454964e-005, 3.87068103e-005,
          4.70940649e-005, 3.99532873e-005, 1.38649257e-005,
          -2.31826834e-006, 1.04416404e-005, 2.19380090e-005,
          2.16321441e-005, 1.45400763e-005, 2.51717192e-005,
          3.07290320e-005, 3.58993893e-005, 4.18890813e-005,
          4.53103639e-005, 3.83022452e-005, 2.49431814e-005,
          -1.70111744e-005, -2.00782756e-006, 7.43962009e-005,
          2.74804261e-005, -6.89572562e-006, -4.77478243e-005,
          -5.36212465e-005, 1.22770443e-005, 3.45504159e-005,
          1.86556044e-005, 2.40463964e-006, -2.54320257e-005,
          -5.53356731e-005, -6.42577215e-005, -9.61051555e-005,
          -1.21170538e-004, -1.72208500e-004, -1.62785334e-004,
          -1.06772175e-004, -6.67162603e-005, -6.42131126e-005,
          -1.17010051e-004, -1.41766941e-004, -1.30027096e-004,
          -9.27994406e-005, -4.13874259e-005, 4.95392715e-006,
          5.05089847e-005, 7.81260533e-005, 8.33803861e-005,
          8.21034992e-005, 7.50698091e-005, 4.79027767e-005,
          2.87703551e-005, 4.12918098e-006, 1.61075623e-005,
          2.85382084e-005, 3.47295536e-005, 2.36182605e-005,
          3.17698032e-005, 3.63949111e-005, 3.29012146e-005,
          4.34679387e-005, 4.84979028e-005, 5.37469896e-005,
          1.12475309e-005, -1.56314636e-005, -1.43681109e-006,
          4.37025847e-005, -2.87215025e-005, -8.06427033e-006,
          4.25082872e-005, 4.49647814e-005, 4.91335959e-005,
          3.48117355e-005, 6.69504630e-007, -4.08985616e-005,
          -6.22456209e-005, -7.85959055e-005, -1.04565559e-004,
          -1.66280137e-004, -1.91320898e-004, -1.22355676e-004,
          -4.90337807e-005, -9.49706646e-006, -5.13854138e-005,
          -1.53383313e-004, -1.98575901e-004, -1.85701429e-004,
          -1.11040019e-004, -4.17433403e-005, 3.17015438e-005,
          7.92189312e-005, 7.18922893e-005, 3.92879083e-005,
          3.13038800e-005, 1.88643935e-005, -3.31609613e-006,
          -7.87269073e-006, -8.61165972e-006, -1.89746224e-005,
          1.41969376e-005, 2.91287470e-005, 3.57703902e-005,
          4.33170862e-005, 2.50665453e-005, 2.71688732e-005,
