%YAML:1.0
my_svm: !!opencv-ml-svm
   svm_type: C_SVC
   kernel: { type:LINEAR }
   C: 1.0000000000000001e-001
   term_criteria: { epsilon:2.2204460492503131e-016, iterations:1000 }
   var_all: 2025
   var_count: 2025
   class_count: 8
   class_labels: !!opencv-matrix
      rows: 1
      cols: 8
      dt: i
      data: [ 1, 2, 3, 4, 5, 6, 7, 8 ]
   sv_total: 28
   support_vectors:
      - [ 4.95133754e-005, 5.06255310e-005, -5.72441095e-005,
          -8.36870167e-005, -8.01559072e-005, -6.23855667e-005,
          -6.42099258e-005, -6.09892195e-005, -4.75739726e-005,
          -3.11131516e-005, -1.87620335e-005, -3.70349244e-006,
          -2.88301180e-006, -4.43137105e-006, 6.09244034e-006,
          -9.84081416e-005, -1.53888264e-004, 4.92164909e-005,
          -2.66886855e-005, 9.47609878e-005, 1.12379566e-004,
          1.00865354e-005, -3.75695090e-005, -2.88402753e-005,
          2.91130323e-006, -1.35291615e-004, -2.03210904e-004,
          -9.85549705e-005, 1.81556079e-005, 6.38923884e-005,
          1.74382789e-004, 1.63010685e-004, 1.60932919e-004,
          6.73921932e-006, -6.21149302e-005, -7.49139581e-005,
          -8.50494253e-005, -8.11035934e-005, -8.43053786e-005,
          -7.78008834e-005, -7.81242197e-005, -8.39061249e-005,
          -8.36756371e-005, -6.30053546e-005, -4.88416626e-005,
          9.26648863e-005, 6.72393071e-005, -6.68548746e-005,
          -5.93960285e-005, -6.46853878e-005, -6.36266413e-005,
          -6.87690699e-005, -5.25187861e-005, -4.70928753e-005,
          -2.99773001e-005, -1.87523165e-005, -1.17389536e-005,
          -5.09837664e-005, -6.96373390e-005, 6.19563361e-005,
          4.75494608e-006, -6.62935854e-005, 4.32275410e-005,
          -5.68858604e-006, -4.71002613e-006, 1.15077046e-005,
          -4.46988743e-005, -6.86687927e-005, -8.53740567e-005,
          -4.79211085e-005, -9.12416290e-005, 1.25217657e-005,
          8.65235343e-005, -6.76037016e-005, -6.45129621e-005,
          -3.48353460e-005, 1.72275380e-004, -3.76490675e-006,
          -4.27697414e-005, -6.39289792e-005, -6.87398642e-005,
          -7.98976471e-005, -8.06432727e-005, -8.41541623e-005,
          -7.90394115e-005, -7.94189618e-005, -8.09987760e-005,
          -8.47493138e-005, -7.22905243e-005, -6.24742461e-005,
          -4.61035124e-005, -5.48228454e-005, -3.98271768e-005,
          -3.25695510e-005, -5.10942373e-005, -6.04577872e-005,
          -6.07374604e-005, -4.50003245e-005, -2.76795290e-005,
          -4.94250628e-007, 1.74962565e-006, -4.70022278e-005,
          -1.44811886e-004, -1.14612245e-004, -5.53893551e-005,
          -1.24154962e-004, -6.64357003e-006, -4.68530634e-005,
          -7.97227403e-005, -1.38920286e-005, 4.18360032e-005,
          8.77845480e-007, -5.09940437e-005, -1.30719796e-004,
          -8.23646478e-005, -5.29262434e-005, -5.85899288e-005,
          -7.96072854e-005, -1.25811406e-004, -1.04929750e-004,
          2.63214733e-005, 1.85224722e-004, 1.14347858e-004,
          3.44049549e-005, -4.46546983e-005, -5.49691977e-005,
          -6.23732412e-005, -6.79769437e-005, -8.21291978e-005,
          -8.03934672e-005, -8.09994453e-005, -7.96662353e-005,
          -8.52617159e-005, -8.42411464e-005, -8.34455495e-005,
          -4.34346512e-005, -3.43639003e-005, -2.16497392e-005,
          -1.73733988e-005, -5.30957332e-005, -6.17617261e-005,
          -5.56246669e-005, -4.05898973e-005, -2.73093574e-005,
          -1.89196689e-005, -2.97645747e-005, 1.58992043e-005,
          2.97062093e-006, -3.91767790e-005, -4.00508397e-005,
          -3.37632227e-005, -5.77707351e-006, -2.30029709e-005,
          -9.20276580e-006, 1.26280665e-005, 2.45610718e-005,
          3.96734395e-005, 5.43306414e-005, -1.06030348e-005,
          -4.35210532e-005, -4.90998245e-005, -5.15546599e-005,
          -6.15215977e-005, -6.08577830e-005, -6.65844855e-005,
          -2.05033848e-005, 8.00386988e-005, 1.66212325e-004,
          3.21726875e-005, 5.73098587e-005, 1.70006588e-005,
          -1.53822875e-005, -3.54384283e-005, -4.57828100e-005,
          -6.56420307e-005, -7.53983259e-005, -7.40153555e-005,
          -7.74902073e-005, -7.89998012e-005, -8.66886185e-005,
          -4.37468007e-005, -4.01266043e-005, -2.84046382e-005,
          -4.94250598e-005, -5.52359961e-005, -5.59608452e-005,
          -3.97642507e-005, -4.55601912e-005, -2.90929620e-005,
          4.98074915e-005, 6.09911658e-005, 9.00104642e-005,
          2.94478759e-005, 9.98765063e-006, -3.92995798e-006,
          2.49747864e-005, 1.11728359e-005, 1.25632205e-005,
          2.42150218e-005, 1.45544691e-005, 3.83311271e-006,
          5.22263190e-006, -1.10680412e-006, -1.28566762e-005,
          -3.62329374e-005, -3.65832457e-005, -3.69082591e-005,
          -3.46627421e-005, -3.08984163e-005, -3.56850142e-005,
          -4.08070337e-005, -2.78417847e-005, 8.97775180e-007,
          2.25794665e-005, 2.03987700e-004, 1.92416279e-004,
          8.50474753e-005, -1.94836775e-005, -3.75153759e-005,
          -4.77698231e-005, -4.94784981e-005, -5.33386010e-005,
          -6.95660128e-005, -7.73294523e-005, -8.45544055e-005,
          -4.14384267e-005, -4.73962245e-005, -5.07272816e-005,
          -5.67961142e-005, -5.61397392e-005, -5.94865742e-005,
          -2.44200837e-005, 1.61706976e-006, 1.27832318e-004,
          1.95777480e-004, 1.43956961e-004, 3.26199879e-005,
          4.19789285e-006, 5.56670739e-006, 2.22932867e-005,
          2.81090634e-005, 1.30759818e-005, 7.45949274e-006,
          5.83475412e-007, -5.28564215e-006, -1.54261579e-005,
          -3.26569716e-005, -3.95668030e-005, -5.26932636e-005,
          -3.86474494e-005, -3.38122809e-005, -4.03382910e-005,
          -4.24893042e-005, -4.34142712e-005, -6.12569565e-005,
          -7.98770488e-005, -4.99318994e-005, -3.93470800e-005,
          -1.61260905e-005, 6.19317507e-005, 1.71322929e-004,
          1.49132931e-004, 2.52965656e-005, -3.32475320e-005,
          -2.96782291e-005, -3.36729317e-005, -3.62334358e-005,
          -5.63562389e-005, -7.71416962e-005, -8.43431408e-005,
          -6.19283237e-005, -5.04197051e-005, -4.51954111e-005,
          -6.45237305e-005, -5.36006737e-005, -3.27788366e-005,
          -4.58346803e-005, 1.16339543e-004, 2.18586501e-004,
          1.11184912e-004, 6.89730514e-005, 1.75052537e-005,
          -1.31935360e-006, 2.03953696e-005, 1.64739458e-006,
          -2.59741228e-006, -7.82415464e-006, -2.25821022e-005,
          -7.69805138e-006, -3.31999956e-007, -8.73728732e-006,
          -6.15901718e-006, -1.71479187e-005, -2.64552109e-005,
          -2.96383514e-005, -4.99077796e-005, -3.58987163e-005,
          -6.48555724e-005, -5.80998676e-005, -9.98377291e-005,
          -1.07299551e-004, -6.35178440e-005, -4.43944482e-005,
          -1.50956012e-005, 2.47219541e-005, 2.25466629e-005,
          5.13636696e-005, 8.47588217e-006, -1.35230721e-005,
          -1.79474973e-005, -3.16886144e-005, -2.83507015e-005,
          -1.51672921e-005, -5.98406368e-005, -8.38006381e-005,
          -4.79107148e-005, -5.12457191e-005, -5.28456403e-005,
          -5.63583526e-005, -5.57959283e-005, -1.82539952e-005,
          1.00218473e-004, 9.17525031e-005, 1.44524252e-004,
          1.20186458e-004, 4.83594267e-005, 1.80013456e-006,
          -2.03417221e-005, -3.10485448e-005, -2.71537610e-005,
          -1.10759356e-005, 1.06482712e-005, 7.44350564e-006,
          2.95713744e-005, 1.53468463e-005, -1.29450136e-005,
          -3.74797992e-006, -2.91018241e-005, -3.62555838e-005,
          -3.62586215e-005, -4.12210065e-005, -4.30599684e-005,
          -4.95505847e-005, -6.62036255e-005, -9.77456075e-005,
          -1.04678649e-004, -7.23405101e-005, -3.02487151e-005,
          -7.49873880e-006, 8.92042226e-006, 2.81286975e-005,
          3.33513490e-005, 7.91926286e-005, -4.09919267e-005,
          -6.59251164e-005, -1.14554922e-007, -5.19500281e-006,
          8.28533985e-007, -2.36199085e-005, -4.76767491e-005,
          -5.75618797e-005, -6.02900182e-005, -6.39250065e-005,
          -6.60199366e-005, -4.52645363e-005, 8.69750947e-005,
          8.51235454e-005, 5.28572200e-005, 9.95014561e-005,
          8.03675357e-005, 2.16573408e-005, -3.76556454e-005,
          -5.71837372e-005, -3.14085482e-005, -6.14698251e-007,
          1.50774958e-005, -2.08040842e-006, -3.01992513e-005,
          -5.41680020e-005, -6.03565568e-005, -7.87682075e-005,
          -7.70311453e-005, -9.94698639e-005, -9.30716269e-005,
          -8.96643542e-005, -8.00938215e-005, -7.16502545e-005,
          -5.53063983e-005, -5.10694663e-005, -7.03028782e-005,
          -6.32640440e-005, -6.92287940e-005, -6.40292928e-005,
          -3.21269072e-005, -1.50142787e-005, 3.61909798e-007,
          1.57553113e-005, 2.47969292e-005, 5.80934829e-006,
          -2.04202370e-005, -1.26490846e-007, -2.02167776e-005,
          1.33670983e-005, -1.61528192e-006, -2.07148387e-005,
          -4.17836600e-005, -5.18764828e-005, -3.38178943e-005,
          -3.92741058e-005, 7.51200496e-005, 1.16618336e-004,
          1.14702616e-005, 6.08675764e-005, 6.69709916e-005,
          1.77230995e-005, -2.50062803e-005, -5.24841234e-005,
          -2.16353455e-005, 2.11178531e-006, -1.26979703e-005,
          -2.66367351e-005, -6.50120637e-005, -8.69215291e-005,
          -9.07190333e-005, -9.60599937e-005, -9.74747600e-005,
          -9.19884333e-005, -9.91735942e-005, -9.95744704e-005,
          -8.98626531e-005, -8.79291183e-005, -8.36472245e-005,
          -7.37110749e-005, -5.15309730e-005, -5.16460241e-005,
          -5.81534114e-005, -5.83747569e-005, -6.39660211e-005,
          -6.04275519e-005, -3.28530914e-005, -1.68561492e-005,
          -4.72596639e-006, 1.33124249e-005, 3.78414225e-005,
          3.40512702e-006, -6.83818143e-005, -3.51408602e-007,
          1.79447561e-005, 8.51988079e-006, 3.77531069e-006,
          -4.13648086e-005, -3.62051105e-005, -2.74664962e-005,
          -1.49988782e-005, 1.20932447e-004, 8.13930237e-005,
          6.57476849e-005, 8.72140008e-005, 4.46347003e-005,
          -1.57667309e-005, -3.28897549e-005, -1.16608234e-007,
          2.75742786e-005, 1.33002595e-005, -3.06754337e-005,
          -7.07510771e-005, -7.34478381e-005, -9.05056222e-005,
          -8.00360212e-005, -7.20711978e-005, -5.79088846e-005,
          -4.90815401e-005, -5.10669088e-005, -5.99254417e-005,
          -5.59217769e-005, -6.17763508e-005, -4.80028903e-005,
          -5.40730289e-005, -6.07739203e-005, -4.78026996e-005,
          -4.65768026e-005, -3.63058207e-005, -5.65506198e-005,
          -7.04678168e-005, -5.64289294e-005, -5.45943039e-005,
          -3.33790995e-005, 2.36522010e-006, 3.90859714e-005,
          6.31305156e-005, -7.40088944e-005, -2.40410245e-005,
          -2.25662097e-005, 1.26660761e-005, 1.18762875e-006,
          -3.30287476e-005, -3.15193902e-005, -2.57868323e-005,
          3.34344691e-006, 8.06701792e-005, 1.86728630e-006,
          5.74446494e-005, 3.82309736e-005, 2.12322539e-005,
          -2.35943698e-005, 7.50291156e-006, 3.66412314e-005,
          2.60314628e-005, -4.86149074e-005, -7.47474915e-005,
          -7.62565687e-005, -7.68270693e-005, -7.43148194e-005,
          -4.63809956e-005, -2.22293274e-005, -1.88191862e-005,
          -1.01223031e-005, -1.93862670e-005, -1.91486251e-005,
          -1.63326258e-005, -1.88098547e-005, -1.57555060e-005,
          -2.86718841e-005, -3.71362948e-005, -3.48670910e-005,
          -3.94815142e-005, -3.17908416e-005, -2.45042102e-005,
          -5.27133743e-005, -6.86704225e-005, -8.16221509e-005,
          -3.34394317e-005, -1.33123185e-005, 1.13574661e-005,
          5.82526955e-005, 6.02141190e-005, -9.78107346e-005,
          -9.48138477e-005, -2.03744330e-005, 4.58907234e-005,
          -3.75346317e-005, 4.88810474e-005, 4.74852568e-005,
          6.45184264e-005, 4.61575364e-005, 5.22149094e-005,
          2.49413752e-005, 2.38735333e-006, -2.27682722e-005,
          -1.40705806e-005, 4.75828310e-005, 5.09173424e-006,
          -4.36020273e-005, -6.53524039e-005, -8.10955244e-005,
          -1.02040496e-004, -1.20564458e-004, -1.01106198e-004,
          -7.34528294e-005, -5.04063646e-005, -3.25115689e-005,
          -2.05747983e-005, -2.32545553e-005, -1.24918079e-005,
          -3.58044019e-007, 2.26603479e-005, -8.72933924e-006,
          -2.98675313e-005, -2.70511391e-005, -3.28971473e-005,
          -4.68945727e-005, -1.94799632e-005, -1.06734551e-005,
          -2.38616194e-005, -4.06809668e-005, -4.60124065e-005,
          -3.81209866e-005, -1.08962586e-005, -5.88203829e-006,
          3.46811539e-005, 5.87028335e-005, 1.04190440e-005,
          -6.59575699e-006, -2.26180018e-005, 7.12589608e-005,
          -6.04120505e-005, 8.02953509e-005, 7.40460528e-005,
          -2.14030729e-006, 6.59223042e-006, 1.95592329e-005,
          2.52814461e-005, -1.31426250e-005, -1.81863688e-005,
          1.37430325e-005, 1.84969558e-005, -1.78471109e-005,
          -6.97863288e-005, -1.14236122e-004, -1.68191604e-004,
          -1.93338434e-004, -1.87291080e-004, -1.62980476e-004,
          -1.19268887e-004, -8.62242159e-005, -5.54275539e-005,
          -5.02621442e-005, -2.34087493e-005, 4.58269960e-006,
          3.47318601e-005, -1.85590852e-005, -2.86562627e-005,
          -6.04346678e-006, -3.21069238e-005, -4.88206206e-005,
          -6.07695583e-005, -5.60063781e-005, -3.09420248e-005,
          9.47214812e-006, -2.01313233e-005, -2.20433976e-005,
          -3.23186287e-005, -3.04494060e-005, 2.33749552e-006,
          8.69708492e-006, 4.06264880e-005, 9.22937325e-005,
          1.26052364e-005, 2.68149470e-005, 7.63453791e-005,
          2.47063672e-005, 1.00369631e-004, -1.25893366e-005,
          -2.50213507e-005, 4.11248038e-005, 3.12481861e-005,
          -4.33759897e-006, -3.24339235e-005, -6.70303643e-006,
          2.51014153e-005, 6.51285427e-006, -2.91303586e-005,
          -8.13928636e-005, -1.17540352e-004, -9.60504403e-005,
          -9.26211360e-005, -1.15810268e-004, -1.33282127e-004,
          -1.56644353e-004, -1.68977786e-004, -1.13022114e-004,
          -6.48475107e-005, -2.18409205e-005, 2.91519536e-005,
          -1.02115800e-005, -1.87482110e-005, 3.30088551e-005,
          7.33777488e-005, 8.45952527e-005, 6.12490694e-005,
          -8.07079141e-006, -6.13410302e-005, -7.04808117e-005,
          -2.85231763e-005, 2.13564454e-005, -2.25954091e-006,
          3.67536518e-006, -1.28637666e-005, -5.65567416e-006,
          -1.82524809e-006, 3.82910621e-005, 1.01346668e-004,
          1.26669474e-004, 2.33276915e-005, 6.22317748e-005,
          5.96373684e-005, 1.17658565e-004, 1.00830352e-004,
          7.21591596e-006, 6.92580361e-005, 5.55624320e-005,
          2.78405219e-006, -1.77733164e-005, 3.45850567e-005,
          4.93427433e-005, 6.09110612e-006, -3.85197964e-005,
          -6.29601927e-005, -3.84554260e-005, 2.09693121e-006,
          5.93854966e-005, 8.18616609e-005, 9.94705624e-006,
          -7.16687427e-005, -1.44166581e-004, -1.42602934e-004,
          -6.00557178e-005, 1.10133797e-005, 1.52155471e-005,
          -2.53211638e-005, 2.75201419e-005, 6.86372150e-005,
          1.01024896e-004, 1.08371300e-004, 5.43820461e-005,
          5.09328565e-005, -1.84900364e-005, -5.74288861e-005,
          -5.96588652e-005, -1.55829014e-006, 3.30519038e-006,
          7.77622427e-006, -2.05814795e-005, -2.51938782e-005,
          4.68363538e-007, 3.11235672e-005, 7.27427614e-005,
          8.97489081e-005, 5.50639124e-005, 3.80145466e-005,
          1.54455032e-004, 2.79962493e-004, 8.41421715e-005,
          4.91873252e-005, 9.43581908e-005, 4.62302196e-005,
          2.58554519e-006, 5.40066458e-006, 6.31350995e-005,
          2.66542902e-005, 3.04172718e-005, -4.86358294e-006,
          -9.97076950e-006, -2.05326141e-005, 6.64468607e-005,
          1.01483121e-004, 1.48496532e-004, 9.74449067e-005,
          1.73444641e-005, -8.93073811e-005, -1.43516168e-004,
          -9.26651701e-005, 2.42679325e-005, 7.17792818e-006,
          7.18387400e-006, 1.51946097e-005, 7.18202355e-005,
          5.22782721e-005, 4.65315607e-005, 3.85434987e-006,
          1.99308706e-005, 2.36419191e-006, -9.00302039e-005,
          -7.78669928e-005, -4.28940875e-005, -5.80493497e-006,
          -3.39207577e-006, -3.32371164e-005, -3.19787760e-005,
          -9.73423357e-006, 1.98019698e-005, 3.62954052e-005,
          2.65135277e-005, 5.15559577e-006, 2.07837165e-005,
          2.29445941e-004, 2.61390669e-004, 9.81799822e-005,
          8.05919917e-005, 8.30895151e-005, 4.47911334e-005,
          7.05431512e-006, 3.08122071e-005, 7.04429767e-005,
          4.06697945e-005, 4.11141664e-005, -2.38810007e-005,
          -5.33654602e-005, -4.67403042e-005, 3.36958351e-006,
          6.64009858e-005, 1.20940407e-004, 1.59768955e-004,
          9.33257834e-005, -4.72337633e-005, -1.43154204e-004,
          -1.21254103e-004, 4.15855466e-005, 2.01886323e-005,
          -2.14773172e-005, 5.62071727e-006, 2.25932272e-005,
          3.05387562e-006, -4.08266678e-005, -3.33581302e-005,
          5.23730387e-006, -3.39440430e-006, -8.31371872e-005,
          -9.04082117e-005, -8.30910139e-005, -2.16300350e-006,
          6.41848192e-006, -1.70559197e-005, -5.74077349e-005,
          -3.03440429e-005, 1.23228301e-005, 3.69752233e-005,
          5.39489738e-005, 1.10966103e-004, -4.18182426e-005,
          1.36174247e-004, 6.24024597e-006, 7.88348116e-005,
          8.60694854e-005, 7.69277467e-005, 2.62517078e-005,
          1.98508278e-005, 6.00127933e-005, 6.75514602e-005,
          5.16488544e-005, 5.73581383e-005, -1.42378622e-005,
          -6.27231784e-005, -8.88501672e-005, -2.34217387e-005,
          3.31918236e-005, 7.93362487e-005, 1.09625071e-004,
          1.31025095e-004, 5.01943850e-006, -1.19906224e-004,
          -1.40760676e-004, 2.53536582e-005, 4.87039642e-006,
          -4.51171727e-005, -4.10289322e-005, -3.03137185e-005,
          -4.64694222e-006, -4.39286960e-005, -1.22213178e-005,
          1.58661555e-006, -1.87389776e-006, -8.38353517e-005,
          -9.15288765e-005, -9.11526949e-005, -4.43689805e-006,
          8.83514804e-006, -1.03472103e-005, -5.66586132e-005,
          -6.41895022e-005, -8.88299928e-006, 3.77464785e-005,
          1.01729522e-004, 1.32821922e-004, 8.22392685e-005,
          1.03461745e-004, 1.19317898e-004, 7.63357602e-005,
          9.12658652e-005, 7.74246582e-005, -1.54693453e-006,
          1.29005166e-005, 8.56909755e-005, 5.83882938e-005,
          3.72581162e-005, 4.96652865e-005, 3.46489760e-005,
          -3.37572806e-006, -1.31048937e-005, 1.42962845e-005,
          3.11267504e-005, 4.90403654e-005, 1.11673049e-004,
          1.15667135e-004, 1.87467613e-005, -1.14231756e-004,
          -1.35905531e-004, 2.01706753e-005, -1.47432602e-005,
          -6.32448646e-005, -6.91641180e-005, -4.71537642e-005,
          2.41096968e-005, -7.04207696e-006, 7.34022615e-006,
          3.04655659e-005, 1.23163763e-005, -7.09529413e-005,
          -8.51787481e-005, -7.74757500e-005, -7.97726716e-006,
          1.02264394e-005, -1.03242601e-005, -4.83096701e-005,
          -7.08558509e-005, -3.77697288e-005, 1.58403018e-005,
          8.38172491e-005, 9.36859433e-005, 7.85379743e-005,
          1.19671502e-004, 1.05413186e-004, 6.35561955e-005,
          9.52886548e-005, 5.73314319e-005, -2.12012383e-005,
          2.80545937e-005, 7.34657006e-005, 4.20624492e-005,
          5.85294129e-006, -3.64759376e-006, 5.54700215e-008,
          8.92208845e-006, 3.37970814e-005, 5.08405792e-005,
          6.34496682e-005, 1.00464749e-004, 1.42199220e-004,
          5.41426962e-005, -1.84515466e-005, -1.27062231e-004,
          -1.26400890e-004, 6.08424943e-006, -3.44147775e-005,
          -9.31816903e-005, -8.60189684e-005, -3.90171663e-005,
          5.14575986e-005, 1.68621664e-005, 2.29057659e-005,
          4.10930734e-005, 1.01756868e-005, -6.87290812e-005,
          -7.29462554e-005, -6.86268031e-005, -7.32699709e-006,
          9.01119711e-006, -2.41975090e-006, -2.66711631e-005,
          -7.74861110e-005, -6.54199466e-005, -3.04989244e-005,
          3.70598573e-005, 5.21807196e-005, 1.16065139e-005,
          1.04840292e-004, 1.78960545e-005, 3.67289213e-005,
          7.49857645e-005, 3.15786929e-005, -3.10781725e-005,
          1.96835808e-005, 8.16572792e-005, 3.09022289e-005,
          8.00513044e-006, -3.43303873e-006, 6.18248987e-006,
          1.89867569e-005, 6.99419179e-005, 1.08101594e-004,
          1.83955213e-004, 2.36024702e-004, 1.78137081e-004,
          5.85778107e-005, -3.78269397e-005, -1.10457222e-004,
          -5.14984968e-005, 4.02928117e-006, -3.24037210e-005,
          -8.09634221e-005, -8.41956280e-005, -1.62942724e-005,
          8.30541176e-005, 4.20100296e-005, 3.95080642e-005,
          4.14419992e-005, 2.56554522e-005, -6.34504104e-005,
          -7.55621659e-005, -5.73358593e-005, 8.80246444e-006,
          2.16528497e-005, -1.43327054e-006, -4.09781715e-005,
          -8.83658140e-005, -8.61288718e-005, -6.02378204e-005,
          -4.74139633e-005, 1.48020854e-006, 1.20860050e-005,
          6.91641180e-005, 6.97378637e-005, 5.53356513e-005,
          4.93414409e-005, -5.04375566e-006, -4.48931605e-005,
          1.76771719e-005, 8.03600997e-005, 2.63517177e-005,
          2.06540267e-006, -7.14810085e-006, 1.56561564e-005,
          3.51571070e-005, 8.88772629e-005, 1.60306474e-004,
          2.41301212e-004, 2.52580474e-004, 1.16120362e-004,
          1.33954718e-005, 3.16201613e-006, 2.01054481e-005,
          4.64411678e-005, 4.05836945e-005, -1.89870334e-005,
          -8.89746370e-005, -9.63399289e-005, 1.88344842e-007,
          1.01941972e-004, 5.99921841e-005, 4.66369129e-005,
          3.52903880e-005, 2.48296838e-005, -5.79804291e-005,
          -6.94542250e-005, -4.23316196e-005, 2.65346353e-005,
          4.02338956e-005, 1.26120804e-005, -2.36858396e-005,
          -8.65919792e-005, -8.17628679e-005, -5.37473825e-005,
          -3.86816464e-005, 1.09075700e-006, -6.61077211e-005,
          5.86369933e-005, 5.26440526e-005, 5.77884748e-005,
          5.04117525e-005, 2.77151116e-007, -4.30205946e-005,
          2.12674331e-006, 6.90862362e-005, 2.65253530e-005,
          -1.17115424e-005, -3.46268553e-006, 8.35854280e-006,
          3.10794458e-005, 7.24926358e-005, 1.00592333e-004,
          1.07395375e-004, -3.56273886e-005, -1.07590466e-004,
          -8.52572839e-007, 1.96740293e-004, 2.32516759e-004,
          1.60957818e-004, 8.59747015e-005, 9.69380744e-006,
          -7.81307390e-005, -9.07534122e-005, 1.42751041e-005,
          1.25771301e-004, 8.28961784e-005, 6.08871997e-005,
          3.80690253e-005, -6.43146393e-007, -6.48516434e-005,
          -6.19449493e-005, -3.69026311e-005, 3.69249574e-005,
          4.25202525e-005, 1.54301451e-005, -3.36209305e-005,
          -8.99189909e-005, -7.25808641e-005, -7.00133969e-005,
          -9.34137643e-005, -4.18555901e-005, -4.51245760e-005,
          1.22807469e-004, 7.56318914e-005, 6.98249423e-005,
          6.74346229e-005, 2.12877985e-005, -3.64588595e-005,
          -2.58160026e-006, 5.59918881e-005, 2.85503666e-005,
          -2.13216153e-005, -2.44369658e-005, 1.76011974e-006,
          -1.95998655e-006, 2.43622992e-007, -7.85962402e-005,
          -2.43236238e-004, -3.66749213e-004, -2.73802551e-004,
          1.07907590e-005, 3.16442660e-004, 3.56491364e-004,
          2.55430787e-004, 1.41191485e-004, 2.03679683e-005,
          -8.39487038e-005, -9.10116141e-005, 1.95302255e-005,
          1.38414063e-004, 9.93326248e-005, 5.08049598e-005,
          3.41465129e-005, 1.59444280e-005, -5.61986708e-005,
          -6.03156732e-005, -2.76192131e-005, 3.61289822e-005,
          5.16619511e-005, 5.53364407e-006, -4.16545408e-005,
          -8.76502963e-005, -7.25184655e-005, -3.48211397e-005,
          2.44453549e-005, 5.13476662e-005, -6.83521421e-006,
          1.20800818e-004, 1.03497354e-004, 7.97033863e-005,
          8.64774702e-005, 3.03622983e-005, -2.42025199e-005,
          2.98309857e-007, 5.05887365e-005, 2.90953303e-005,
          -2.28645386e-005, -2.22456292e-005, -7.04453578e-006,
          -2.63945440e-005, -7.83911310e-005, -2.79256696e-004,
          -4.75191104e-004, -4.74983768e-004, -2.68223957e-004,
          8.78529827e-005, 3.42073588e-004, 4.13965725e-004,
          2.90826894e-004, 1.82951044e-004, 2.83954741e-005,
          -8.65399415e-005, -9.86155064e-005, 4.43401495e-006,
          1.33511348e-004, 9.73956485e-005, 6.84539409e-005,
          4.08925625e-005, 1.85635199e-005, -5.07752375e-005,
          -6.22257212e-005, -3.34344550e-005, 2.62114881e-005,
          4.76034911e-005, -3.64913421e-006, -6.67100176e-005,
          -8.73787940e-005, -6.40922444e-005, -5.63611457e-006,
          6.38640486e-005, 1.07474392e-004, 1.11503487e-005,
          2.66952302e-005, 1.11040179e-004, 5.27887532e-005,
          6.86136846e-005, 2.91105534e-005, -1.54784975e-005,
          -3.24938883e-005, 3.04161476e-005, 3.21731422e-005,
          -1.12695097e-005, -2.05590732e-005, -5.00028364e-006,
          -4.49722356e-005, -1.68431638e-004, -4.17976757e-004,
          -5.04752155e-004, -4.17203177e-004, -1.38721720e-004,
          1.18501266e-004, 3.47952620e-004, 4.12867201e-004,
          2.83150352e-004, 1.89904371e-004, 3.48000867e-005,
          -8.26494870e-005, -1.24869708e-004, -1.32376135e-005,
          1.10992652e-004, 9.78054377e-005, 5.47388809e-005,
          4.30510518e-005, 1.50752721e-005, -4.17274023e-005,
          -6.77781354e-005, -3.09549323e-005, 2.49800578e-005,
          5.74769801e-005, -2.78925245e-006, -7.54912617e-005,
          -7.75261869e-005, -6.89697481e-005, 9.64029550e-006,
          7.09078304e-005, 1.17951720e-004, 7.22827608e-005,
          1.04252133e-004, 8.85207846e-005, 9.40477275e-006,
          2.11178030e-005, 7.23290441e-006, -3.87131786e-006,
          -3.14973076e-005, -7.98871224e-006, 3.94501585e-005,
          1.71873780e-005, 4.74222634e-006, 1.50348887e-005,
          -2.31381473e-005, -2.07229663e-004, -3.87091713e-004,
          -4.06103412e-004, -2.62161368e-004, -7.63054486e-005,
          1.27516221e-004, 3.29241127e-004, 3.77421442e-004,
          2.63368129e-004, 1.64259298e-004, 2.93918893e-005,
          -7.91580096e-005, -1.33048423e-004, -5.66668641e-005,
          5.47523887e-005, 1.16201903e-004, 9.33824413e-005,
          6.47951892e-005, -2.42384181e-006, -3.93645096e-005,
          -6.86096319e-005, -2.67989526e-005, 3.07535593e-005,
          3.90990099e-005, -3.27448579e-005, -8.76942140e-005,
          -7.88160251e-005, -6.21194413e-005, 7.85179873e-006,
          9.83495775e-005, 1.33796246e-004, 6.65894258e-005,
          1.70156363e-005, 4.53732573e-005, 3.14603712e-005,
          8.66154278e-006, 1.39700796e-005, -2.30619444e-005,
          -7.88847756e-005, -5.22593509e-005, 1.45936965e-005,
          2.69791144e-005, -2.18002492e-006, 1.14002733e-005,
          -2.11780716e-005, -1.68817263e-004, -2.66155403e-004,
          -2.28474717e-004, -1.18208853e-004, -2.35463322e-005,
          1.04383660e-004, 2.48570694e-004, 2.51101417e-004,
          1.14226365e-004, 7.46128790e-005, 7.41618214e-006,
          -7.85047378e-005, -1.23636652e-004, -1.02605838e-004,
          -1.27374979e-005, 5.40669134e-005, 9.48875313e-005,
          3.30150033e-005, -3.20081854e-005, -4.10362336e-005,
          -4.85010823e-005, -3.64705033e-006, 1.82146377e-005,
          9.78878052e-006, -7.01941462e-005, -8.83581088e-005,
          -6.90532179e-005, -2.21869468e-005, 8.90819138e-006,
          9.99375989e-005, 1.18387608e-004, 2.16158187e-005,
          -1.01550046e-004, 8.87629212e-005, 2.94913934e-005,
          -6.15453246e-005, -5.18861816e-005, -3.93890623e-005,
          -9.37477816e-005, -1.12456168e-004, -4.14192364e-005,
          -6.63827404e-006, -1.88737868e-005, -5.09302954e-005,
          -1.20130433e-004, -1.12120120e-004, -8.67894269e-005,
          -7.04366030e-005, -2.36296437e-005, -1.39757622e-005,
          3.36425655e-005, 4.67511345e-005, -6.30222567e-005,
          -1.14902505e-004, -2.10041253e-005, 2.60587167e-005,
          -3.40533406e-005, -1.13870461e-004, -1.50699765e-004,
          -7.41932017e-005, -2.68432473e-006, 6.33465106e-006,
          -9.26089888e-006, -3.28246024e-005, -5.26338990e-005,
          -2.20402308e-005, 2.83792779e-005, -2.40722193e-006,
          -3.47364767e-005, -1.01327329e-004, -7.51805856e-005,
          -4.47991588e-005, -8.93706510e-006, 3.08791568e-005,
          1.42117744e-004, 3.19387764e-005, -1.32102170e-004,
          -8.60942964e-005, -1.22109748e-004, 7.61271622e-006,
          -2.41965827e-005, -5.00147908e-005, -2.86480536e-005,
          -7.59410395e-005, -1.19262913e-004, -6.96024799e-005,
          -3.01706841e-005, -3.20095423e-005, -1.35757320e-004,
          -2.18179761e-004, -1.42001882e-004, -3.42669664e-005,
          -1.44728147e-005, 2.70081400e-005, 2.05101624e-005,
          -2.22461385e-005, -1.23021266e-004, -2.45728472e-004,
          -2.40776237e-004, -9.09669106e-005, 7.92331412e-006,
          -3.97327894e-005, -1.07634376e-004, -1.53528366e-004,
          -1.13132330e-004, -6.89353983e-005, -8.34152888e-005,
          -6.20226710e-005, -7.27189909e-005, -4.08980050e-005,
          2.96750150e-005, -8.33839295e-007, -5.89178217e-006,
          -9.07681970e-005, -1.12709509e-004, -5.73651851e-005,
          -3.90084460e-005, -9.01860585e-006, 2.44503390e-005,
          1.03181745e-004, 1.69867635e-005, -1.18052973e-004,
          -3.35544064e-005, -9.78254538e-005, -9.75865987e-007,
          1.43023663e-005, -6.40180369e-005, -4.13228481e-005,
          -6.94664704e-005, -9.40222162e-005, -8.87954666e-005,
          -5.81375971e-005, -3.00258762e-005, -1.67655526e-004,
          -2.69802520e-004, -2.00108814e-004, -8.17587934e-005,
          -7.66678386e-006, 3.24880202e-005, -2.42279589e-006,
          -4.99803937e-005, -1.44768797e-004, -1.97650443e-004,
          -1.60054478e-004, -5.43290262e-005, -2.38394714e-005,
          -3.97323820e-005, -5.18528941e-005, -1.80952775e-005,
          -3.32897762e-005, -6.26629262e-005, -7.58056703e-005,
          -5.06839351e-005, -1.82652366e-005, 7.36079392e-006,
          -2.17212582e-005, -4.89141996e-007, -5.75009799e-005,
          -1.03455466e-004, -7.52482520e-005, -5.09068086e-005,
          -1.36827894e-005, -5.62242167e-005, -2.06378427e-005,
          4.18907439e-006, -1.71038428e-005, -6.42653831e-005,
          4.06114377e-005, -6.84773768e-005, -7.91576240e-005,
          5.62740013e-007, -2.71744866e-005, -3.81783211e-005,
          -4.91714709e-005, -8.77787534e-005, -1.08021246e-004,
          -7.24583442e-005, -1.23205446e-005, -4.65432604e-005,
          -1.20674864e-004, -1.13692608e-004, -4.80088383e-005,
          7.64321976e-006, 1.30609087e-005, 9.89027740e-006,
          6.45430282e-006, -5.43509032e-007, -9.71863938e-006,
          -4.99179578e-006, 7.62383661e-006, 8.32214118e-006,
          6.58605859e-006, 3.57317949e-005, 4.97128749e-005,
          3.50488372e-005, 1.30315329e-005, -2.90610751e-006,
          -3.62083438e-006, 1.53075707e-005, -7.77079276e-006,
          2.63750894e-006, -2.58614109e-005, -1.03797385e-004,
          -7.81162671e-005, -5.75581871e-005, -3.04135938e-005,
          1.10919000e-005, -6.65353582e-005, 6.79746563e-006,
          -2.33645296e-005, -4.96729263e-005, -1.27088888e-005,
          2.54247570e-005, 4.02747537e-006, -2.93368157e-005,
          3.19061037e-005, -1.84083510e-005, -9.85693532e-006,
          -6.84524930e-005, -6.42503364e-005, -9.39921374e-005,
          -1.02428377e-004, -5.72263780e-005, -2.65465060e-005,
          -2.94536403e-005, -6.23560481e-005, -6.41286460e-005,
          -3.93671580e-005, -1.55215221e-005, 4.98134432e-006,
          2.65277540e-005, 4.80983217e-005, 6.66680280e-005,
          7.52762789e-005, 8.23421651e-005, 7.33459528e-005,
          8.60003129e-005, 8.67982817e-005, 7.80763221e-005,
          5.13171617e-005, 3.11538533e-005, 2.21580831e-005,
          -6.34252501e-007, -2.33259707e-005, -6.01996953e-006,
          -2.54438892e-005, -9.49734022e-005, -9.20663733e-005,
          -5.18943343e-005, -5.01926515e-005, -1.27880267e-005,
          1.82679978e-005, 9.37618461e-006, 2.64558985e-005,
          1.80368752e-005, -1.54048575e-005, -5.51386947e-005,
          2.77353338e-005, 1.52623597e-005, -5.35722938e-005,
          -6.65294328e-006, 5.36679363e-005, 2.26056036e-005,
          -3.67628236e-005, -4.95890599e-005, -7.49660612e-005,
          -8.33565136e-005, -1.09248489e-004, -5.29597564e-005,
          -5.83464225e-006, -2.32377533e-005, -3.88153239e-005,
          -4.88792066e-005, -5.02105104e-005, -2.06778477e-005,
          1.23161481e-005, 5.12424122e-005, 6.58301433e-005,
          7.09632368e-005, 8.24318995e-005, 8.19527777e-005,
          8.82248933e-005, 7.06543724e-005, 5.64911752e-005,
          4.45216247e-005, 2.75181246e-005, 3.55270708e-006,
          -1.49481457e-005, -2.75042862e-006, -1.63685545e-005,
          -7.50328763e-005, -8.73195677e-005, -3.97307813e-005,
          -2.77210547e-005, -2.94027450e-005, 1.36595172e-005,
          4.25598118e-005, 1.99784758e-004, 1.72395899e-004,
          3.16141850e-005, -1.95568155e-005, -3.17695776e-005,
          3.23904060e-005, 1.56218466e-005, 3.40913402e-006,
          9.37505683e-006, 2.83051922e-005, 1.25549195e-004,
          9.05172510e-006, -3.45659282e-005, -5.25704199e-005,
          -7.08525549e-005, -8.22899237e-005, -8.66417686e-005,
          -5.92997167e-005, -1.94812546e-005, -3.06859947e-005,
          -3.02599328e-005, -3.78126897e-005, -3.45962835e-005,
          -2.44274106e-005, 6.83762028e-006, 2.76041010e-005,
          3.58563921e-005, 4.88376281e-005, 4.56940616e-005,
          4.29570318e-005, 3.32702621e-005, 3.28661263e-005,
          6.95442668e-006, -1.97650716e-005, -2.27010405e-005,
          -2.55298091e-005, -4.57707065e-005, -9.02162428e-005,
          -6.89148728e-005, -4.53254397e-005, -3.13549572e-005,
          -1.99269948e-006, 1.46913562e-005, 6.81233869e-005,
          2.11757040e-004, 2.18385758e-004, 8.06859389e-005,
          2.73401456e-005, 2.68106851e-006, -4.94960659e-007,
          1.05633253e-005, 4.30504770e-006, 9.32255080e-006,
          6.80590256e-006, -1.07867803e-004, 8.65007678e-006,
          6.77021526e-005, 3.57999379e-005, 3.69873778e-005,
          -1.98121033e-005, -4.64993172e-005, -5.64692891e-005,
          -6.64195395e-005, -5.65740556e-005, -4.18298478e-005,
          -3.35433506e-005, -2.27592477e-006, -4.07960670e-006,
          -1.74176876e-005, -1.91817107e-005, -1.74219022e-005,
          -1.09890489e-005, -1.44303408e-006, -1.18190519e-005,
          -2.09386508e-005, -1.61624721e-005, 1.19783726e-006,
          1.04141982e-005, 1.19483127e-006, -1.04118126e-005,
          -3.38833452e-005, -6.05307905e-005, -5.07120130e-005,
          -2.87991261e-005, 2.40950408e-006, 2.58212185e-006,
          8.62704928e-006, 3.02493736e-005, 1.85134573e-004,
          2.10387036e-004, 4.22853736e-005, 1.52583434e-005,
          1.42320960e-005, 2.48115357e-005, 2.68303120e-005,
          4.83159465e-006, 3.57230192e-006, -2.27330315e-006,
          -5.56020495e-006, -2.91179549e-005, -6.37493504e-005,
          7.86045639e-005, 1.55605157e-004, 1.11168913e-004,
          -5.26767008e-006, -2.29990492e-005, -3.72530703e-005,
          -3.76240569e-005, -5.07630066e-005, -5.49292999e-005,
          -5.11945182e-005, -2.04517219e-005, -9.72453449e-007,
          -9.81659650e-006, -1.65787933e-005, -1.46075590e-005,
          -1.02246295e-005, -6.77695061e-006, -1.95004322e-005,
          -2.32026650e-005, -2.24062405e-005, -2.11829611e-005,
          -1.76143112e-005, -2.08495821e-005, -2.69898937e-005,
          -2.13346320e-005, -3.44369037e-005, -9.79642391e-006,
          3.10070527e-006, 4.57386268e-005, 4.66257588e-005,
          1.47737146e-005, 1.64381578e-004, 2.14363186e-004,
          6.08919618e-005, -5.00220704e-005, -1.75616242e-005,
          1.59461433e-005, 3.32009295e-005, 3.27399248e-005,
          -1.51711527e-006, -2.00337195e-006, 4.46318147e-008,
          6.42520035e-007, 1.42757790e-005, -3.17959202e-005,
          -6.59161014e-005, -5.08209223e-006, 1.63678851e-004,
          1.72845139e-005, -5.24533243e-006, -1.09729572e-005,
          -2.70104010e-005, -1.60308518e-005, -1.79541385e-005,
          -3.42673848e-005, -4.34228095e-005, -4.71541825e-005,
          -4.78598449e-005, -3.62573155e-005, -1.54791760e-005,
          -7.76415072e-006, -8.13371753e-006, -3.11796975e-005,
          -4.53661414e-005, -6.13997690e-005, -5.54672406e-005,
          -4.21136865e-005, -2.71338399e-006, 1.47033661e-005,
          2.56848689e-005, -3.03389606e-006, 1.07103706e-005,
          3.58727957e-005, 1.48347845e-005, -9.09931714e-006,
          1.11780289e-004, 2.42537106e-004, 6.75042174e-005,
          1.44865508e-005, -6.90914112e-006, 1.51404936e-006,
          1.19850383e-005, 2.66906045e-005, 2.71700937e-005,
          -3.17464674e-006, 1.54256395e-006, -3.30933653e-006,
          -7.06633784e-007, 7.06578589e-007, -1.13296903e-006,
          -5.75999584e-005, -5.51367411e-005, 3.02906210e-005,
          1.03202394e-004, 2.86405975e-005, -7.91133243e-006,
          -8.38364940e-006, -3.25273686e-005, 5.96301652e-006,
          1.94759232e-005, 1.93816977e-005, 1.69461964e-005,
          -2.79253527e-007, -1.98161779e-005, -3.33401003e-005,
          -4.28867534e-005, -5.35323124e-005, -6.73433897e-005,
          -6.40904182e-005, -5.26084805e-005, -2.41919824e-005,
          -9.68483710e-006, 3.46877860e-005, 5.58083120e-005,
          4.32406814e-005, 2.83478266e-006, -2.27296277e-006,
          2.93108860e-005, 2.20319034e-005, 6.97744399e-005,
          1.30901710e-004, 4.98207119e-005, 1.95654120e-005,
          -1.35924374e-005, -1.80241705e-006, 1.23810571e-006,
          1.43196103e-005, 3.65733904e-005, 3.07929586e-005,
          8.93475828e-007, -1.49077799e-019, 2.81427049e-007,
          6.93333732e-007, 6.46296542e-007, -2.50122730e-006,
          -1.09258344e-005, -1.14900195e-005, -4.35868833e-006,
          -8.79883373e-005, 7.41534222e-006, 5.30593970e-005,
          -5.54563758e-006, -1.20524510e-005, -3.03801426e-005,
          3.64711741e-005, 6.02272412e-005, 6.86731655e-005,
          5.35660256e-005, 4.28530948e-005, 1.53490182e-005,
          -1.30680664e-005, -2.82305482e-005, -2.10586586e-005,
          7.34819378e-006, 3.82697453e-006, -4.16166495e-006,
          9.59837143e-006, 3.83304068e-005, 2.54736333e-005,
          1.07143196e-005, -5.33393631e-006, -2.98674222e-005,
          1.01031155e-005, 1.63553830e-006, 4.32477964e-006,
          5.77929059e-005, 8.78913761e-006, -9.81134235e-006,
          -6.53942288e-006, -1.49077799e-019, -1.49077799e-019,
          3.83698261e-006, 2.36074247e-005, 3.49471411e-005,
          4.80912377e-007, 1.46629972e-007, -8.35517596e-007,
          1.32257564e-005, 1.86739653e-005, 9.84848157e-006,
          -2.04678213e-006, -3.36461426e-006, -1.74144461e-005,
          -6.58499630e-005, -5.97399230e-005, -2.85366787e-005,
          2.01539660e-006, -7.83965297e-005, -7.18356241e-005,
          -1.56669576e-005, 4.34676258e-005, 5.59508044e-005,
          6.56476404e-005, 5.72592071e-005, 7.35750291e-005,
          6.80954399e-005, 6.85634368e-005, 6.13892407e-005,
          5.10349528e-005, 4.84393458e-005, 2.92458608e-005,
          1.12474845e-005, -2.26594912e-005, -3.14218050e-005,
          -2.75036527e-005, -2.69609736e-005, -4.17131050e-005,
          -4.56239977e-005, 9.15423880e-005, 4.67964928e-005,
          1.05257377e-005, -1.93632809e-006, -2.77929166e-006,
          2.56436942e-006, 1.46629972e-007, 1.46629972e-007,
          2.10202666e-006, 1.05101333e-006, -1.49077799e-019,
          9.52753325e-008, 1.55373127e-005, 1.73542376e-005,
          1.66967184e-005, 1.86700127e-005, 1.97966383e-005,
          1.86739653e-005, 1.24810686e-005, -2.61475134e-006,
          4.22293670e-006, -6.49044159e-005, -1.20792400e-004,
          -1.18655029e-004, -8.40641587e-005, -8.55229337e-006,
          2.79606884e-005, 4.34136236e-005, 3.56590572e-005,
          3.93470946e-005, 4.64342775e-005, 6.14184901e-005,
          1.10179797e-004, 1.27350155e-004, 9.21249011e-005,
          7.96771055e-005, 5.06221222e-005, 1.17538020e-005,
          -3.19835235e-005, -5.23656345e-005, -2.35957323e-005,
          -5.77557985e-005, -2.54468523e-005, -2.19751164e-005,
          5.75122358e-005, 2.93273315e-005, 3.59622391e-005,
          1.27397889e-005, 2.84610428e-006, -1.26882105e-006,
          -4.23385018e-006, -1.49077799e-019, -1.49077799e-019,
          5.86519889e-007, -1.49077799e-019, -1.49077799e-019,
          1.85722947e-005, 2.05060678e-005, 1.93408923e-005,
          1.88878057e-005, 1.69469749e-005, 1.78686514e-005,
          1.85797016e-005, 1.68868228e-005, 1.16869560e-005,
          -1.63013942e-006, -2.00150862e-005, -4.83456897e-005,
          -6.51400478e-005, -6.05524838e-006, -2.83341160e-005,
          -3.58979851e-005, -6.46044500e-005, 5.76981147e-005,
          1.77721631e-005, -2.78421180e-006, 1.01877704e-005,
          3.34894285e-005, 7.49630708e-005, 7.95438173e-005,
          7.72762360e-005, 3.30016446e-005, 1.43849388e-006,
          4.36932305e-006, -8.11069549e-005, 8.28422253e-006,
          -1.89410039e-005, 6.18094009e-006, -7.34977175e-006,
          5.86222995e-006, 2.07585163e-005, 2.27563414e-005,
          6.22050584e-006, -1.04498463e-006, 5.25639553e-006,
          -2.65052194e-007, 2.93259944e-007, 2.54191650e-006,
          3.15304010e-006, 5.86519889e-007, 2.68854660e-006,
          1.94544918e-005, 2.01810199e-005, 1.99125443e-005,
          1.85786903e-005, 4.05731844e-005, 1.71354604e-005,
          1.91164581e-005, 1.75404966e-005, 1.49511970e-005,
          -3.18143839e-006, 1.71942901e-007, 2.26124644e-006,
          2.06015102e-006, -1.43392917e-005, -9.03437249e-005,
          -1.96043809e-004, -1.88876103e-004, 1.89113252e-005,
          9.46888463e-007, -1.32076066e-005, 6.60531514e-005,
          1.62212702e-004, 6.37771227e-005, 3.13968703e-005,
          4.13485104e-005, 1.38401942e-004, 1.58630093e-004,
          1.38000250e-004, 9.21849005e-006, -6.14686869e-005,
          -3.73003713e-005, 2.79074902e-005, 3.36464836e-005,
          2.76246737e-006, -7.24987387e-007, 1.05299625e-006,
          -3.10596374e-006, 4.77036838e-006, -4.82184942e-006,
          2.65869448e-006, -1.49077799e-019, 1.46629972e-007,
          -1.49077799e-019, 1.19764331e-006, 4.51935739e-005 ]
      - [ 9.17809120e-006, 2.04697772e-005, 5.11453545e-005,
          6.38097117e-005, 7.33470879e-005, 4.49425315e-005,
          3.56054406e-005, 2.69085285e-005, 2.92145778e-005,
          3.44606560e-005, 3.59562255e-005, 2.89905965e-005,
          2.56559233e-005, 5.48047028e-005, 5.83401161e-005,
          5.38708919e-005, 4.48394967e-005, 4.77758404e-005,
          4.37824638e-005, 3.80551064e-005, 2.88138781e-005,
          4.93673042e-006, -4.35317179e-006, -4.80929066e-006,
          -6.99341217e-006, 2.16272401e-005, 6.71927701e-005,
          5.38232416e-005, 2.23920415e-005, -2.06098616e-006,
          -2.52601949e-005, -4.99351627e-005, -6.23681917e-005,
          -3.67973298e-005, -3.44404398e-005, -3.62660321e-005,
          -8.15941530e-006, 1.40442489e-005, 6.82060227e-006,
          -1.09966195e-005, -1.26375753e-005, -1.91702511e-005,
          -3.04734613e-006, 4.62909848e-005, 1.34762056e-004,
          8.87643000e-006, 9.93566027e-006, 2.86335307e-005,
          2.99723088e-005, 2.61053592e-005, -7.19914669e-006,
          -2.07372682e-006, 1.02942568e-005, 2.01955645e-005,
          2.11886090e-005, 2.09150658e-005, 1.41652818e-005,
          3.59279984e-005, 3.92177935e-005, 3.89702655e-005,
          3.86251850e-005, 2.11374245e-005, 2.35937227e-006,
          -6.26321616e-006, -1.79116341e-005, -2.13482435e-005,
          -3.21310727e-005, -3.53833348e-005, -5.41406844e-005,
          -4.25374783e-005, -2.03330128e-005, 3.08407266e-007,
          7.55540850e-006, -1.89916627e-005, -1.45690783e-005,
          -6.05523292e-006, -1.17383488e-005, -2.95949994e-005,
          -2.76565188e-005, -3.41084087e-005, -2.87817456e-005,
          -9.87279691e-006, 3.65468395e-006, -5.53282644e-006,
          -5.51969015e-006, -1.18466260e-005, -1.06080834e-005,
          -6.73523664e-006, 2.65690305e-005, 5.28565106e-005,
          1.01494670e-005, 1.87716050e-005, 1.88634531e-005,
          1.25353035e-005, 1.97864642e-006, -3.63333129e-005,
          -2.78680800e-005, -2.08169081e-006, 2.09134523e-005,
          1.25242368e-005, 8.96257279e-006, -2.25894451e-006,
          2.03630152e-005, 1.83434149e-005, 1.03772754e-005,
          -1.17904447e-005, -1.29279497e-005, -3.14724166e-005,
          -3.04994865e-005, -3.47196328e-005, -3.79822850e-005,
          -4.05620922e-005, -4.00387544e-005, -4.57710012e-005,
          -4.35227994e-005, -2.98045015e-005, -1.86915040e-005,
          -1.71162937e-005, -4.76077512e-005, -4.16123730e-005,
          -4.19906864e-005, -4.22549529e-005, -2.48422366e-005,
          -5.84553118e-006, -2.28966001e-005, -3.59800651e-005,
          -4.00096578e-005, -1.21791336e-005, 5.81874428e-006,
          3.03444972e-006, -4.04022103e-006, -2.50731819e-006,
          -3.33034677e-006, 3.17318472e-006, -1.71766387e-005,
          -3.00778047e-005, -1.62457782e-005, 3.34697529e-006,
          2.40289937e-005, -2.69070688e-006, -1.93899523e-005,
          -4.70217583e-006, 3.03955912e-005, 6.58917852e-005,
          6.16971811e-005, 4.01876532e-005, 4.29054089e-005,
          5.49258839e-005, 3.72801514e-005, 2.04571788e-005,
          2.14763932e-005, 1.05775734e-005, 4.04208095e-006,
          -1.54305644e-006, -5.37436563e-006, -1.96645506e-005,
          -2.13467538e-005, -1.12887319e-005, -2.23338611e-005,
          -1.91757281e-005, 2.09224686e-006, 2.52118971e-005,
          3.85067178e-005, 3.78387776e-005, 2.48904016e-005,
          2.18429850e-005, -2.50364019e-006, -4.77021349e-005,
          -7.51330208e-006, 1.65130368e-005, 1.88315807e-005,
          4.19517664e-006, -1.53243473e-005, -5.36917014e-006,
          6.74140983e-006, 1.34099828e-005, 5.54774806e-006,
          1.44875357e-005, 3.53834657e-005, 2.63061906e-006,
          -5.50206896e-005, -4.90441998e-005, -3.90543755e-005,
          -4.65997218e-005, -5.81318527e-005, -3.89009838e-005,
          -1.34220218e-005, 1.44239466e-005, 6.89592562e-005,
          5.90578602e-005, 4.28738094e-005, 2.58477903e-005,
          1.85657973e-005, 3.22449123e-005, 2.52879890e-005,
          1.82563053e-005, 1.43570946e-006, 1.98759681e-005,
          1.09203356e-005, -1.72357420e-006, -1.05961544e-005,
          -1.36463095e-005, -5.43472606e-006, -5.72087129e-006,
          4.97393967e-006, 1.98170619e-005, 2.98767918e-005,
          4.37868621e-005, 5.31414844e-005, 3.40744409e-005,
          3.72205504e-005, 3.30277689e-005, 2.21621031e-005,
          3.04977366e-005, 2.81484563e-006, -1.93259220e-005,
          2.88691735e-005, 1.02725398e-005, -4.46663289e-005,
          -3.02316621e-005, 2.42103142e-005, 4.84485172e-005,
          5.77590108e-005, 5.30278812e-005, 2.02088504e-005,
          -3.78093646e-005, -6.30157156e-005, -5.44162976e-005,
          -6.16268517e-005, -7.14922644e-005, -4.52970962e-005,
          -2.27677210e-005, 1.02579043e-005, 4.39076357e-005,
          3.87046894e-005, 1.61003445e-005, 3.08809149e-006,
          2.70421128e-006, 9.20266211e-006, 4.92457220e-005,
          5.28272649e-005, 2.28649878e-005, 7.40488804e-006,
          3.05789257e-007, -8.55598591e-006, -7.95416963e-006,
          -6.04184834e-006, -2.48905212e-006, 1.20960640e-005,
          2.48670985e-005, 3.37163474e-005, 4.04916536e-005,
          4.87812104e-005, 5.16441214e-005, 1.67965336e-005,
          1.63225286e-005, 1.38890573e-005, 5.97737417e-005,
          7.89346377e-005, 6.65670668e-005, 4.32986562e-005,
          3.03495090e-005, 1.46871453e-005, 2.46529162e-005,
          7.99795544e-006, 1.87370642e-005, 4.11308429e-005,
          4.49204381e-005, -6.39352720e-006, -2.52974696e-005,
          -7.74393411e-005, -6.94449700e-005, -4.45513615e-005,
          -5.47683485e-005, -7.10472523e-005, -6.29927526e-005,
          -5.45747062e-005, -2.92382065e-005, -1.75992079e-006,
          -1.34823194e-005, -1.77423954e-005, -2.18932746e-005,
          4.48421997e-006, 2.54020360e-005, 2.17925390e-005,
          9.03722412e-006, -4.11480869e-006, 1.57493851e-005,
          -1.18887692e-006, -3.17438730e-006, -1.44089581e-005,
          -2.05589204e-005, -1.37535453e-005, -1.84873397e-006,
          2.46313630e-005, 4.08719970e-005, 5.23103263e-005,
          5.50317163e-005, 5.68829309e-005, 5.48375065e-005,
          4.05953397e-005, -7.58999795e-006, -6.98497342e-006,
          1.28400825e-005, 2.29683574e-005, 2.46016025e-005,
          2.17810648e-005, 1.74996730e-005, 3.78753648e-005,
          5.77009305e-005, 2.61251080e-005, 2.43371801e-006,
          2.22194340e-005, -4.00464487e-005, -6.14481833e-005,
          -4.61623567e-005, -4.24022110e-005, -3.12807606e-005,
          -3.81482314e-005, -3.02087010e-005, 4.11361771e-006,
          -1.47285937e-005, -2.21423306e-005, 6.23157803e-006,
          1.53561837e-006, -1.44183223e-005, 6.26695146e-006,
          4.69514862e-006, 1.92647512e-005, -1.13487567e-005,
          -1.54099780e-005, -3.89849665e-005, -5.39494940e-005,
          -6.36704353e-005, -6.46510671e-005, -6.93601833e-005,
          -7.16509530e-005, -6.25058528e-005, -5.21994807e-005,
          -3.10106698e-005, -1.27584690e-005, -1.53073233e-005,
          4.18557647e-006, 8.97245809e-006, 3.11117619e-005,
          3.14403005e-005, 2.96098642e-005, 2.42362694e-005,
          1.30054832e-005, 1.50354072e-005, -4.21328605e-006,
          -1.58551084e-005, -1.88257343e-006, 1.93943924e-005,
          4.50719090e-005, 2.70667588e-005, -2.20766083e-006,
          8.99919814e-006, -2.08965412e-005, -6.28812340e-005,
          -8.32478254e-005, -7.51959960e-005, -6.45697583e-005,
          -5.92244105e-005, -2.53158469e-005, -2.41747257e-005,
          -3.38185127e-005, -4.29719548e-005, -3.81217505e-005,
          -5.14991443e-005, -3.71431415e-005, 9.37925324e-006,
          -3.34527540e-005, -2.35640937e-006, -1.04109085e-005,
          -2.96806647e-005, -3.51884628e-005, -4.47061502e-005,
          -5.05395765e-005, -6.07593684e-005, -6.83784092e-005,
          -7.37116206e-005, -6.11570504e-005, -4.01623365e-005,
          -3.43012289e-005, -2.12257019e-005, -9.93641515e-006,
          -7.46603473e-006, -1.03279799e-005, 3.38361860e-006,
          2.94456895e-005, 2.84800954e-005, 4.33323403e-005,
          4.37729541e-005, 5.96167229e-006, -3.48273024e-005,
          -1.54004883e-005, -1.19376846e-005, -7.87771478e-006,
          1.40929444e-006, -2.96368466e-006, -1.58560852e-005,
          -3.06832226e-005, -2.87889725e-005, -3.65080668e-005,
          -7.21312754e-005, -6.68687280e-005, -5.78922954e-005,
          -4.84870216e-005, -5.12608531e-005, -5.51081139e-005,
          -7.04562553e-005, -6.77900534e-005, -7.17191797e-005,
          -5.15541178e-005, -4.71791145e-006, -4.65914563e-005,
          -3.73570292e-005, -1.23142463e-005, -8.88056911e-006,
          -1.24880453e-005, -2.42350743e-005, -3.48755057e-005,
          -4.09715467e-005, -4.95422937e-005, -5.71972523e-005,
          -6.41363367e-005, -5.38558961e-005, -3.15273755e-005,
          -2.68722506e-005, -1.32335745e-005, 1.76366837e-006,
          2.49935920e-006, 8.38726555e-006, -3.09825765e-007,
          4.63586866e-006, 1.19432616e-005, 2.83493191e-005,
          4.80509589e-005, 3.03895176e-005, -1.29719911e-006,
          -2.46464242e-005, 1.77411869e-006, -1.27970616e-005,
          -2.15859091e-005, -1.14075074e-005, -2.06049717e-005,
          -5.00452115e-005, -2.14976681e-005, 2.79429537e-006,
          -6.11582363e-005, -6.23742526e-005, -6.57663986e-005,
          -4.83578551e-005, -5.46746887e-005, -5.39812354e-005,
          -3.28538335e-005, -1.07772239e-005, 1.34727134e-006,
          -7.17058356e-007, -5.31120568e-005, -5.62480782e-005,
          -1.34815109e-005, 1.99047536e-005, 1.85152330e-005,
          4.77850972e-006, -4.62492608e-006, -1.39085287e-005,
          -2.28686058e-005, -3.90615751e-005, -4.83383592e-005,
          -5.20008689e-005, -4.17276096e-005, -2.93064459e-005,
          -2.09469199e-005, -9.66629977e-006, 2.78864150e-006,
          4.50308153e-006, -1.24160670e-006, -2.97691736e-006,
          -2.09434256e-006, -7.52139795e-006, -2.07108451e-006,
          1.17232082e-006, 6.40783719e-006, -8.33051490e-006,
          -1.41314167e-005, -2.56085114e-005, -9.50446884e-006,
          -1.64829871e-005, -6.92505091e-006, -8.63978948e-006,
          -2.61886707e-005, -1.11168511e-005, 1.10839103e-007,
          -6.04719025e-005, -6.00529020e-005, -6.30211216e-005,
          -5.41747322e-005, -6.57595301e-005, -5.89923802e-005,
          -2.42960523e-005, -7.18443880e-006, 2.24165633e-005,
          -2.99779022e-005, -6.27587287e-005, -2.87574767e-005,
          -3.36993025e-006, 3.51613999e-005, 2.97191782e-005,
          1.92078387e-005, 1.42531517e-005, 4.57500346e-006,
          -9.77871605e-006, -3.90829919e-005, -4.05046958e-005,
          -2.51322635e-005, -1.60658437e-005, -6.05541709e-006,
          2.71802008e-007, 2.63060861e-006, 5.51478843e-006,
          9.72703128e-006, 6.17829028e-006, -8.08368259e-006,
          -2.13047206e-005, -2.18643199e-005, -2.71966328e-005,
          -4.63842698e-005, -4.55198024e-005, -2.11792903e-005,
          -2.18923160e-005, -1.76360954e-005, -2.77555391e-005,
          -1.79036374e-006, 2.54480165e-005, 6.95595691e-006,
          5.00417036e-006, -4.39494534e-006, 2.19605181e-006,
          -5.61233210e-005, -5.29638419e-005, -3.67306529e-005,
          -4.74360095e-005, -8.77180428e-005, -7.52470223e-005,
          -5.77976680e-005, -4.74863773e-005, -6.63115497e-005,
          -6.15216632e-005, -4.15430113e-005, -2.55262203e-005,
          1.49086882e-005, 5.37265587e-005, 5.48442804e-005,
          4.61094751e-005, 3.29826689e-005, 2.63497277e-005,
          1.78887167e-005, -1.70189901e-006, -5.28961709e-006,
          -5.03916090e-006, -2.10479175e-005, -1.28231277e-005,
          -4.10056055e-006, 5.03106685e-006, 1.90257288e-005,
          1.17238405e-005, -7.41302301e-007, -2.13482544e-005,
          -4.47335769e-005, -4.75200104e-005, -3.28655697e-005,
          -5.58293650e-005, -7.51528787e-005, -2.92753284e-005,
          4.12029203e-006, 4.69794304e-006, -2.24685245e-005,
          -8.47057436e-006, 3.50493137e-005, 1.90588107e-005,
          2.28980243e-005, 2.02807769e-005, 8.79451477e-007,
          -4.18214986e-005, -2.48279503e-005, -2.14970660e-005,
          -5.72417775e-005, -7.78651229e-005, -5.83574110e-005,
          -8.13162405e-005, -1.11419846e-004, -9.24350097e-005,
          -6.09650742e-005, -5.40064611e-005, -6.36201639e-006,
          5.56298728e-005, 8.72827077e-005, 7.80705814e-005,
          4.05967403e-005, 2.14793708e-005, 4.43607678e-006,
          7.40682663e-006, 1.17337931e-005, 1.32448686e-005,
          -2.57463921e-006, -4.23864803e-005, -4.78117909e-005,
          -3.99691344e-005, -2.14134416e-005, -3.36037083e-005,
          -5.18126581e-005, -5.60598928e-005, -5.45468756e-005,
          -7.09939559e-005, -8.06849785e-005, -7.20790922e-005,
          -5.17351182e-005, -5.51930352e-005, -1.36700364e-005,
          4.86438257e-005, 5.35505606e-005, 1.86727539e-005,
          -1.70946150e-005, 1.97503559e-005, 3.68030996e-005,
          2.68176209e-005, 1.06821051e-006, -3.13733926e-006,
          -1.38752375e-005, -3.05993490e-006, -5.45228386e-006,
          -5.02630610e-005, -5.41859554e-005, -7.71517589e-005,
          -1.23793405e-004, -1.12868300e-004, -8.35419560e-005,
          -5.95244528e-005, -3.35532677e-005, 5.59780710e-006,
          5.27790107e-005, 5.47247218e-005, 6.43584917e-006,
          -3.13424025e-005, -5.61057059e-005, -6.74372277e-005,
          -5.75938902e-005, -2.72312282e-005, -2.44618445e-006,
          -1.70457442e-005, -5.81189597e-005, -6.61788072e-005,
          -5.99885716e-005, -7.86995370e-005, -9.10245435e-005,
          -9.11080206e-005, -8.87276183e-005, -7.33054403e-005,
          -5.68712530e-005, -5.50558907e-005, -6.61096419e-005,
          -7.06036735e-005, -3.89273919e-005, -1.43982481e-006,
          6.27853806e-005, 6.40794606e-005, 4.64300974e-005,
          7.73779630e-006, -1.68145016e-005, 2.23748648e-005,
          3.54985204e-005, -1.14722861e-005, -3.69861868e-006,
          2.51805650e-005, 1.72984146e-005, -8.03420880e-006,
          -2.93652720e-005, -2.72467241e-005, -3.69074623e-005,
          -1.10470239e-004, -7.87230674e-005, -3.04409368e-005,
          -8.90307365e-006, -8.96096753e-006, -6.16543775e-006,
          1.98456819e-005, -1.37835286e-005, -6.66066408e-005,
          -8.61864028e-005, -1.17943055e-004, -1.23247548e-004,
          -1.27142339e-004, -1.12562106e-004, -7.19086820e-005,
          -3.50297305e-005, -4.28792118e-005, -4.53558641e-005,
          -7.26132348e-005, -9.67018059e-005, -1.12224436e-004,
          -1.22187921e-004, -1.10455454e-004, -9.23202460e-005,
          -6.48935675e-005, -5.54633007e-005, -4.48132560e-005,
          -6.34485696e-005, -6.28584457e-005, -2.96599956e-005,
          3.33492389e-005, 6.45719556e-005, 5.01112627e-005,
          2.94248621e-005, -1.56838651e-005, 9.12622272e-006,
          1.98067992e-005, 7.00900682e-006, -8.05895252e-006,
          3.97717013e-005, 9.40916925e-006, -1.17182763e-005,
          1.24408398e-005, 7.28719442e-006, -2.40246609e-005,
          -4.22445955e-005, -8.47742194e-006, -6.70861425e-007,
          4.27346686e-006, -9.71769805e-006, -2.13140447e-005,
          -1.87268270e-005, -2.17135566e-005, -7.75783192e-005,
          -8.54451064e-005, -8.08182886e-005, -9.31540853e-005,
          -1.14986302e-004, -1.18442775e-004, -8.99195293e-005,
          -2.74902723e-005, 3.11974600e-006, -5.03260162e-006,
          -5.51917219e-005, -7.64915676e-005, -9.92251880e-005,
          -1.16814255e-004, -1.24530707e-004, -1.31829293e-004,
          -1.18789823e-004, -8.91900636e-005, -4.32082343e-005,
          -2.92754394e-005, -5.88424955e-005, -4.33719142e-005,
          -2.28932677e-005, 3.13997807e-005, 6.71792441e-005,
          4.92719591e-005, 1.23214459e-005, -4.74575154e-006,
          2.94129186e-005, 2.48177857e-005, 2.01631101e-005,
          3.27141024e-005, -1.27867736e-006, -1.59457413e-005,
          1.49899770e-005, 9.14310135e-007, -3.46612615e-005,
          1.15538496e-005, 4.33390342e-005, -6.02923001e-006,
          -9.21315859e-006, -2.42679416e-005, -4.36644768e-005,
          -1.79933068e-005, -6.01518923e-006, -4.55286463e-005,
          -3.91135472e-005, -2.05331798e-005, -2.38400389e-005,
          -5.42505986e-005, -9.34300915e-005, -9.96304952e-005,
          -4.39516989e-005, 1.67520113e-006, -1.41337478e-005,
          -5.67452589e-005, -5.98718289e-005, -6.99699158e-005,
          -9.72731286e-005, -1.12605587e-004, -1.32464571e-004,
          -1.52693436e-004, -1.39955053e-004, -6.93163092e-005,
          -2.02800711e-005, -4.60065603e-005, -5.22387127e-005,
          -4.09491877e-005, 3.11057056e-006, 4.96704233e-005,
          6.29667556e-005, 2.42023998e-005, -2.46083873e-005,
          2.52833925e-005, 5.31956175e-005, 1.53888195e-005,
          1.96393285e-005, -8.52959511e-006, 1.26217928e-005,
          1.52419425e-005, -7.88996203e-006, -4.66648926e-005,
          1.42767988e-006, 2.20849797e-005, -4.28000567e-006,
          -1.73922617e-005, -3.20576837e-005, -3.92434886e-005,
          1.46986094e-005, 3.50408991e-005, 6.62484808e-006,
          3.73769558e-006, 3.86820138e-005, 5.39153516e-005,
          3.95728603e-005, -4.56314847e-005, -9.37261066e-005,
          -7.74835935e-005, -3.26930203e-005, -3.99141318e-005,
          -5.85353664e-005, -5.55499682e-005, -5.52164529e-005,
          -4.81449388e-005, -4.70945815e-005, -7.65770310e-005,
          -1.52710607e-004, -1.73197899e-004, -1.05773404e-004,
          -1.72729706e-005, -2.09260452e-005, -3.85579697e-005,
          -3.56073760e-005, -1.19264305e-005, 2.40318186e-005,
          5.25256146e-005, 3.62491519e-005, -2.00500053e-005,
          3.09691713e-005, 5.68802279e-005, 4.53313187e-005,
          2.58472846e-006, -1.83129359e-005, 1.30822109e-005,
          1.34701795e-005, -1.91746676e-005, -6.05687601e-005,
          -3.39773105e-005, 6.24499671e-006, -8.93410470e-006,
          -2.26420179e-005, -2.93559206e-005, -5.34102810e-006,
          6.51428491e-005, 7.84556687e-005, 4.12820409e-005,
          2.03466188e-005, 6.26043766e-005, 1.05024686e-004,
          6.18433551e-005, -2.24741070e-005, -1.00346471e-004,
          -1.17967720e-004, -9.32307739e-005, -8.32815422e-005,
          -6.88204891e-005, -6.24960594e-005, -5.57660896e-005,
          -4.27614905e-005, -3.64438856e-005, -5.34513929e-005,
          -1.04904037e-004, -1.61039119e-004, -1.19033110e-004,
          -8.42000463e-006, -3.43274132e-006, -2.06549430e-005,
          -3.08826420e-005, -1.67870676e-005, 1.89599650e-005,
          5.06229480e-005, 1.45118529e-005, -3.23906024e-005,
          -2.43359864e-006, 4.13822745e-005, 7.39454772e-005,
          5.18786328e-006, 1.40324792e-005, 1.04776209e-005,
          1.21167204e-005, -2.80666973e-005, -4.11461806e-005,
          -1.42868876e-005, -6.26623432e-006, -1.54803765e-005,
          -2.96824310e-005, -2.97158749e-005, 9.18142268e-006,
          7.27452789e-005, 8.89424118e-005, 2.99467647e-005,
          -1.12149137e-005, 4.11051733e-005, 7.37049195e-005,
          4.04248676e-005, -2.10939143e-005, -7.35144567e-005,
          -1.31680441e-004, -1.30368499e-004, -1.06851228e-004,
          -6.44702741e-005, -6.26832480e-005, -5.36736807e-005,
          -3.08276576e-005, -3.49185902e-005, -3.63777799e-005,
          -5.92102151e-005, -1.27190186e-004, -1.08167995e-004,
          -4.22843459e-006, 9.66469361e-006, -7.64499237e-006,
          -2.28113804e-005, -2.42305523e-005, 7.31655018e-006,
          3.92088441e-005, -9.66720563e-006, -5.11379512e-005,
          -3.20160652e-005, 3.16297846e-005, 7.47398517e-005,
          -5.40408928e-006, 8.40199027e-006, 9.00246960e-006,
          1.31716924e-005, -1.50131573e-005, -2.97991810e-005,
          3.44977889e-006, -1.21920721e-005, -3.01707223e-005,
          -4.21438745e-005, -3.76332428e-005, -6.71492035e-006,
          2.08783349e-005, 4.68967992e-005, -1.93100732e-005,
          -2.36916385e-005, 3.81817063e-006, 1.22545453e-005,
          -2.47173739e-005, -1.12276359e-006, -1.18964426e-005,
          -9.01320527e-005, -1.33634981e-004, -1.03314807e-004,
          -4.56497546e-005, -6.49323410e-005, -8.10074707e-005,
          -6.06760805e-005, -6.38474521e-005, -5.84057962e-005,
          -5.35187901e-005, -1.02397382e-004, -8.92975149e-005,
          -1.49597247e-006, 1.68291263e-005, 7.68627217e-007,
          -1.66090067e-005, -2.79508240e-005, 9.67313269e-008,
          3.61604216e-005, 5.69113490e-006, -3.17852391e-005,
          -2.71658901e-005, 3.61741586e-005, 7.29387102e-005,
          1.24884209e-005, 2.63378661e-006, 1.37582701e-005,
          -3.53680389e-006, -2.64450373e-005, -8.88713657e-006,
          7.80698974e-006, -1.66861300e-005, -4.21870536e-005,
          -4.98098343e-005, -4.09759268e-005, -2.01379335e-005,
          -9.56107306e-006, 5.69699705e-006, -4.10395660e-005,
          -2.49559253e-005, 2.94499823e-005, 1.03237962e-005,
          -3.22764390e-005, 1.09471484e-005, 3.16381811e-005,
          -5.38886998e-005, -1.24082595e-004, -9.27952497e-005,
          -3.31905212e-005, -6.56834163e-005, -1.01659694e-004,
          -7.73783904e-005, -7.22926488e-005, -5.75140657e-005,
          -4.71295643e-005, -7.52355918e-005, -7.42683114e-005,
          7.88693796e-006, 2.38084704e-005, 6.79092363e-006,
          -1.27414523e-005, -2.94508573e-005, -1.03375378e-005,
          3.08412345e-005, 3.44029213e-005, -3.56465011e-006,
          -7.31769160e-006, 3.93889059e-005, 7.90475751e-005,
          3.79852136e-005, -4.17981425e-007, 1.26215900e-005,
          -1.47689525e-005, -5.26599615e-005, -1.49600392e-005,
          3.07644768e-006, -2.43194372e-005, -5.21033762e-005,
          -6.18120612e-005, -3.69511909e-005, -1.62754950e-005,
          -2.36505148e-005, -1.69250470e-005, -2.32420371e-005,
          1.55551709e-006, 2.32765506e-005, 1.18690768e-005,
          -9.62025479e-006, 1.96370165e-005, 5.78275285e-005,
          -6.67193308e-006, -9.26181237e-005, -7.42172997e-005,
          -2.16415556e-005, -6.27763584e-005, -1.11753689e-004,
          -6.59996076e-005, -5.58970678e-005, -4.74960761e-005,
          -3.13178098e-005, -6.42981468e-005, -6.19218044e-005,
          1.04328074e-005, 1.94125041e-005, 8.70363783e-006,
          -1.29361169e-005, -3.80710480e-005, -8.73623958e-006,
          2.49895438e-005, 3.08880153e-005, 1.63947898e-005,
          2.06612685e-006, 3.41808409e-005, 7.61224874e-005,
          4.10888315e-005, -1.92811581e-006, 1.26825507e-005,
          -1.36346371e-005, -4.45045480e-005, -8.58246767e-006,
          1.49845600e-005, -2.59669650e-005, -5.35151012e-005,
          -6.36357290e-005, -3.51468589e-005, -1.43692969e-005,
          -2.61101432e-005, -2.29062553e-005, -2.34650543e-005,
          -3.02410863e-005, -4.70392188e-005, -4.39716860e-005,
          -5.28195924e-005, 3.26382269e-006, 5.87635477e-005,
          3.31217307e-005, -2.07990361e-005, -3.76172720e-005,
          -2.38691905e-006, -5.42798807e-005, -1.11528578e-004,
          -6.52254603e-005, -4.62689677e-005, -3.15168363e-005,
          -1.81864707e-005, -5.34257779e-005, -5.51951816e-005,
          8.41156452e-006, 1.92979169e-005, 1.20344230e-005,
          -7.33303295e-006, -3.33741955e-005, -1.49286643e-005,
          2.37076019e-005, 2.92206241e-005, 1.35406835e-005,
          -6.67887252e-006, 2.06984660e-005, 7.89856131e-005,
          2.11514489e-005, -5.58163833e-007, 1.01724700e-005,
          -1.09007069e-005, -3.94498638e-005, 5.20769163e-006,
          1.98396610e-005, -1.74226207e-005, -5.24871175e-005,
          -6.23015367e-005, -3.29495415e-005, -6.63431956e-006,
          7.56426880e-006, 3.42982730e-006, -4.83297117e-005,
          -1.07230975e-004, -1.22281068e-004, -1.19279830e-004,
          -1.00589488e-004, -4.67098180e-005, 4.52826789e-005,
          1.00045967e-004, 3.96200558e-005, -1.19316401e-005,
          1.17034451e-005, -3.85229396e-005, -1.03635117e-004,
          -5.47081763e-005, -3.50163718e-005, -1.78045520e-005,
          5.74191790e-006, -3.00269112e-005, -4.15133763e-005,
          6.20947958e-006, 1.07819124e-005, 7.43411647e-006,
          -1.15978592e-005, -3.09971801e-005, -1.28595138e-005,
          2.74616032e-005, 2.89955569e-005, 2.04896241e-005,
          9.42036968e-006, 2.94852562e-005, 8.09515186e-005,
          2.54656225e-005, -2.93387779e-006, 2.93872199e-006,
          -1.56749011e-005, -5.08082994e-005, -3.90699000e-007,
          2.45954834e-005, -9.99821987e-006, -4.72978281e-005,
          -6.12747099e-005, -3.06720322e-005, 1.72984001e-005,
          1.77356324e-005, -2.76868036e-006, -8.06152166e-005,
          -1.40789896e-004, -1.50114807e-004, -1.34481510e-004,
          -1.13845766e-004, -6.59660436e-005, 3.99793644e-005,
          9.79622055e-005, 5.09587662e-005, -1.16552224e-006,
          1.08495524e-005, -4.14168935e-005, -1.03113649e-004,
          -4.87856632e-005, -1.30788576e-005, 7.15322358e-006,
          1.96147976e-005, -1.05639610e-005, -5.24521201e-005,
          -6.48908826e-006, -3.45249737e-006, 4.32878778e-006,
          -6.06255935e-006, -2.63472721e-005, -1.08689355e-005,
          3.48575886e-005, 3.32150739e-005, 1.24531543e-005,
          1.59614501e-005, 4.11389956e-005, 7.71236228e-005,
          1.40086941e-005, 6.88102136e-006, -4.02791420e-006,
          -2.05702199e-005, -5.46799638e-005, 6.12134227e-006,
          2.76119499e-005, -3.81158839e-006, -4.59165203e-005,
          -5.82883404e-005, -3.05629692e-005, 1.83931188e-005,
          3.14784083e-005, -1.83071315e-005, -8.98642102e-005,
          -1.00635603e-004, -8.36486433e-005, -1.00168079e-004,
          -1.26235987e-004, -6.28854323e-005, 3.68885921e-005,
          8.63306777e-005, 6.02662585e-005, 6.06958156e-006,
          8.32793830e-006, -4.84002740e-005, -1.04459876e-004,
          -6.10368152e-005, -5.80287235e-007, 2.99756684e-005,
          2.77742965e-005, -4.30094406e-005, -5.54738981e-005,
          -2.13630065e-005, -6.04174886e-007, 7.67247911e-006,
          -1.02720751e-005, -3.36661615e-005, -9.51515347e-008,
          3.94004892e-005, 3.77043361e-005, 8.19475827e-006,
          1.46386474e-005, 3.76506796e-005, 6.48970163e-005,
          -1.99356982e-005, 1.73677327e-005, -9.27563815e-006,
          -2.74105896e-005, -3.72019858e-005, 3.53869291e-005,
          5.39466200e-005, 1.42973104e-005, -2.66722436e-005,
          -5.12342194e-005, -4.47474667e-005, -1.26147652e-005,
          -9.67037340e-006, -3.80688289e-005, -7.30374086e-005,
          -3.87024484e-005, -2.86279974e-005, -7.60415714e-005,
          -1.03387029e-004, -3.31892916e-005, 4.15839604e-005,
          6.47844208e-005, 6.24929089e-005, 3.63372164e-005,
          1.90419887e-005, -4.20705474e-005, -1.16406678e-004,
          -1.04367966e-004, -6.39389837e-005, -1.40150814e-005,
          -3.27168418e-005, -6.28538255e-005, -7.39293901e-005,
          -1.96214751e-005, 1.81300602e-005, 1.01225596e-005,
          -1.63125478e-005, -3.52596035e-005, 9.23342577e-006,
          4.43844947e-005, 1.02978438e-005, -2.24874257e-005,
          3.44792966e-006, 5.07517907e-005, 8.49085845e-005,
          -1.13264377e-005, 1.37623911e-005, 3.82227017e-006,
          -3.36782832e-005, -3.11121366e-005, 2.94929287e-005,
          5.83687797e-005, 2.85255137e-005, -1.91453582e-005,
          -4.10973189e-005, -4.88872392e-005, -3.73769544e-005,
          -5.32396480e-005, -5.30247271e-005, -7.46838414e-005,
          -6.48629284e-005, -8.56178885e-005, -1.18315904e-004,
          -1.08573986e-004, -5.07664845e-005, -1.13348742e-005,
          1.00913130e-005, 2.46001946e-005, 2.04320459e-005,
          1.18168218e-005, -2.97693041e-005, -9.21922547e-005,
          -1.23728358e-004, -9.43105697e-005, -7.38512244e-005,
          -4.63949800e-005, -6.98141957e-005, -5.11874532e-005,
          1.99182268e-005, 3.51299786e-005, 5.30569150e-006,
          -2.81397570e-005, -2.85775022e-005, 1.72799337e-005,
          5.17881053e-005, -3.94967128e-006, -5.27045522e-005,
          6.22863308e-006, 5.16966684e-005, 5.71341989e-005,
          -2.93487938e-006, 1.14515833e-005, -7.23403036e-006,
          -2.58050568e-005, -4.40681652e-005, -3.30238800e-005,
          2.95535920e-005, 4.30746550e-005, -1.90936844e-005,
          -3.29989634e-005, -4.28850544e-005, -5.00650603e-005,
          -6.10322932e-005, -5.92864417e-005, -9.80130135e-005,
          -1.45379119e-004, -1.67737657e-004, -1.38665840e-004,
          -8.00150447e-005, -5.06119286e-005, -4.38821080e-005,
          -6.31723160e-005, -6.78374781e-005, -6.24931417e-005,
          -2.56482726e-005, -9.45796182e-006, -3.07069458e-005,
          -4.73616237e-005, -4.56167618e-005, -2.21903938e-005,
          -2.77239560e-005, -2.06888089e-005, 1.56127990e-005,
          5.26652657e-005, 4.50657171e-005, -6.07542177e-007,
          -3.66966851e-005, -1.58296480e-005, 2.64517330e-005,
          5.24331372e-005, -1.51600143e-005, -5.68604410e-005,
          3.68164910e-005, 7.01608806e-005, 3.74528681e-005,
          -1.64512903e-006, -7.85896191e-006, 1.62859124e-006,
          -3.26541922e-005, -5.16268374e-005, -7.46836886e-005,
          -2.01662406e-005, 3.39418439e-005, -2.19487265e-005,
          -3.77148644e-005, -3.21934494e-005, -5.21082184e-005,
          -6.22936204e-005, -5.83492802e-005, -9.47095614e-005,
          -1.66932019e-004, -1.87453901e-004, -1.59571253e-004,
          -1.23810853e-004, -9.79781762e-005, -1.03923121e-004,
          -1.33694004e-004, -1.40016840e-004, -1.08041306e-004,
          -6.01302272e-005, -2.84372181e-005, 2.42862825e-006,
          3.44023829e-005, 4.07285188e-005, 4.70197265e-005,
          2.79604519e-005, 3.36034573e-005, 5.25135038e-005,
          6.08374721e-005, 2.81272096e-005, -1.85993722e-005,
          -2.70839992e-005, 4.86293766e-006, 3.69545160e-005,
          2.30036676e-005, -5.43107308e-005, -6.49341018e-005,
          8.16722240e-006, 5.00103160e-005, 4.30607543e-005,
          -7.34845003e-007, -7.08515336e-006, 9.47106037e-006,
          -1.44323312e-005, -3.54570984e-005, -7.97420071e-005,
          -1.04044062e-004, -2.37722488e-005, -1.61234657e-005,
          -4.89439044e-005, -2.59629614e-005, -3.64836960e-005,
          -2.20320471e-005, -4.04872753e-006, -1.62532870e-005,
          -7.41246695e-005, -1.18272081e-004, -1.10880297e-004,
          -9.51714610e-005, -8.54950922e-005, -9.69222019e-005,
          -1.18254058e-004, -1.19486074e-004, -9.93157373e-005,
          -7.06882929e-005, -5.68922624e-005, -8.58143358e-006,
          4.67994651e-005, 5.11147009e-005, 3.95715397e-005,
          3.48521135e-005, 4.60122974e-005, 7.47371305e-005,
          4.67722894e-005, -2.68893677e-006, -2.96988183e-005,
          -1.41130158e-005, 9.98345877e-006, 3.53165196e-005,
          -1.10373539e-005, -6.10574498e-005, -5.32081685e-005,
          4.45255464e-005, 3.72050017e-005, 4.34749199e-005,
          1.36394203e-006, 1.04427720e-007, 1.34887023e-005,
          1.59469528e-006, -1.15135781e-005, -4.73121545e-005,
          -1.33113994e-004, -4.79345581e-005, -1.22290032e-006,
          -2.29506859e-005, -2.58862292e-005, -3.21953012e-005,
          -1.60593700e-005, -3.34853530e-006, 1.09761231e-005,
          -1.75233545e-005, -4.08485757e-005, -4.91075807e-005,
          -5.01052091e-005, -4.82248470e-005, -4.62132230e-005,
          -4.61826967e-005, -4.90407874e-005, -4.79012997e-005,
          -4.78638503e-005, -3.94478411e-005, -4.23744768e-006,
          2.61475052e-005, 3.10891810e-005, 3.46320376e-005,
          4.23993115e-005, 6.49873109e-005, 5.30005600e-005,
          1.46279126e-005, -2.19544472e-005, -1.93847263e-005,
          -3.79711514e-006, 6.90669640e-006, -1.35416994e-005,
          -3.03604920e-005, -4.60284828e-005, -3.94043273e-005,
          7.08500593e-005, 4.61217496e-005, 4.41021039e-005,
          -2.77688900e-006, -6.32539354e-007, 5.13789928e-006,
          2.66653078e-005, -1.31757497e-005, -1.52971334e-005,
          -6.61811064e-005, -6.66811684e-005, 1.09694520e-005,
          -6.20974242e-006, -2.54015977e-005, -3.52194147e-005,
          -2.65391336e-005, -1.62790020e-005, 1.28611237e-005,
          1.26160330e-005, -3.50377741e-006, -2.18608457e-005,
          -2.99811945e-005, -2.89407344e-005, -2.48250035e-005,
          -2.02017982e-005, -1.78342016e-005, -1.75178629e-005,
          -1.99990936e-005, -1.73982135e-005, 3.76307025e-006,
          1.82434123e-005, 3.44403197e-005, 4.47081693e-005,
          4.52925815e-005, 3.62105166e-005, 1.59472838e-005,
          -8.28650718e-006, -1.99125334e-005, -2.04127846e-005,
          -5.97818234e-006, 1.19878514e-005, -9.46583168e-006,
          -4.38934621e-005, -5.88766816e-005, 4.07546213e-005,
          6.86574276e-005, 4.54495930e-005, 3.04128498e-005,
          -4.11466857e-007, 7.82685049e-007, 1.55175951e-006,
          2.44538842e-005, 1.22736801e-005, -1.27173353e-005,
          -1.18978296e-005, -6.13161537e-005, -2.29584639e-005,
          2.02676838e-005, -5.08277662e-006, -2.63410057e-005,
          -3.56855016e-005, -3.15752077e-005, -2.18221685e-005,
          6.32817546e-006, 2.10927192e-005, 1.16265210e-005,
          8.41578094e-006, 3.17836907e-006, -2.40905956e-006,
          -9.82870688e-007, 6.94912751e-006, 6.76851641e-006,
          1.28122247e-005, 2.35697407e-005, 3.68230831e-005,
          4.69774823e-005, 4.43018725e-005, 3.03257093e-005,
          3.75023887e-006, -1.42896843e-005, -2.60260931e-005,
          -1.79381732e-005, -2.50431422e-005, -3.70496928e-005,
          -1.91702129e-005, 1.89689781e-005, -4.31607714e-006,
          -4.86941099e-005, 2.18647529e-005, 6.52255258e-005,
          4.91142455e-005, 4.48929568e-005, 1.34912961e-008,
          -8.18346336e-007, 8.11331802e-007, -1.67632822e-006,
          9.13371878e-006, 2.40174177e-005, -2.36721878e-008,
          -2.64517366e-005, -5.25971409e-005, -3.86416177e-005,
          4.21485638e-005, 3.66254753e-005, -1.22480797e-005,
          -2.45810224e-005, -2.93479989e-005, -3.45673216e-005,
          -2.37935274e-005, 3.92233517e-007, 1.47966857e-005,
          2.14047850e-005, 1.44809583e-005, 8.28181783e-006,
          1.25655615e-005, 2.16814369e-005, 1.47192004e-005,
          1.08221629e-005, 2.39316869e-005, 4.05878127e-005,
          5.81012355e-005, 5.42683374e-005, 3.23641689e-005,
          1.63394980e-005, -1.28415022e-005, -3.29356699e-005,
          -1.95973735e-005, -3.17296290e-005, -3.50688497e-005,
          -2.06443274e-005, -2.80440509e-005, -3.57504214e-005,
          -1.67764883e-005, 7.14230628e-005, 5.62682108e-005,
          4.40407857e-005, 1.84383116e-005, 2.96262840e-007,
          -1.70637361e-006, 1.05396521e-006, -3.18225943e-007,
          8.61352964e-006, 3.85389576e-005, 1.87885944e-005,
          -5.68492351e-006, -3.18662387e-005, -8.34135790e-005,
          9.65587515e-006, 4.21392542e-005, 1.86135821e-005,
          -4.72916372e-006, -1.35899518e-005, -1.50049827e-005,
          -3.05661888e-005, -3.84252962e-005, -2.17779325e-005,
          -8.87029273e-006, 1.37108373e-005, 2.11975275e-005,
          2.51158835e-005, 3.35075092e-005, 1.17076597e-005,
          1.15193225e-005, 2.86913983e-005, 3.49005459e-005,
          5.94182384e-005, 7.80908231e-005, 7.87639292e-005,
          5.76964703e-005, 8.21559479e-006, -2.35808202e-005,
          -4.14994611e-005, -3.46523411e-005, -4.53100220e-005,
          -6.58041026e-005, -8.24174640e-005, -1.99538299e-005,
          5.97640465e-005, 8.32892911e-005, 5.57703024e-005,
          4.42474629e-005, 2.99981753e-006, -8.88221564e-007,
          -1.50739041e-007, -5.35282709e-007, 4.60247151e-007,
          1.01885701e-006, 1.22627825e-005, 3.94818926e-005,
          1.81506111e-005, -5.40387191e-006, -6.62166058e-005,
          -5.07372060e-005, 3.33278804e-005, 6.22318839e-005,
          2.35703210e-005, -7.22850427e-006, -3.83909628e-006,
          -1.14907334e-005, -2.49479817e-005, -3.65805063e-005,
          -4.39309406e-005, -3.36343583e-005, -2.19321773e-005,
          -1.59136489e-005, -1.29927812e-005, -1.79520885e-005,
          -1.13992828e-005, -1.04476067e-006, 1.18311327e-005,
          5.26147924e-005, 9.31338654e-005, 9.56400618e-005,
          7.07089857e-005, 1.40770198e-005, -2.67498235e-005,
          -4.58330433e-005, -5.02650510e-005, -5.55086917e-005,
          -4.76428395e-005, -1.65885358e-005, 4.23993442e-005,
          7.95641681e-005, 6.23973247e-005, 4.51794112e-005,
          9.05431989e-006, -4.84472423e-007, -1.27341934e-006,
          1.94481501e-007, 6.96049938e-007, 5.78622839e-008,
          -6.71812643e-007, -1.53366770e-007, 1.39794120e-005,
          3.39299404e-005, 1.89644361e-005, -4.25487769e-006,
          -4.40172444e-005, -3.09524621e-005, 2.86501563e-005,
          5.07772165e-005, 7.12541669e-006, -1.07460892e-005,
          -1.22261672e-005, -1.76173944e-005, -1.88595186e-005,
          -2.67295927e-005, -2.94758211e-005, -3.08173549e-005,
          -2.63676120e-005, -2.49809673e-005, -1.82863914e-005,
          -1.58322746e-005, -8.21336198e-006, 1.60924192e-005,
          4.46769191e-005, 7.70395709e-005, 7.00118399e-005,
          4.47651146e-005, -8.03893545e-006, -2.55102823e-005,
          -2.78993830e-005, -5.46279625e-005, -3.27423550e-005,
          -1.09872099e-005, 2.17855850e-005, 7.75628505e-005,
          6.66662236e-005, 4.12671616e-005, 8.71084922e-006,
          -5.52885524e-007, -1.93437273e-007, 9.28135364e-007,
          1.42301535e-019, 1.89614255e-007, 3.47109896e-008,
          1.42301535e-019, 3.79228510e-007, 2.93747235e-007,
          1.13732322e-005, 3.23473687e-005, 2.16859426e-005,
          7.08446350e-006, -4.69621118e-005, -4.19407588e-005,
          -1.48068302e-005, -1.87064943e-005, -6.23882215e-006,
          -6.13403836e-006, -1.36293274e-005, -1.82861932e-005,
          -2.72712805e-005, -2.15155505e-005, 4.97862675e-006,
          1.37398474e-005, 4.88307978e-006, 1.28467336e-005,
          9.82795518e-006, 1.42415347e-005, 1.79398739e-005,
          3.31098272e-005, 4.83640433e-005, 2.64926366e-005,
          1.81889245e-005, -8.88097020e-006, -2.40782920e-005,
          6.59753687e-006, -2.17920406e-005, -3.35265713e-006,
          2.32096845e-005, 6.58430217e-005, 5.17122753e-005,
          3.76615208e-005, 9.10148447e-006, 7.58457020e-007,
          1.42301535e-019, 1.89614255e-007, 1.42301535e-019,
          3.47109896e-008, 1.42301535e-019, 3.03068965e-008,
          2.59036227e-007, 4.48650496e-007, 1.42301535e-019,
          1.70652834e-006, 1.00798625e-005, 2.89379223e-005,
          2.48760953e-005, 2.34614345e-005, -6.32375486e-006,
          -4.16543990e-005, -3.76889111e-005, -1.09133571e-005,
          2.47375556e-006, -6.05838204e-006, -1.20579289e-005,
          8.80449443e-006, 1.65251622e-005, 2.57653446e-005,
          3.30675794e-005, 4.48837636e-005, 4.77804024e-005,
          3.43748361e-005, 1.93290016e-005, 7.80221217e-006,
          -1.01092510e-005, 1.96782294e-005, 3.26457957e-005,
          2.96268972e-005, -1.91026993e-005, -1.39451813e-005,
          -1.05357867e-005, 6.66746246e-006, 3.53911746e-005,
          4.55696791e-005, 3.58398429e-005, 2.52541395e-005,
          8.23973187e-006, 5.68842779e-007, 1.42301535e-019,
          3.79228510e-007, 1.89614255e-007, 1.42301535e-019,
          4.48650496e-007, 1.42301535e-019, 1.89614255e-007,
          1.42301535e-019, 1.42301535e-019, 1.42301535e-019,
          1.42301535e-019, 1.42301535e-019, 9.91947400e-006,
          2.94514211e-005, 3.27469388e-005, 2.12054383e-005,
          3.44887994e-005, -7.98156361e-006, -3.97982476e-005,
          -4.49833824e-005, -1.94961667e-005, 1.30813680e-006,
          3.84442756e-005, 4.93532971e-005, 5.19634741e-005,
          6.86007770e-005, 8.38785636e-005, 7.56084046e-005,
          5.32955200e-005, 2.68546119e-005, -1.36505396e-005,
          -2.56849398e-005, 2.83717727e-005, 5.77881474e-005,
          2.72421348e-005, -2.19424292e-005, 3.25507312e-006,
          -2.14762858e-005, 5.20540016e-006, 4.05687279e-005,
          3.04527766e-005, 8.35372884e-006, -5.12654594e-008,
          -1.18417393e-006, 1.42301535e-019, 1.89614255e-007,
          3.79228510e-007, 1.42301535e-019, 1.42301535e-019,
          1.89614255e-007, 1.42301535e-019, 2.24325248e-007,
          1.42301535e-019, 1.42301535e-019, 5.68842779e-007,
          4.13939517e-007, 6.94219793e-008, -1.79324923e-006,
          7.44209092e-006, 7.50023537e-006, 3.29725299e-005,
          4.43218887e-005, 3.49151014e-005, 8.35833725e-006,
          -1.29054642e-005, 2.32209259e-005, 4.55799855e-005,
          4.95503700e-005, 3.84681407e-005, 5.77046849e-005,
          6.88796281e-005, 6.81390957e-005, 3.72026698e-005,
          2.10897542e-005, 2.30537808e-005, 3.48808026e-005,
          8.13340193e-006, 7.95635788e-006, 4.11467954e-005,
          7.61341698e-006, -5.47292875e-005, 3.22299888e-006,
          1.93084998e-005, 3.78880359e-005, 3.13355886e-005,
          5.84131021e-006, -4.06577016e-007, 1.29894988e-006,
          -1.51153429e-007, 3.79228510e-007, 1.89614255e-007,
          1.42301535e-019, 1.42301535e-019, 5.68842779e-007,
          1.89614255e-007, 1.42301535e-019, 3.47109896e-008,
          1.89614255e-007, 1.89614255e-007, -1.24596369e-007,
          1.42301535e-019, 1.42301535e-019, 5.51930100e-007,
          -8.42856707e-007, -2.41957565e-007, 3.08227300e-006,
          7.15088117e-006, 1.85188674e-005, 6.82110767e-005,
          9.39107485e-005, 7.62380369e-005, 4.31315530e-005,
          4.27778832e-005, 1.74681281e-005, 3.67355678e-005,
          6.50272568e-006, -4.96700704e-006, 5.22750543e-006,
          5.20909589e-006, 5.07314980e-005, 5.74817677e-005,
          2.65150466e-005, -1.84436431e-005, -1.61404078e-005,
          -1.93380547e-005, 5.07454533e-005, 4.45483020e-005,
          3.81531281e-005, 3.63762797e-006, 2.71591239e-006,
          3.10005021e-007, -3.96801596e-007, -2.18397827e-006,
          -9.23134735e-007, 1.42301535e-019, 1.42301535e-019,
          1.42301535e-019, 1.42301535e-019, 1.42301535e-019 ]
      - [ -4.48851315e-005, -4.08180094e-005, -3.76886492e-005,
          -3.32264135e-005, -2.63980764e-005, -3.19959399e-005,
          -3.74976262e-005, -3.70229754e-005, -3.15623620e-005,
          -1.85383051e-005, -1.19419738e-005, -2.07253879e-006,
          3.21170859e-007, -3.89991965e-006, 2.23236725e-006,
          1.87857640e-005, -2.99164221e-005, -7.50674953e-005,
          -6.05098940e-005, -2.42998049e-005, -4.75311135e-005,
          -1.25181468e-004, -9.85817460e-005, -6.53754978e-005,
          -9.83627615e-005, -1.73343142e-004, -2.03099815e-004,
          -1.18907628e-004, 6.24782260e-005, 1.16441966e-004,
          5.96935606e-005, -1.14266675e-006, -2.03866421e-005,
          -2.57294741e-005, -2.70144355e-005, -3.73579715e-005,
          -3.94013987e-005, -3.87114778e-005, -4.21785262e-005,
          -3.63711661e-005, -3.70245798e-005, -3.99769342e-005,
          -3.89896704e-005, -2.43784234e-005, -1.51803970e-005,
          -4.27316409e-005, -4.10519024e-005, -3.47176938e-005,
          -3.22059386e-005, -3.06847469e-005, -3.51313574e-005,
          -4.10405664e-005, -3.45070403e-005, -2.97958886e-005,
          -1.44727146e-005, -6.46052104e-006, -3.66581389e-006,
          4.84515476e-006, 2.01172516e-005, 9.67745927e-006,
          -3.78448749e-005, -9.64934079e-005, -1.08228858e-004,
          -8.84609835e-005, -4.96671419e-005, -4.38042443e-005,
          -5.99030282e-005, -5.09219753e-005, -4.84803604e-005,
          -6.29966162e-005, -1.05386920e-004, -1.10160501e-004,
          -9.02120883e-005, -4.81069510e-005, -3.84321793e-005,
          1.30913877e-005, 7.74178625e-005, 5.20415269e-005,
          1.75998430e-005, -2.48766919e-005, -3.58445468e-005,
          -4.16724652e-005, -3.91848880e-005, -4.02998048e-005,
          -4.13166090e-005, -3.75608724e-005, -3.85187122e-005,
          -3.87426080e-005, -3.14366443e-005, -2.60271845e-005,
          -4.27442683e-005, -4.01702637e-005, -3.13227538e-005,
          -2.92869463e-005, -2.94955935e-005, -3.63622821e-005,
          -3.90174100e-005, -2.66239713e-005, -1.64658813e-005,
          -3.21057178e-006, 1.49808320e-005, -1.77227084e-005,
          -8.28228294e-005, -6.40626095e-005, -4.11256951e-005,
          -4.96515822e-005, -7.63570788e-005, -6.27174304e-005,
          -4.12396257e-005, -2.42026399e-005, -2.20383190e-005,
          -2.20629699e-005, -3.21617990e-005, -5.38826971e-005,
          -6.00302556e-005, -7.65273799e-005, -8.46562252e-005,
          -9.56802032e-005, -1.09205997e-004, -1.00844576e-004,
          -2.16108310e-005, 1.04024090e-004, 1.69303676e-004,
          1.05924919e-004, 7.75612989e-006, -1.96954679e-005,
          -3.00457305e-005, -3.88907247e-005, -4.55060799e-005,
          -3.71763781e-005, -3.69902591e-005, -3.80679703e-005,
          -4.13183843e-005, -4.10247885e-005, -4.20585056e-005,
          -4.11355759e-005, -3.85336170e-005, -3.15315847e-005,
          -3.12272496e-005, -3.39307662e-005, -3.93914488e-005,
          -3.60040576e-005, -2.41041362e-005, -1.03699813e-005,
          -5.25018231e-006, 1.39441440e-007, -4.84030134e-005,
          -8.68463903e-005, -5.94049343e-005, -3.81775717e-005,
          -3.05409158e-005, -2.33462324e-005, -5.27666498e-006,
          8.47111005e-006, 9.60713078e-006, 1.14038130e-005,
          1.21500343e-005, 8.71747397e-006, 1.77431264e-006,
          -4.09790982e-006, -1.17550171e-005, -2.18710629e-005,
          -3.44949949e-005, -4.36660048e-005, -3.83820370e-005,
          -2.06719724e-005, 2.78774532e-005, 1.11764297e-004,
          1.04944033e-004, 8.50751385e-005, 8.80972948e-005,
          1.90058108e-005, -4.11648398e-005, -4.06567160e-005,
          -3.90027599e-005, -3.59866644e-005, -3.66590684e-005,
          -3.81057325e-005, -4.13799862e-005, -4.40902477e-005,
          -3.93719056e-005, -3.63905092e-005, -3.21349544e-005,
          -3.42586718e-005, -3.50188311e-005, -3.76358475e-005,
          -2.85756287e-005, 2.78538141e-006, -1.04103992e-005,
          -3.98487682e-005, -1.65204619e-005, -2.44463317e-005,
          1.59090869e-005, 9.04880744e-006, 4.34427830e-006,
          -1.98518810e-005, -2.18766872e-005, 4.64652294e-006,
          4.24292512e-006, -3.08580809e-007, 4.00859426e-006,
          6.03012086e-006, 4.38347615e-006, 2.89294007e-006,
          -7.67283746e-006, -3.74522665e-006, -1.13305123e-005,
          -1.51581789e-005, -1.82858957e-006, 1.08208560e-005,
          1.03543643e-005, 4.08361120e-006, -5.30210309e-006,
          1.87645583e-005, 9.00795785e-005, 1.66120357e-004,
          8.83232497e-005, 2.08104921e-005, -3.60322497e-006,
          -3.11306394e-005, -3.58582256e-005, -3.64252373e-005,
          -3.75261370e-005, -4.05671308e-005, -4.22679841e-005,
          -3.85794629e-005, -3.39684775e-005, -2.99279382e-005,
          -3.50621303e-005, -3.60699087e-005, -3.05871872e-005,
          -3.27600101e-005, -1.20309560e-005, -4.14801834e-005,
          -1.59027313e-005, 4.34128087e-005, 4.53890534e-005,
          3.89343622e-005, 3.22049345e-005, 2.41570197e-005,
          -1.49056268e-005, -3.03564739e-005, 4.48274562e-007,
          -1.53013548e-006, -1.87377054e-006, 1.28209456e-006,
          -3.16829573e-006, -9.39326401e-006, -1.40460452e-005,
          -9.67637970e-006, -6.71298403e-006, -1.55577000e-005,
          -1.01377191e-005, -6.24591348e-006, -3.44491605e-006,
          2.71165686e-006, 1.14533159e-005, 1.29893851e-005,
          2.15774180e-005, 5.00982460e-005, 8.80288499e-005,
          1.59492411e-004, 1.00061799e-004, 2.64472965e-005,
          -1.43976276e-005, -2.69986976e-005, -3.58997204e-005,
          -3.63476938e-005, -3.92900511e-005, -4.15929317e-005,
          -3.67408356e-005, -3.26792397e-005, -2.92511941e-005,
          -3.24571993e-005, -3.14730969e-005, -2.62244539e-005,
          -5.36571642e-005, -5.88496441e-005, -1.66409009e-005,
          1.51421837e-005, 5.80754095e-005, 3.62424107e-005,
          3.27181988e-005, 2.82313085e-005, 1.02345739e-005,
          3.10639371e-006, -1.56841252e-005, -1.71905867e-005,
          -1.99170918e-005, -2.00120357e-005, -2.02341489e-005,
          -2.06639779e-005, -2.08915044e-005, -1.72917535e-005,
          -2.34376457e-005, -2.39570181e-005, -2.39387991e-005,
          -1.61770840e-005, -1.97917525e-005, -1.73574535e-005,
          -4.87106809e-006, 1.02803097e-005, 4.60260117e-006,
          1.89154853e-005, 2.97931310e-005, 3.66568929e-005,
          4.70169616e-005, 9.50823014e-005, 7.64200158e-005,
          3.59353157e-006, -7.07227036e-006, -3.15586622e-005,
          -3.44390210e-005, -3.81960926e-005, -4.20084725e-005,
          -2.89051168e-005, -3.22047672e-005, -3.23201675e-005,
          -3.41633131e-005, -7.85163957e-006, 1.36292947e-005,
          -6.78922879e-006, -2.46669788e-005, -2.94153706e-005,
          -8.80861171e-006, 5.63831964e-005, 2.21400387e-005,
          1.25815313e-005, -4.05138508e-006, -2.16450576e-006,
          -1.27027906e-005, -1.86685866e-005, -3.63517611e-005,
          -3.16682417e-005, -3.77908909e-005, -4.91456158e-005,
          -4.14577480e-005, -4.42072960e-005, -4.08854430e-005,
          -2.52749724e-005, -1.57865434e-005, -1.14966233e-005,
          -1.31126335e-005, -1.11323598e-005, -8.04311549e-006,
          -5.15632610e-006, -1.28094098e-005, -8.55218730e-007,
          6.31077910e-007, 9.45470219e-006, 2.42700025e-005,
          1.61193020e-006, 2.74482736e-005, 9.15232340e-006,
          -1.34155816e-005, 2.92025707e-005, -1.12866228e-005,
          -2.88272586e-005, -3.29663017e-005, -3.52621064e-005,
          -2.63822221e-005, -2.91554643e-005, -2.90289699e-005,
          -6.48570312e-006, 2.47017670e-005, 1.39738031e-005,
          -7.92858009e-006, -1.56165443e-005, -1.50127164e-006,
          3.34028700e-005, 3.20943072e-005, 8.57598206e-006,
          -1.65154233e-006, -1.41795754e-005, -2.96206381e-005,
          -4.01492834e-005, -5.79288026e-005, -7.63625358e-005,
          -7.31493492e-005, -6.94954797e-005, -7.05812781e-005,
          -7.04427730e-005, -7.19783275e-005, -6.23469314e-005,
          -4.97448527e-005, -3.79734665e-005, -2.51653837e-005,
          -1.92900152e-005, -8.50546985e-006, -6.78880360e-006,
          -1.33423764e-005, -8.47370700e-007, -1.58109117e-006,
          -2.21706318e-006, 4.10664143e-006, 1.53157143e-005,
          1.17497211e-005, 1.66531856e-006, 6.66908318e-006,
          4.84179545e-005, 2.64604350e-005, -1.53223164e-006,
          -2.22420022e-005, -1.94677214e-005, -1.64740450e-005,
          -2.53315193e-005, -3.18386556e-005, -1.89347556e-005,
          1.67451799e-005, 3.21392099e-006, 8.32528258e-006,
          9.03174259e-006, 7.75073750e-006, 1.80745355e-005,
          2.27389755e-005, 6.05554897e-006, -7.01074941e-006,
          -1.97582503e-005, -4.12983718e-005, -5.19189525e-005,
          -6.98020085e-005, -7.25032151e-005, -8.23418013e-005,
          -8.37190601e-005, -7.42358243e-005, -7.07205982e-005,
          -6.21159052e-005, -5.57785534e-005, -5.48959033e-005,
          -5.07544391e-005, -4.82821233e-005, -3.88754888e-005,
          -2.87139555e-005, -1.49915459e-005, -5.33202865e-006,
          -2.38636130e-006, 5.72088311e-006, 2.75168304e-006,
          9.89114938e-007, 4.19483331e-006, 6.98249642e-006,
          8.57054238e-006, 1.63331642e-005, 1.18951793e-005,
          1.12116240e-005, -5.63576714e-006, -1.52814710e-006,
          9.31459545e-006, 4.92730214e-006, 2.26907923e-006,
          -3.25443689e-005, -2.04035823e-005, -1.39491312e-005,
          -2.32125331e-005, -6.75488482e-005, 2.56089515e-005,
          7.12682813e-005, 5.41847658e-005, 3.90717105e-005,
          1.33148942e-005, -4.95724044e-006, -1.83399679e-005,
          -4.19971329e-005, -6.10200404e-005, -6.84466795e-005,
          -7.67445745e-005, -7.51683547e-005, -6.21166910e-005,
          -5.60201188e-005, -4.82226569e-005, -4.00071476e-005,
          -3.30934927e-005, -2.93977828e-005, -3.06034744e-005,
          -2.40215522e-005, -2.02366864e-005, -1.56999522e-005,
          -2.00429913e-005, -2.17965244e-005, -1.21447656e-005,
          -6.55333679e-006, 1.43548493e-006, 3.36734018e-007,
          5.57549868e-007, -6.37847563e-007, -7.45756006e-006,
          4.46594368e-006, 9.77191758e-006, 9.47985427e-006,
          9.22377967e-006, 1.16656529e-005, -1.25418173e-005,
          -1.78664777e-006, 1.96411365e-005, 2.04362968e-005,
          -2.57305564e-005, 1.34368584e-005, -1.35671744e-005,
          -5.45206167e-005, 1.28669544e-005, 3.78987934e-005,
          5.66314629e-005, 3.91686408e-005, 2.77832842e-005,
          -3.67943471e-007, -1.65244874e-005, -3.52247698e-005,
          -5.56958694e-005, -6.81287493e-005, -6.97192227e-005,
          -6.71257876e-005, -6.17461410e-005, -5.01521135e-005,
          -3.81240643e-005, -2.67649611e-005, -2.14549236e-005,
          -1.58304447e-005, -1.42272575e-005, -8.01364058e-006,
          -1.24066992e-005, -7.20439584e-006, -1.46868240e-006,
          -2.23866687e-006, 1.29987200e-006, 4.43103636e-006,
          -6.97438850e-007, 7.51254402e-006, 3.11337158e-006,
          6.30279101e-006, -1.51092968e-006, -1.02030517e-005,
          6.22032894e-006, 8.71226712e-006, 1.49722473e-005,
          1.95630200e-005, 2.68844415e-005, -2.11020269e-005,
          -4.92222898e-005, 6.11152609e-006, 5.73761936e-005,
          1.32061468e-005, -2.04780208e-005, -2.39930669e-005,
          -3.01939835e-005, 1.47353485e-005, 3.34467077e-005,
          3.53519063e-005, 1.69898067e-005, 4.64057422e-007,
          -1.97819536e-005, -4.21529148e-005, -7.00745659e-005,
          -7.10037129e-005, -7.38107556e-005, -7.61822084e-005,
          -7.58202586e-005, -6.71355956e-005, -6.08519549e-005,
          -5.44758295e-005, -4.38952375e-005, -3.88924309e-005,
          -2.71778044e-005, -1.93900050e-005, -1.62247634e-005,
          -6.97145379e-006, 7.01056751e-006, 1.75105033e-005,
          2.73510941e-005, 3.92158145e-005, 3.42792009e-005,
          1.68316783e-005, 2.07245794e-005, 2.26540942e-005,
          1.01496316e-005, 9.24798678e-006, 1.13659189e-005,
          1.83247794e-005, 2.77768468e-005, 3.42623243e-005,
          2.66791139e-005, 3.02069202e-005, -6.62578805e-006,
          -3.70244234e-005, 5.28713190e-006, 7.93883446e-005,
          -3.87936143e-006, -3.94588715e-005, -2.47163844e-005,
          -4.47049497e-005, 3.53085716e-006, 3.67848625e-005,
          2.72309535e-005, 1.43840944e-005, -7.35961794e-006,
          -3.98506381e-005, -5.46535703e-005, -7.72551793e-005,
          -9.22354811e-005, -1.00939746e-004, -1.25094011e-004,
          -1.15054419e-004, -9.12852120e-005, -6.39651553e-005,
          -7.63022545e-005, -8.29817800e-005, -7.32136323e-005,
          -5.31853766e-005, -2.89250529e-005, -1.55092766e-005,
          1.23513264e-005, 3.64103544e-005, 5.34405335e-005,
          6.02073487e-005, 5.28720593e-005, 2.89195923e-005,
          1.35071205e-005, 1.98915568e-005, 2.79055366e-005,
          2.84716498e-005, 1.66759983e-005, 1.94455206e-005,
          3.04135956e-005, 3.57427125e-005, 4.10180292e-005,
          4.98824775e-005, 3.90711029e-005, 1.72724140e-005,
          -1.19634415e-005, 1.09096754e-005, 8.02350041e-005,
          2.21011214e-005, -1.11327427e-005, -3.65309788e-005,
          -5.82814209e-005, 1.06251600e-005, 3.82875623e-005,
          1.69329051e-005, -1.49702339e-006, -3.09031966e-005,
          -5.81167660e-005, -6.20760184e-005, -8.78196661e-005,
          -1.14386530e-004, -1.62597004e-004, -1.67135804e-004,
          -1.13671667e-004, -7.22762925e-005, -6.32970259e-005,
          -1.19514414e-004, -1.49379965e-004, -1.35746755e-004,
          -9.41476246e-005, -4.13748166e-005, 6.43437943e-006,
          5.98605511e-005, 8.11281789e-005, 8.60834334e-005,
          8.66461269e-005, 7.25106584e-005, 4.52617242e-005,
          2.42276619e-005, 1.63355544e-005, 2.73248334e-005,
          3.59712794e-005, 3.22320666e-005, 2.49141976e-005,
          2.95363188e-005, 3.55505217e-005, 3.23763888e-005,
          4.76093883e-005, 5.10984282e-005, 5.07953118e-005,
          8.68163170e-006, -3.97091935e-006, 3.03568322e-006,
          3.75976124e-005, -1.97141508e-005, -9.66624884e-006,
          4.18385534e-005, 4.61216405e-005, 5.36623047e-005,
          3.27193666e-005, -4.39135420e-006, -5.03057272e-005,
          -5.95150377e-005, -7.88217876e-005, -1.05377454e-004,
          -1.57532209e-004, -2.00568160e-004, -1.36652103e-004,
          -5.74583610e-005, -1.54990303e-005, -5.84834197e-005,
          -1.53693953e-004, -2.02419295e-004, -1.97440211e-004,
          -1.24232887e-004, -4.14290917e-005, 3.81439240e-005,
          8.12967992e-005, 7.27002916e-005, 4.04944840e-005,
          2.45895444e-005, 1.08769509e-005, -8.59424654e-006,
          -1.14257482e-005, -1.42278650e-005, -4.78745051e-006,
          2.38009761e-005, 3.04643600e-005, 3.83857405e-005,
          3.84676714e-005, 2.42774222e-005, 2.66728875e-005,
