%YAML:1.0
my_svm: !!opencv-ml-svm
   svm_type: C_SVC
   kernel: { type:LINEAR }
   C: 1.0000000000000001e-001
   term_criteria: { epsilon:2.2204460492503131e-016, iterations:1000 }
   var_all: 6075
   var_count: 6075
   class_count: 8
   class_labels: !!opencv-matrix
      rows: 1
      cols: 8
      dt: i
      data: [ 1, 2, 3, 4, 5, 6, 7, 8 ]
   sv_total: 28
   support_vectors:
      - [ 2.31507602e-005, 2.08112015e-005, 1.30282888e-005,
          1.86077596e-005, 1.69003542e-005, 1.38103533e-005,
          -1.83657248e-005, -2.07821085e-005, -1.22335141e-005,
          -3.03713368e-005, -3.04953664e-005, -1.70577059e-005,
          -3.00868505e-005, -2.88790307e-005, -1.48639992e-005,
          -2.73724127e-005, -2.48388897e-005, -1.02184240e-005,
          -2.61782661e-005, -2.39245674e-005, -1.09763178e-005,
          -2.37098138e-005, -2.22214057e-005, -1.23353730e-005,
          -1.76563808e-005, -1.75933419e-005, -9.11694860e-006,
          -1.21834200e-005, -1.26986861e-005, -6.90364914e-006,
          -3.80711549e-006, -6.72124997e-006, -4.74060789e-006,
          -2.30752971e-006, -3.11811573e-006, -2.09996892e-006,
          -2.82054430e-006, -2.39616520e-006, -6.97181804e-007,
          -3.93061691e-006, -3.47008790e-006, 7.86453256e-007,
          -5.57110752e-007, -2.57408738e-006, 2.76597507e-006,
          -3.05686808e-005, -3.24818029e-005, -2.52993614e-005,
          -4.68146609e-005, -4.93540065e-005, -4.58413087e-005,
          2.86297036e-005, 2.64302125e-005, 1.69688537e-005,
          7.51533162e-006, 7.16643353e-006, -9.05666548e-006,
          4.73850268e-005, 4.78445872e-005, 3.03778397e-005,
          4.33481546e-005, 4.04796519e-005, 3.21722728e-005,
          1.34265547e-005, 8.98321014e-006, 4.26320184e-006,
          -4.64902587e-006, -1.05736399e-005, -1.01558699e-005,
          -5.43236865e-006, -8.68575262e-006, -6.83272765e-006,
          2.70574014e-006, 1.53745566e-006, 3.58799593e-006,
          -4.36467890e-005, -4.52183740e-005, -4.02366459e-005,
          -6.59003490e-005, -6.88635046e-005, -5.38723179e-005,
          -3.74870360e-005, -4.05874962e-005, -2.70269320e-005,
          5.10693917e-006, 2.54475594e-006, 1.37443858e-005,
          2.13638159e-005, 2.07214089e-005, 2.57578577e-005,
          6.02179643e-005, 5.98173610e-005, 5.75655722e-005,
          5.61990964e-005, 5.69761614e-005, 5.38636632e-005,
          5.39604262e-005, 5.48050411e-005, 5.86374808e-005,
          -2.51475853e-007, -9.73704346e-007, 8.15267413e-006,
          -2.59162152e-005, -2.46196505e-005, -1.18124181e-005,
          -2.83353329e-005, -2.83915615e-005, -1.31625029e-005,
          -2.93604335e-005, -3.07773917e-005, -1.58067705e-005,
          -2.94565998e-005, -3.05212270e-005, -1.77996099e-005,
          -3.10151263e-005, -3.01017426e-005, -1.77409511e-005,
          -2.79819869e-005, -2.80549357e-005, -1.68209917e-005,
          -3.05821632e-005, -2.73466449e-005, -1.86221660e-005,
          -3.27096095e-005, -2.90565567e-005, -2.20963302e-005,
          -3.02419394e-005, -2.81839784e-005, -2.13386538e-005,
          -2.31078575e-005, -2.17448924e-005, -1.63425884e-005,
          -1.50900760e-005, -1.70150815e-005, -1.19036858e-005,
          3.72886389e-005, 3.60536615e-005, 3.02392691e-005,
          2.54761835e-005, 2.58425061e-005, 2.31860031e-005,
          -2.26446064e-005, -2.47772205e-005, -1.55336438e-005,
          -2.35670050e-005, -2.33114351e-005, -1.11855015e-005,
          -2.56650183e-005, -2.55400628e-005, -1.03263492e-005,
          -2.76609353e-005, -2.50377379e-005, -9.86273153e-006,
          -2.69501270e-005, -2.49959030e-005, -1.14952691e-005,
          -2.19109061e-005, -2.08820347e-005, -8.26530322e-006,
          -1.87381756e-005, -1.98444886e-005, -9.31476370e-006,
          -1.04683431e-005, -1.26599407e-005, -4.91457331e-006,
          -8.70211898e-006, -9.99392796e-006, -4.38098596e-006,
          -6.66304459e-006, -7.41703616e-006, -3.62144419e-006,
          -1.88146932e-005, -1.83626435e-005, -1.32439627e-005,
          -2.23179213e-005, -2.30077203e-005, -1.45730573e-005,
          1.41947039e-005, 1.19003071e-005, 2.49369550e-005,
          -7.92340506e-006, -1.05071013e-005, 3.63072877e-006,
          -2.63105012e-005, -2.65786275e-005, -2.33950195e-005,
          1.68806346e-005, 1.94696859e-005, 1.45807608e-005,
          3.51080075e-007, 4.82812675e-006, -5.61346769e-006,
          -2.77046433e-006, 2.86649538e-006, -9.39276379e-006,
          6.99096336e-006, 9.94897073e-006, 2.04754156e-006,
          -9.37583354e-006, -6.30463592e-006, -9.00525538e-006,
          -1.74977158e-005, -1.47834680e-005, -1.39859048e-005,
          -2.61253444e-005, -2.27115943e-005, -2.19402627e-005,
          -1.51304666e-005, -1.28538877e-005, -1.23126374e-005,
          -2.53324652e-005, -2.39810834e-005, -2.14805787e-005,
          4.26699489e-006, 3.65017377e-006, 1.10259716e-005,
          2.56303611e-005, 2.36526412e-005, 3.26173868e-005,
          -2.85553378e-005, -2.79976739e-005, -1.86470988e-005,
          -2.60512115e-005, -2.64558439e-005, -1.68268070e-005,
          -1.87331098e-005, -1.66012414e-005, -9.31757859e-006,
          5.63539252e-005, 5.90754826e-005, 5.97642138e-005,
          -5.99753093e-006, -5.95969914e-006, 2.09092900e-006,
          -1.81177675e-005, -1.75056375e-005, -6.46092667e-006,
          -2.49205896e-005, -2.43503036e-005, -1.15804023e-005,
          -2.65660783e-005, -2.73241203e-005, -1.25623865e-005,
          -3.01355576e-005, -3.13666060e-005, -1.63554269e-005,
          -2.99273852e-005, -3.08675408e-005, -1.66183090e-005,
          -3.00258507e-005, -3.09760253e-005, -1.87702663e-005,
          -3.10129981e-005, -3.00538704e-005, -1.86956568e-005,
          -3.06181610e-005, -2.82430083e-005, -1.91364361e-005,
          -3.15448415e-005, -2.81556968e-005, -2.00489485e-005,
          -3.12228949e-005, -2.86410395e-005, -2.19338508e-005,
          -2.58859327e-005, -2.50839803e-005, -1.93226970e-005,
          -2.17272700e-005, -2.13490766e-005, -1.66297541e-005,
          -1.19041888e-005, -1.34309703e-005, -1.42603940e-005,
          -1.57560971e-005, -1.71756546e-005, -1.43326652e-005,
          -1.46179109e-005, -1.65479887e-005, -8.46807507e-006,
          -1.47758565e-005, -1.50757160e-005, -5.08666244e-006,
          -2.20752991e-005, -2.15837299e-005, -8.59689862e-006,
          -2.36879987e-005, -2.34631989e-005, -1.01287833e-005,
          -2.40543177e-005, -2.33875926e-005, -1.15606736e-005,
          -1.86142170e-005, -1.91768431e-005, -7.48749198e-006,
          -1.07599262e-005, -1.34881448e-005, -4.26804581e-006,
          -4.03211607e-006, -6.44957663e-006, 1.08327401e-006,
          -1.95974985e-006, -4.02031401e-006, 4.47640787e-006,
          -1.55420275e-005, -1.77974016e-005, -7.02120815e-006,
          -5.01624891e-005, -5.08994453e-005, -3.52014504e-005,
          -4.26712249e-005, -4.43559402e-005, -2.51958263e-005,
          -2.36814139e-005, -2.83581066e-005, -6.79800769e-006,
          -4.09584391e-005, -4.41637130e-005, -2.50316098e-005,
          -4.02887417e-006, -1.25462304e-006, 2.96352141e-006,
          -1.59912906e-005, -8.67045492e-006, -1.21452949e-005,
          -2.34453655e-005, -1.51693466e-005, -2.41040816e-005,
          -1.12672724e-005, -6.83956671e-007, -1.29961272e-005,
          7.18492856e-006, 1.77271650e-005, 7.83698033e-006,
          -3.57059412e-006, 6.25719667e-006, -1.78254197e-006,
          -2.36236338e-005, -1.25590186e-005, -2.12764608e-005,
          -4.44514808e-005, -3.47934329e-005, -4.51539454e-005,
          -3.11233707e-005, -2.06446475e-005, -3.27960843e-005,
          -2.10888065e-005, -1.24000971e-005, -2.30079495e-005,
          -2.07142348e-005, -1.60404397e-005, -2.25831463e-005,
          -2.74457961e-005, -2.43296308e-005, -2.65808285e-005,
          -3.82063590e-005, -3.62414321e-005, -3.17301856e-005,
          -3.35323748e-005, -3.01616437e-005, -2.31885533e-005,
          1.96942710e-006, 7.61353658e-006, 1.66622922e-005,
          5.01679169e-005, 5.34097744e-005, 6.28960042e-005,
          3.09635034e-005, 3.16655605e-005, 4.39137657e-005,
          5.57642716e-006, 3.58357397e-006, 1.39845715e-005,
          -2.06384375e-005, -2.13601925e-005, -8.27203257e-006,
          -2.20286420e-005, -2.27943929e-005, -8.79518120e-006,
          -2.62814501e-005, -2.49855420e-005, -9.15627152e-006,
          -2.87562198e-005, -2.74072627e-005, -1.14172408e-005,
          -2.80959048e-005, -2.80299173e-005, -1.66585633e-005,
          -2.89089276e-005, -2.90661046e-005, -1.79676499e-005,
          -3.05457907e-005, -2.95027457e-005, -1.95569482e-005,
          -3.00993597e-005, -2.87085695e-005, -2.01694747e-005,
          -3.05545400e-005, -2.99525927e-005, -2.27987930e-005,
          -2.98519444e-005, -2.90690859e-005, -2.35578937e-005,
          -3.03342840e-005, -2.79531432e-005, -2.35353600e-005,
          -1.13811138e-005, -1.31347169e-005, -9.71277223e-006,
          -1.00476727e-005, -1.17342315e-005, -7.81042945e-006,
          -9.16283989e-006, -9.92796322e-006, -2.25425401e-006,
          -9.79751621e-006, -1.03656566e-005, 4.12573200e-007,
          -2.09921272e-005, -2.16899352e-005, -7.82409461e-006,
          -2.29739126e-005, -2.43850045e-005, -1.01946489e-005,
          -2.23355346e-005, -2.23051120e-005, -9.87690782e-006,
          -1.66776535e-005, -1.76886188e-005, -5.94016183e-006,
          -1.01568612e-005, -1.18918333e-005, -7.12102178e-007,
          -1.32250370e-005, -1.70524108e-005, -4.69207544e-006,
          -1.27898447e-005, -1.86488287e-005, -2.74640092e-006,
          -1.38346070e-006, -5.16153978e-006, 8.63395326e-006,
          -2.47913636e-006, -4.43429235e-006, 8.24947074e-006,
          -1.00250600e-005, -1.35868286e-005, -3.65441952e-006,
          -5.99457508e-006, -1.25093684e-005, -1.12945020e-006,
          -7.73295869e-006, -1.20198702e-005, -4.30944010e-006,
          -4.59724970e-006, -1.80666302e-006, -1.14150521e-006,
          -1.13353735e-005, -5.01118484e-006, -9.83476821e-006,
          -8.33770537e-006, 1.11660802e-006, -9.11654752e-006,
          -1.77716277e-006, 8.36748404e-006, -4.59846206e-006,
          4.45242358e-006, 1.33814201e-005, 9.07650929e-007,
          8.01683200e-006, 1.81181549e-005, 3.79670973e-006,
          8.95709763e-006, 2.05426768e-005, 4.45556316e-006,
          -8.63551304e-006, 2.86937006e-006, -1.53433793e-005,
          -1.88659815e-005, -6.95769859e-006, -2.64983264e-005,
          -1.67021462e-005, -8.05847776e-006, -2.57575775e-005,
          -1.46009716e-005, -8.16414013e-006, -2.49503501e-005,
          -1.95269331e-005, -1.63370514e-005, -2.70999590e-005,
          -1.61116859e-005, -1.32329960e-005, -1.82280128e-005,
          -2.33169994e-005, -1.86587858e-005, -1.84074579e-005,
          -1.29809569e-005, -6.22535254e-006, 1.52982466e-006,
          1.63110999e-005, 2.14743177e-005, 3.27308007e-005,
          5.26759104e-005, 5.24378556e-005, 6.47534544e-005,
          9.72385078e-006, 8.30958106e-006, 2.24889245e-005,
          1.39486065e-005, 1.44736086e-005, 3.18144848e-005,
          -2.91785565e-008, -5.24876747e-008, 1.20846862e-005,
          -1.30001235e-005, -1.14122186e-005, 2.36476649e-006,
          -1.83950742e-005, -1.73892731e-005, -2.46767968e-006,
          -1.89780239e-005, -1.94915810e-005, -6.75949150e-006,
          -2.58196142e-005, -2.65117123e-005, -1.50799442e-005,
          -2.80345030e-005, -2.72458856e-005, -1.73765038e-005,
          -2.63880174e-005, -2.69432549e-005, -1.83823067e-005,
          -2.66645984e-005, -2.68053300e-005, -2.05267916e-005,
          -2.79070373e-005, -2.64196133e-005, -2.15437612e-005,
          -3.15490324e-005, -2.82486490e-005, -2.48460201e-005,
          -1.43133020e-005, -1.42951740e-005, -8.69516407e-006,
          -1.37516417e-005, -1.41160281e-005, -6.50664651e-006,
          -1.29885075e-005, -1.25218839e-005, -2.08666597e-006,
          -2.03743548e-005, -2.01491584e-005, -6.47206207e-006,
          -2.23140669e-005, -2.28303397e-005, -6.92235244e-006,
          -2.16067274e-005, -2.26529901e-005, -6.46874878e-006,
          -1.79773797e-005, -1.84008895e-005, -3.49838047e-006,
          -1.51960003e-005, -1.82310141e-005, -3.33311687e-006,
          -1.31881889e-005, -1.61919161e-005, 1.25499776e-006,
          1.37852612e-005, 8.02024897e-006, 2.50004123e-005,
          1.80994684e-005, 1.17799163e-005, 3.23937456e-005,
          3.24148823e-005, 2.66666866e-005, 4.46575286e-005,
          1.13153083e-005, 7.77714922e-006, 1.67573107e-005,
          2.39708993e-006, 1.53910094e-007, 3.28280021e-006,
          -1.60682862e-006, -5.95351230e-006, -4.10234543e-006,
          1.36244771e-005, 9.97461575e-006, 7.89051501e-006,
          3.37484676e-006, 4.65455014e-006, -2.65132053e-006,
          1.29407272e-006, 5.57675230e-006, -7.07326262e-006,
          4.91890023e-006, 9.12703126e-006, -6.09135441e-006,
          3.20014055e-006, 8.39082350e-006, -9.07626600e-006,
          9.21426306e-007, 5.07290315e-006, -1.37203779e-005,
          2.98661917e-006, 7.61373667e-006, -1.20102250e-005,
          -1.93416577e-006, 5.13765963e-006, -1.68396564e-005,
          -5.99469104e-006, 2.28441445e-006, -2.18648711e-005,
          -1.06637199e-005, -1.73875833e-006, -2.66437328e-005,
          -1.06342322e-005, -4.57467650e-006, -2.88544306e-005,
          -7.72909425e-006, -4.66938354e-006, -2.67692685e-005,
          -6.28720863e-006, -6.01711918e-006, -2.32071798e-005,
          -8.20476635e-006, -7.11933035e-006, -1.97532117e-005,
          -1.22882930e-005, -1.03169195e-005, -1.62780943e-005,
          -1.74391189e-005, -1.22416623e-005, -9.97947700e-006,
          -9.96438939e-006, -6.21595336e-006, -4.60353590e-007,
          -1.63277025e-006, -1.79061158e-006, 6.37639823e-006,
          3.02739772e-006, 3.76090384e-006, 1.40967650e-005,
          5.58716383e-005, 5.98774350e-005, 7.25034770e-005,
          5.20135363e-005, 5.62032437e-005, 6.72640963e-005,
          1.85359459e-005, 2.16795906e-005, 3.45765438e-005,
          -1.40043503e-005, -1.34739184e-005, -6.09031758e-007,
          -1.43051575e-005, -1.54647987e-005, -3.62702667e-006,
          -1.95997454e-005, -2.00405902e-005, -8.01548322e-006,
          -1.90348310e-005, -1.85876070e-005, -8.35560331e-006,
          -1.99077167e-005, -1.91613453e-005, -1.10677020e-005,
          -2.45410229e-005, -2.37262884e-005, -1.74537745e-005,
          -2.64839764e-005, -2.57435640e-005, -2.13346411e-005,
          -2.96996332e-005, -2.74107751e-005, -2.38002576e-005,
          -1.71038628e-005, -1.53628680e-005, -7.23313997e-006,
          -1.61711141e-005, -1.65869624e-005, -5.71793908e-006,
          -1.83176689e-005, -1.77716556e-005, -4.77133244e-006,
          -2.18776822e-005, -2.21272803e-005, -6.84749511e-006,
          -2.37359236e-005, -2.32318780e-005, -6.80688572e-006,
          -2.48898250e-005, -2.56894982e-005, -8.30824501e-006,
          -1.25909237e-005, -1.53538513e-005, 2.12361238e-006,
          -7.20926982e-006, -9.93459435e-006, 5.48141043e-006,
          3.91098583e-005, 3.54388067e-005, 5.19304376e-005,
          6.12762960e-005, 5.61675770e-005, 7.20696480e-005,
          4.32792804e-005, 3.75161253e-005, 5.58528372e-005,
          1.26753666e-005, 7.72796011e-006, 1.94582281e-005,
          9.88165539e-007, -2.34630079e-007, 2.53462417e-006,
          3.01434011e-006, 4.30191085e-006, 5.52177362e-008,
          8.50482775e-006, 7.79296715e-006, -9.62389663e-007,
          8.95691119e-006, 9.57244447e-006, -1.81254939e-006,
          5.73061288e-006, 8.73313638e-006, -7.17110424e-006,
          3.52930874e-006, 6.95695780e-006, -1.16858009e-005,
          4.42260807e-006, 6.76259788e-006, -1.34539814e-005,
          2.99182534e-006, 4.66062920e-006, -1.38631640e-005,
          -9.44345629e-007, -1.07695735e-006, -1.92791649e-005,
          -4.42964483e-006, -3.13350756e-006, -2.35815951e-005,
          -6.49544063e-006, -5.71515875e-006, -2.49694876e-005,
          -9.96415474e-006, -7.21772767e-006, -2.85547467e-005,
          -8.73235149e-006, -4.59091507e-006, -2.72715879e-005,
          -9.02474130e-006, -4.44345869e-006, -2.78100542e-005,
          -5.81636868e-006, -3.84916711e-006, -2.62141875e-005,
          -5.20037520e-006, -4.27419263e-006, -2.45508018e-005,
          -8.06329081e-006, -8.86356975e-006, -2.40889858e-005,
          -1.59936189e-005, -1.47030123e-005, -2.43852664e-005,
          -2.57698503e-005, -2.31907234e-005, -2.53730450e-005,
          -2.03462132e-005, -1.67772250e-005, -1.56615697e-005,
          -1.12584539e-005, -1.00678453e-005, -8.43547514e-006,
          -3.90115929e-006, -2.31106515e-006, 1.01345256e-006,
          1.33809554e-005, 1.81354681e-005, 2.62724152e-005,
          4.46419290e-005, 5.20755057e-005, 6.47290653e-005,
          4.12968111e-005, 4.72438005e-005, 6.36807745e-005,
          2.99310818e-006, 6.00850626e-006, 1.70425901e-005,
          -1.83277116e-005, -1.84460896e-005, -2.23574739e-006,
          -1.31478146e-005, -1.52898156e-005, -3.18332422e-006,
          -1.29500486e-005, -1.41009659e-005, -3.02150170e-006,
          -1.43001871e-005, -1.41561059e-005, -5.21433685e-006,
          -1.95286684e-005, -1.91979780e-005, -1.34987786e-005,
          -2.64131741e-005, -2.56131625e-005, -2.16961689e-005,
          -2.62837166e-005, -2.74703034e-005, -2.42771403e-005,
          -2.56831991e-005, -2.33001047e-005, -1.65848851e-005,
          -2.06036675e-005, -1.89726288e-005, -8.77338243e-006,
          -1.78098871e-005, -1.87248388e-005, -4.82226415e-006,
          -2.39988367e-005, -2.57316642e-005, -1.05093513e-005,
          -2.25586919e-005, -2.30985843e-005, -6.52241988e-006,
          -1.66471564e-005, -1.92157349e-005, -5.29437784e-007,
          -2.25692729e-005, -2.43070826e-005, -9.76034607e-006,
          3.18582897e-005, 2.93858320e-005, 4.40221556e-005,
          7.01967874e-005, 6.78408105e-005, 8.02551949e-005,
          3.28064853e-005, 3.03216802e-005, 4.18235359e-005,
          1.81824835e-005, 1.68300012e-005, 2.57507309e-005,
          3.23605582e-006, 2.74572176e-006, 7.20198386e-006,
          -1.24037683e-007, 6.66463791e-007, -4.58829572e-006,
          4.49663958e-006, 7.46859996e-006, -4.70041186e-006,
          6.42300392e-007, 4.13378302e-006, -1.01162423e-005,
          -3.24262317e-007, 3.92607353e-006, -1.41104756e-005,
          -1.37816158e-007, 4.41328848e-006, -1.78204791e-005,
          -4.30966656e-006, 4.31984063e-007, -2.40237241e-005,
          -2.66700499e-006, 3.00473289e-007, -2.02773281e-005,
          4.34728736e-006, 5.98050519e-006, -1.28579186e-005,
          5.00983970e-006, 2.53404528e-006, -1.25721963e-005,
          5.28631108e-006, 1.21164646e-006, -1.15451148e-005,
          1.34168090e-007, -3.81182258e-006, -1.53654855e-005,
          -4.40959730e-006, -6.98519761e-006, -1.78048140e-005,
          -4.05642777e-006, -4.74145963e-006, -1.78130995e-005,
          -1.16912342e-005, -1.10046849e-005, -2.50401117e-005,
          -5.11803137e-006, -4.22804669e-006, -2.08968595e-005,
          -1.54303234e-005, -1.59911451e-005, -3.10549258e-005,
          -1.51957156e-005, -1.43857151e-005, -2.90001572e-005,
          -2.71698282e-005, -2.67848463e-005, -3.75279888e-005,
          -3.01419823e-005, -2.98044670e-005, -3.61795537e-005,
          -2.01039820e-005, -1.94541826e-005, -2.42772858e-005,
          -1.38621954e-005, -1.31261086e-005, -2.15160344e-005,
          -6.70421650e-006, -4.39992027e-006, -9.60083344e-006,
          1.01653200e-006, 6.66093092e-006, 7.93883373e-006,
          -3.42239133e-007, 7.00977444e-006, 1.22798383e-005,
          6.11224641e-006, 1.47799219e-005, 2.66472671e-005,
          -7.82525149e-006, -1.94499393e-007, 1.43413217e-005,
          -5.48617436e-006, -4.74004628e-006, 1.27588719e-005,
          -1.08409649e-005, -1.36319959e-005, -1.28943509e-006,
          -1.24163926e-005, -1.54567697e-005, -3.30760440e-006,
          -1.09906350e-005, -1.25301494e-005, -2.72899524e-006,
          -5.35194658e-006, -6.62254661e-006, 2.19353367e-007,
          -1.93103660e-005, -1.97943882e-005, -1.64552766e-005,
          -2.49115765e-005, -2.64536084e-005, -2.56464518e-005,
          -2.18682253e-005, -1.91692434e-005, -1.30340341e-005,
          -2.21466380e-005, -2.00199811e-005, -1.22629117e-005,
          -2.13697040e-005, -2.16238132e-005, -9.53088875e-006,
          -2.12381347e-005, -2.36412543e-005, -9.82974689e-006,
          -1.92074767e-005, -2.23116949e-005, -4.89024524e-006,
          -1.13041506e-005, -1.55498474e-005, 5.28439784e-007,
          3.08365743e-005, 2.89080399e-005, 4.38124880e-005,
          2.55532541e-005, 2.53117214e-005, 3.73306284e-005,
          3.95679272e-005, 3.79103549e-005, 4.83608455e-005,
          3.45191838e-005, 3.42495878e-005, 4.00145873e-005,
          1.42593717e-005, 1.45905960e-005, 2.05751621e-005,
          6.70124791e-007, 1.81655537e-006, 3.12238001e-007,
          -6.49449612e-006, -4.43635236e-006, -1.44814639e-005,
          -1.10936235e-005, -6.81630218e-006, -2.17077431e-005,
          -1.00960397e-005, -4.15347040e-006, -2.31831928e-005,
          -4.67068094e-006, 1.38611529e-006, -2.00638588e-005,
          3.39604776e-006, 7.63169919e-006, -1.48137296e-005,
          6.24372205e-006, 1.00775542e-005, -1.02776576e-005,
          1.02383347e-005, 1.36455183e-005, -2.42231090e-006,
          6.77626895e-006, 8.55840062e-006, -2.86255408e-006,
          2.05907577e-006, 1.24600888e-006, -5.71213150e-006,
          5.79950392e-006, 3.01084651e-006, -1.87804085e-006,
          -5.67116513e-006, -9.49532296e-006, -1.15352605e-005,
          -5.10075961e-006, -8.18153512e-006, -8.38499273e-006,
          -1.01745718e-005, -1.01376500e-005, -1.18218122e-005,
          -7.78790582e-006, -7.19812579e-006, -1.05313347e-005,
          -1.32081741e-005, -1.26849482e-005, -1.86305315e-005,
          -1.22438250e-005, -1.25741681e-005, -2.17353536e-005,
          -1.64708908e-005, -1.66734226e-005, -2.66362331e-005,
          -2.36083470e-005, -2.43051545e-005, -3.38077225e-005,
          -2.90706448e-005, -3.07155278e-005, -3.92173824e-005,
          -1.79433664e-005, -1.81964824e-005, -2.82850397e-005,
          -6.28872522e-006, -6.32830825e-006, -1.81767336e-005,
          -1.25550002e-006, -2.09802238e-007, -1.04901401e-005,
          1.60950947e-006, 5.42427733e-006, -6.76863408e-007,
          2.93610879e-006, 8.25922143e-006, 8.18631361e-006,
          -1.53232818e-007, 8.52531593e-006, 1.26326804e-005,
          1.49220059e-005, 2.25949916e-005, 3.50468363e-005,
          -2.46198342e-005, -2.10341859e-005, 2.24341557e-006,
          -2.11683127e-005, -2.33650080e-005, -1.70171620e-006,
          -4.96954954e-006, -6.73174964e-006, 3.81968675e-006,
          -2.91232732e-006, -5.40348083e-006, 3.35796926e-006,
          -9.10954270e-007, -1.81920370e-006, 4.12580903e-006,
          -5.77575383e-006, -7.93371510e-006, -5.01491650e-006,
          -1.28553356e-005, -1.41825485e-005, -1.35754544e-005,
          -2.35232928e-005, -2.13812255e-005, -1.62467240e-005,
          -2.48619563e-005, -2.30099959e-005, -1.54899553e-005,
          -2.47502030e-005, -2.62105659e-005, -1.55834623e-005,
          -2.18045425e-005, -2.79074957e-005, -1.39952153e-005,
          -1.93003289e-005, -2.62681460e-005, -7.58251963e-006,
          3.12542215e-005, 2.47160697e-005, 4.20926881e-005,
          2.78552034e-005, 2.54035513e-005, 4.16876428e-005,
          1.46441680e-005, 1.34059210e-005, 2.36044580e-005,
          2.58174950e-005, 2.64972787e-005, 3.46122870e-005,
          2.22924336e-005, 2.43735085e-005, 2.87576258e-005,
          4.04410684e-006, 5.96647396e-006, 6.92622598e-006,
          -1.04763831e-005, -8.97740938e-006, -1.30548342e-005,
          -1.87699952e-005, -1.47015535e-005, -2.57649244e-005,
          -1.18367825e-005, -8.01263741e-006, -2.46055170e-005,
          3.01541490e-006, 5.78157051e-006, -1.38612322e-005,
          8.14538089e-006, 1.14071972e-005, -7.80538994e-006,
          7.96896245e-007, 3.62123774e-006, -9.75126386e-006,
          -7.26155940e-006, -4.83071472e-006, -1.36977333e-005,
          -1.58385592e-005, -1.43512198e-005, -2.01614457e-005,
          -1.97621666e-005, -1.85631270e-005, -2.12181221e-005,
          -2.22775652e-005, -2.04475036e-005, -2.08781457e-005,
          -2.53815142e-005, -2.22796098e-005, -2.24618834e-005,
          -3.24902139e-005, -2.91054948e-005, -2.67450578e-005,
          -3.18294733e-005, -2.64107639e-005, -2.53866147e-005,
          -3.14801182e-005, -2.67288724e-005, -2.59620538e-005,
          -2.54715833e-005, -2.13730600e-005, -2.18869936e-005,
          -2.42834740e-005, -2.02913707e-005, -2.23376337e-005,
          -1.78238988e-005, -1.54514037e-005, -1.87167789e-005,
          -1.53768451e-005, -1.46675893e-005, -1.84191758e-005,
          -1.90688061e-005, -1.98147172e-005, -2.48851156e-005,
          -1.61121116e-005, -1.86308989e-005, -2.43773575e-005,
          -1.77205457e-005, -1.94457498e-005, -2.86133054e-005,
          -1.66464088e-005, -1.65503934e-005, -3.11134572e-005,
          -6.09150084e-006, -4.91176934e-006, -2.04319222e-005,
          -3.26585882e-006, -1.91974792e-007, -1.50437545e-005,
          -2.12049736e-006, 1.71185673e-006, -7.89627848e-006,
          -1.05733750e-006, 4.42970395e-006, 1.31584341e-006,
          -9.31745433e-007, 6.04113166e-006, 1.06872658e-005,
          -6.96393045e-006, -2.88837509e-006, 1.26531722e-005,
          -1.63488749e-005, -1.39353597e-005, 7.35680487e-006,
          -8.91551190e-006, -8.63254900e-006, 8.88608702e-006,
          -1.13318692e-005, -1.33131562e-005, -2.11975225e-006,
          3.46488673e-006, 1.51211395e-006, 5.64258789e-006,
          3.15704170e-007, -1.85840179e-006, 9.96539029e-007,
          -3.23156223e-006, -6.30182922e-006, -5.59446335e-006,
          -1.68760525e-005, -1.55178550e-005, -1.01272753e-005,
          -2.07991561e-005, -1.80099250e-005, -1.25411243e-005,
          -1.28145984e-005, -1.58877629e-005, -6.59836724e-006,
          -1.57256673e-005, -2.13416388e-005, -7.58752822e-006,
          2.43386276e-005, 1.46330103e-005, 2.94753281e-005,
          4.16371404e-005, 3.48184985e-005, 4.91650499e-005,
          6.57783266e-006, 2.55848408e-006, 1.44272262e-005,
          1.69391551e-005, 1.61133685e-005, 2.29238231e-005,
          1.41901519e-005, 1.74486468e-005, 2.19128378e-005,
          3.15256830e-006, 6.36198411e-006, 8.17987075e-006,
          -1.11066702e-005, -6.83003100e-006, -1.05976924e-005,
          -1.78441132e-005, -1.52047851e-005, -2.47053304e-005,
          -6.47714432e-006, -4.37376912e-006, -1.95530993e-005,
          7.18604315e-006, 8.06349817e-006, -8.53597612e-006,
          -1.25703832e-006, 1.24425901e-006, -1.57828854e-005,
          -5.02153534e-006, -2.73759542e-006, -1.72663640e-005,
          -1.91126619e-005, -1.76295362e-005, -2.35664102e-005,
          -2.64729151e-005, -2.40388854e-005, -2.64399623e-005,
          -3.02614280e-005, -2.72372781e-005, -2.66105399e-005,
          -3.28729802e-005, -3.00898810e-005, -2.74528265e-005,
          -3.35739060e-005, -2.83274476e-005, -2.61935111e-005,
          -3.31193260e-005, -2.71666067e-005, -2.41368180e-005,
          -3.61751518e-005, -3.07993832e-005, -2.53513699e-005,
          -3.62213068e-005, -3.05002595e-005, -2.57859647e-005,
          -3.35713812e-005, -2.74947288e-005, -2.28807203e-005,
          -3.23556451e-005, -2.55863324e-005, -2.31423601e-005,
          -3.08783601e-005, -2.39297242e-005, -2.43205122e-005,
          -2.56713847e-005, -2.13393978e-005, -2.25343556e-005,
          -1.77883703e-005, -1.43048228e-005, -1.37093675e-005,
          -1.43178349e-005, -1.26234372e-005, -1.29470482e-005,
          -1.60761774e-005, -1.72821110e-005, -1.63951518e-005,
          -1.51003542e-005, -1.56364204e-005, -2.27191558e-005,
          -1.69369087e-005, -1.60879245e-005, -2.77078798e-005,
          -1.19397891e-005, -1.10224119e-005, -2.69363500e-005,
          -7.37427399e-006, -5.10947802e-006, -2.30577152e-005,
          -3.96049609e-006, -3.04080913e-007, -1.67507933e-005,
          -4.34236108e-006, -9.47931369e-007, -1.01135392e-005,
          1.36102597e-006, 5.01167005e-006, 3.13454780e-006,
          7.37056598e-006, 1.16261572e-005, 1.71676220e-005,
          -9.08326456e-006, -4.79971231e-006, 8.98471717e-006,
          -3.02606077e-005, -2.66854058e-005, -9.01294970e-006,
          -5.77604806e-006, -5.31571277e-006, 8.12340386e-006,
          3.68427550e-006, 3.31416049e-006, 8.84003293e-006,
          3.30395505e-006, 7.71255998e-007, 3.49281072e-006,
          3.65480219e-006, 5.79391099e-007, 1.73034186e-006,
          -1.37062862e-005, -1.41326364e-005, -1.01251662e-005,
          -1.34302045e-005, -1.54196023e-005, -8.36270465e-006,
          -9.36017841e-006, -1.24896587e-005, -3.96001633e-006,
          -5.64714128e-006, -1.48610225e-005, -1.10062797e-006,
          4.22436387e-005, 3.31885894e-005, 4.68319813e-005,
          3.01411401e-005, 2.23966745e-005, 3.52378702e-005,
          1.89954262e-005, 1.55876569e-005, 2.58132332e-005,
          2.46274649e-005, 2.44900530e-005, 3.16698788e-005,
          9.99430540e-006, 1.57912091e-005, 2.03019590e-005,
          -1.12509324e-005, -4.44170246e-006, -6.16804437e-006,
          -1.32044843e-005, -7.18693263e-006, -1.49770722e-005,
          -1.89320292e-006, 2.45813862e-006, -1.36974568e-005,
          1.38352416e-005, 1.45700769e-005, -6.51621622e-006,
          1.02032491e-005, 1.00174557e-005, -9.90005537e-006,
          -7.04861350e-006, -7.26211147e-006, -2.31694667e-005,
          -1.89309339e-005, -1.76054837e-005, -2.79116484e-005,
          -2.39628553e-005, -2.07957728e-005, -2.21523424e-005,
          -3.11038893e-005, -2.59730314e-005, -2.31477279e-005,
          -2.79638880e-005, -2.42214664e-005, -2.04097141e-005,
          -2.58990749e-005, -2.10014823e-005, -1.82294407e-005,
          -2.05360302e-005, -1.57578361e-005, -1.28158090e-005,
          -2.00859813e-005, -1.50156620e-005, -1.04798901e-005,
          -2.17922679e-005, -1.79062445e-005, -9.46281580e-006,
          -2.51179208e-005, -2.14578758e-005, -1.13797523e-005,
          -2.47437547e-005, -1.95737630e-005, -9.61248861e-006,
          -2.72244706e-005, -2.00461418e-005, -1.31429597e-005,
          -2.35792559e-005, -1.46874154e-005, -1.20229561e-005,
          -2.23285442e-005, -1.55506732e-005, -1.41246619e-005,
          -2.40341451e-005, -1.71461961e-005, -1.69033337e-005,
          -1.77620441e-005, -1.34400734e-005, -1.31563465e-005,
          -1.35845430e-005, -1.17002965e-005, -1.42542167e-005,
          -1.05295585e-005, -8.61234730e-006, -1.23317350e-005,
          -1.39732747e-005, -1.36819408e-005, -2.09113241e-005,
          -1.73012068e-005, -1.73038825e-005, -3.07810005e-005,
          -1.52379216e-005, -1.38259666e-005, -3.23569293e-005,
          -1.13427359e-005, -9.83527934e-006, -2.87206640e-005,
          -7.99468580e-006, -6.75053343e-006, -2.14122429e-005,
          -1.39220992e-006, 7.36777167e-007, -9.01015937e-006,
          6.69096016e-006, 1.10109477e-005, 8.70798976e-006,
          1.41738865e-005, 1.96148449e-005, 2.61213154e-005,
          -3.25380606e-005, -2.68581516e-005, -1.25334236e-005,
          -1.51365848e-005, -1.09338262e-005, 6.13994871e-006,
          -1.05513773e-005, -1.02323938e-005, 2.38501775e-006,
          1.87536500e-006, 1.74413333e-006, 7.70953739e-006,
          9.60229272e-007, -9.57838438e-007, 1.28494128e-006,
          -1.07531387e-005, -1.23257951e-005, -8.42085683e-006,
          -1.32000914e-005, -1.43310644e-005, -8.24235212e-006,
          -8.82239510e-006, -1.39251160e-005, -2.15252066e-006,
          6.01948432e-006, -8.18960245e-007, 9.65720665e-006,
          3.46444722e-005, 2.76229985e-005, 3.92244110e-005,
          3.96734049e-006, -3.73395414e-006, 6.65779498e-006,
          1.87837431e-005, 1.48989338e-005, 2.19959711e-005,
          1.00552270e-005, 1.07646792e-005, 1.65513047e-005,
          1.21382726e-007, 5.54819371e-006, 7.69128474e-006,
          -1.33681942e-005, -5.11911048e-006, -1.14911263e-005,
          -1.13164754e-006, 6.02961882e-006, -9.80425648e-006,
          1.14542399e-005, 1.55958169e-005, -4.59735111e-006,
          1.16469646e-005, 1.36594554e-005, -9.39748679e-006,
          -5.19158721e-006, -6.64293975e-006, -2.83588597e-005,
          -1.64021912e-005, -1.77909042e-005, -3.19428909e-005,
          -2.21605187e-005, -2.06733803e-005, -2.78409661e-005,
          -2.70592936e-005, -2.20563779e-005, -2.19379508e-005,
          -2.70365344e-005, -2.18577970e-005, -1.85613499e-005,
          -1.95549001e-005, -1.41835753e-005, -1.15461162e-005,
          -1.24879762e-005, -6.36589493e-006, -5.18715933e-006,
          -9.68502809e-006, -6.16370562e-006, -3.37505980e-006,
          -7.52871847e-006, -4.85295959e-006, -3.01083162e-007,
          -1.01095302e-005, -7.35409094e-006, -7.23411858e-007,
          -1.26600316e-005, -9.07215872e-006, 6.03227193e-007,
          -1.26059622e-005, -6.32601541e-006, 1.46978175e-006,
          -1.31521092e-005, -6.00868407e-006, -5.90196237e-007,
          -1.32322639e-005, -4.35579204e-006, -2.05527772e-006,
          -1.78506798e-005, -9.64564879e-006, -9.15662531e-006,
          -2.09801783e-005, -1.27034073e-005, -1.27574813e-005,
          -1.63490549e-005, -1.03630864e-005, -1.05935760e-005,
          -1.34442407e-005, -9.17074613e-006, -1.26870746e-005,
          -1.18974804e-005, -8.05328364e-006, -1.24074541e-005,
          -8.04486808e-006, -4.75703291e-006, -9.84995950e-006,
          -1.49067182e-005, -1.27973854e-005, -2.16389726e-005,
          -1.61690550e-005, -1.45325130e-005, -3.02855460e-005,
          -1.91396830e-005, -1.81611595e-005, -3.87482360e-005,
          -5.85753833e-006, -5.63823551e-006, -2.46430318e-005,
          -1.76049537e-006, -1.38078542e-006, -1.47765741e-005,
          7.58363853e-007, 3.54064400e-006, -2.26002339e-006,
          1.32516680e-005, 1.87359929e-005, 1.79953149e-005,
          1.02530885e-005, 1.55090293e-005, 2.49681070e-005,
          -3.98853626e-005, -3.56087621e-005, -1.33435087e-005,
          -3.35701770e-005, -3.03994548e-005, -1.45748545e-005,
          -1.25450133e-005, -9.51377751e-006, -2.02267051e-006,
          9.96985182e-006, 1.21244320e-005, 1.43832685e-005,
          -1.29614773e-005, -1.47500959e-005, -1.12848156e-005,
          1.32631167e-005, 1.24361022e-005, 1.55756588e-005,
          1.15847815e-005, 8.47581214e-006, 1.92717853e-005,
          1.79480139e-005, 1.30462086e-005, 2.51144156e-005,
          1.76267458e-005, 1.11536465e-005, 1.93662454e-005,
          2.10971793e-005, 1.53537694e-005, 2.17505367e-005,
          9.62195463e-006, 8.43053931e-006, 1.32179712e-005,
          -1.06028403e-006, 1.32378977e-006, 2.75816205e-006,
          -1.06315201e-005, -3.84731356e-006, -8.13717088e-006,
          -9.58283545e-006, -1.47948583e-006, -1.29665032e-005,
          1.35147702e-005, 1.84470173e-005, -1.24087057e-006,
          7.19540367e-006, 8.83099983e-006, -1.28693882e-005,
          -5.70121347e-006, -4.22372068e-006, -2.73982423e-005,
          -1.60549716e-005, -1.52793618e-005, -3.23006097e-005,
          -2.22462841e-005, -2.07171906e-005, -2.91489505e-005,
          -3.36997073e-005, -2.87855364e-005, -3.24818466e-005,
          -4.15639406e-005, -3.58529978e-005, -3.67617831e-005,
          -3.61285274e-005, -2.99830408e-005, -3.09636816e-005,
          -2.60038814e-005, -2.16789413e-005, -2.25719541e-005,
          -1.72085474e-005, -1.48493355e-005, -1.55351700e-005,
          -1.17272502e-005, -1.08557942e-005, -1.02491776e-005,
          -6.74151579e-006, -5.60024409e-006, -4.24695509e-006,
          -6.19499997e-006, -6.97774249e-006, -2.47023377e-006,
          -7.03290698e-006, -5.35163508e-006, -2.21732009e-007,
          -3.79456469e-006, -1.00291356e-006, 2.44462467e-006,
          -6.65067489e-007, 5.86126680e-006, 5.67815914e-006,
          -1.07954502e-005, -6.73589341e-007, -3.78688810e-006,
          -1.81667419e-005, -7.82934967e-006, -1.21967805e-005,
          -1.68912211e-005, -7.34745845e-006, -8.71160319e-006,
          -1.56195256e-005, -9.36882952e-006, -9.71293957e-006,
          -1.83054271e-005, -1.36603549e-005, -1.28076363e-005,
          -8.50271408e-006, -5.01450859e-006, -5.32068407e-006,
          -5.96773998e-006, -1.14077920e-007, -3.67028451e-006,
          -1.19760471e-005, -6.60228852e-006, -1.33573003e-005,
          -1.31921315e-005, -1.01902451e-005, -2.08447636e-005,
          -1.14354543e-005, -1.06967982e-005, -2.64825921e-005,
          -6.19684261e-006, -6.42319719e-006, -2.57908050e-005,
          7.08059474e-007, 8.83088489e-007, -1.51133854e-005,
          -4.00344015e-006, -4.07389422e-007, -1.00865263e-005,
          8.54211521e-006, 1.07442120e-005, 1.09994826e-005,
          1.37089201e-005, 1.68245515e-005, 2.25409894e-005,
          -2.23468805e-006, 4.06631727e-007, 1.49975194e-005,
          -1.15839739e-005, -8.87344413e-006, 1.15787279e-005,
          -1.70837611e-005, -1.32843479e-005, 3.26199626e-007,
          1.47632991e-005, 1.91876406e-005, 2.09880945e-005,
          -2.02530864e-005, -2.07457451e-005, -1.74787820e-005,
          2.59272929e-005, 2.40672925e-005, 2.90584994e-005,
          2.08657329e-005, 1.93042597e-005, 3.35516779e-005,
          -3.59436035e-006, -6.16312263e-006, 5.77004357e-006,
          2.99951103e-006, -1.16966521e-006, 6.49754611e-006,
          1.18890657e-005, 8.07401557e-006, 1.40321345e-005,
          5.53694508e-006, 5.73696479e-006, 9.18861952e-006,
          -6.25828443e-006, -2.55545069e-006, -4.53017265e-006,
          -1.09482335e-005, -5.07490859e-006, -1.41305181e-005,
          3.14405338e-006, 9.38014909e-006, -5.83122119e-006,
          8.87733313e-006, 1.07875985e-005, -8.93847846e-006,
          -9.60524403e-007, -9.96881795e-007, -2.46214386e-005,
          -1.47886367e-005, -1.37725228e-005, -3.34564465e-005,
          -3.30316616e-005, -2.96060698e-005, -4.27614104e-005,
          -4.94778615e-005, -4.28250714e-005, -4.59199546e-005,
          -6.35019460e-005, -5.59715118e-005, -5.27157172e-005,
          -6.07033908e-005, -5.10105456e-005, -5.20484646e-005,
          -5.29904391e-005, -4.42943747e-005, -4.80154886e-005,
          -3.98439115e-005, -3.22981432e-005, -3.50599548e-005,
          -2.75776038e-005, -2.31684517e-005, -2.65866638e-005,
          -2.06248587e-005, -1.67164508e-005, -2.03208911e-005,
          -1.44853748e-005, -1.38604619e-005, -1.67579637e-005,
          -7.37017444e-006, -6.36059804e-006, -7.82812185e-006,
          1.19262415e-006, 2.80185986e-006, 1.11283794e-006,
          8.09142239e-006, 1.06367088e-005, 7.94577954e-006,
          -9.31278100e-006, -4.50632297e-006, -7.62899617e-006,
          -1.62826436e-005, -7.79606580e-006, -1.20634377e-005,
          -1.12736225e-005, -2.09626955e-006, -4.67761902e-006,
          -1.54235331e-005, -5.58715919e-006, -5.10898690e-006,
          -2.06493351e-005, -1.13124279e-005, -7.93969230e-006,
          -2.41266662e-005, -1.62123197e-005, -1.15084549e-005,
          -2.21817136e-005, -1.51612794e-005, -1.11685667e-005,
          -1.71793436e-005, -9.66111566e-006, -9.29848011e-006,
          -3.39728217e-006, 3.52862708e-006, 1.22537267e-006,
          -6.98595841e-006, -4.06444406e-006, -9.53347262e-006,
          -4.75575598e-006, -5.08527000e-006, -1.57428403e-005,
          -2.78303855e-006, -4.82697669e-006, -2.15933796e-005,
          -3.10647874e-006, -3.11985923e-006, -1.93196265e-005,
          1.17622199e-006, 4.13074395e-006, -4.66374104e-006,
          -9.69429948e-007, 1.39990811e-006, -2.51191409e-007,
          1.20660279e-005, 1.44376581e-005, 1.64373741e-005,
          2.65126419e-005, 2.94485253e-005, 4.03198756e-005,
          -1.01606802e-005, -4.37163999e-006, 1.69176092e-005,
          -3.39317990e-006, 3.13616806e-006, 1.74841098e-005,
          1.58775674e-005, 2.18542755e-005, 2.55877185e-005,
          1.08271825e-005, 1.00666148e-005, 1.27915464e-005,
          3.00387801e-005, 2.82705241e-005, 3.71960450e-005,
          -6.42202531e-006, -9.63331968e-006, 1.01065398e-005,
          -5.81947961e-006, -9.69702251e-006, 4.82483756e-006,
          1.20350123e-005, 1.05288800e-005, 1.89297443e-005,
          9.64807077e-006, 8.23200298e-006, 1.36526060e-005,
          -3.80694587e-006, -1.63064533e-006, 2.65683161e-006,
          -1.08965132e-005, -6.17708019e-006, -1.26704235e-005,
          -4.63274273e-006, 1.89417585e-006, -1.33513859e-005,
          9.14834982e-006, 1.44604492e-005, -5.02326384e-006,
          6.81623851e-006, 6.76668424e-006, -1.57236991e-005,
          5.65019945e-007, -3.82736090e-007, -2.10675025e-005,
          -1.54083064e-005, -1.69905397e-005, -3.00514694e-005,
          -3.47965688e-005, -2.97954539e-005, -3.60099948e-005,
          -3.73454786e-005, -2.58441069e-005, -1.97938243e-005,
          -4.01694633e-005, -2.47918979e-005, -1.65199672e-005,
          -4.55803420e-005, -3.28058268e-005, -2.89686959e-005,
          -4.98337286e-005, -3.76673961e-005, -3.74398514e-005,
          -5.49950382e-005, -4.16320436e-005, -4.63363867e-005,
          -5.57561616e-005, -4.49063555e-005, -5.19445384e-005,
          -3.87802356e-005, -3.02152457e-005, -3.99351557e-005,
          -1.90825558e-005, -1.47931269e-005, -2.56090279e-005,
          -6.04589650e-006, -5.17246417e-006, -1.39676276e-005,
          9.86108807e-006, 9.74623163e-006, 2.62531535e-006,
          -2.42457236e-006, -2.67733844e-006, -8.00842190e-006,
          -9.30783335e-006, -5.44315981e-006, -9.64532592e-006,
          5.70850534e-006, 1.29447671e-005, 1.24002854e-005,
          1.43045600e-005, 2.45671054e-005, 2.72512862e-005,
          1.26147925e-005, 2.70875826e-005, 3.32795717e-005,
          2.74916374e-006, 1.84241235e-005, 2.69201864e-005,
          -1.84403580e-005, -9.37772484e-007, 7.67283746e-006,
          -3.22488304e-005, -1.64027588e-005, -7.66998801e-006,
          -3.14451172e-005, -1.87829828e-005, -1.02419290e-005,
          -1.71516131e-005, -8.72761211e-006, -3.49457264e-006,
          4.79079745e-006, 6.06428102e-006, 5.36276320e-006,
          2.29335683e-006, -1.05710221e-007, -6.12998792e-006,
          4.27827308e-006, 1.20680363e-006, -8.15462954e-006,
          9.95102482e-007, -1.53641213e-006, -1.35706723e-005,
          -1.17296941e-006, 1.37969209e-006, -8.48131731e-006,
          -1.63039454e-006, 1.08235167e-006, -2.64775622e-006,
          6.01847159e-006, 9.34219588e-006, 9.67648612e-006,
          2.57689626e-005, 3.06440234e-005, 3.44324362e-005,
          3.35129807e-005, 3.96472169e-005, 4.75220986e-005,
          -3.65189908e-006, 3.34211245e-006, 1.90459887e-005,
          1.32511905e-005, 1.62875131e-005, 2.61211644e-005,
          1.77046331e-005, 1.74913803e-005, 1.80161333e-005,
          3.17511731e-005, 2.99418098e-005, 3.79662633e-005,
          3.28506139e-005, 3.13324817e-005, 4.75663146e-005,
          -1.55395082e-006, -2.52962855e-006, 1.14700615e-005,
          2.15976725e-005, 2.31537051e-005, 3.11433723e-005,
          1.28159545e-005, 1.65920592e-005, 1.93747073e-005,
          -4.42912142e-006, 1.67536314e-006, 1.06192454e-006,
          -1.03690454e-005, -5.20768981e-006, -1.39398944e-005,
          1.09045623e-005, 1.61636181e-005, -2.28438944e-006,
          1.91405088e-005, 1.97275767e-005, -1.92161110e-006,
          1.21454350e-005, 8.80850530e-006, -1.09260936e-005,
          -2.01350849e-006, -5.20177900e-006, -1.92805346e-005,
          -1.43889338e-005, -1.39554140e-005, -1.93385640e-005,
          -1.32117384e-005, -6.53107054e-006, -4.33961031e-006,
          -1.17464642e-005, 2.17021693e-006, 1.18235257e-005,
          1.73952628e-006, 1.75616551e-005, 2.68769763e-005,
          1.42618501e-005, 2.42489568e-005, 2.74292888e-005,
          -5.38368249e-006, 5.10937616e-006, 2.80359950e-006,
          -3.03745510e-005, -1.57438935e-005, -2.02548727e-005,
          -5.04950222e-005, -3.63961117e-005, -4.38620227e-005,
          -4.95309250e-005, -3.70489179e-005, -4.81174175e-005,
          -1.95764314e-005, -1.30943508e-005, -2.69164429e-005,
          5.07135792e-006, 6.22117386e-006, -1.00442776e-005,
          9.26360826e-006, 7.96833774e-006, -5.92659489e-006,
          -7.35892354e-006, -6.27346662e-006, -1.52352277e-005,
          9.43783289e-006, 1.29991604e-005, 9.92768128e-006,
          1.73830758e-005, 2.55477516e-005, 2.48568958e-005,
          2.23697189e-005, 3.29888426e-005, 3.66960776e-005,
          2.13168241e-005, 3.40675178e-005, 4.03285921e-005,
          1.35521248e-006, 1.63651821e-005, 2.38765006e-005,
          -3.53585415e-006, 1.48738700e-005, 1.99988408e-005,
          -2.26494230e-005, -4.13152475e-006, 1.07165556e-006,
          -2.83865229e-005, -1.34331967e-005, -6.17420164e-006,
          -2.59213284e-005, -1.56574406e-005, -9.50544927e-006,
          -2.00838099e-006, 4.97080634e-007, 2.89631657e-006,
          1.90230674e-006, -4.58389273e-008, -1.69178156e-006,
          5.59721457e-006, 1.75795947e-006, -3.07053028e-006,
          -2.51199913e-006, -4.31877424e-006, -1.30829922e-005,
          -4.26289262e-006, -2.95478731e-006, -1.25052502e-005,
          8.57642760e-007, 4.37343169e-006, -2.08470942e-006,
          5.88938474e-006, 1.05239760e-005, 7.79184393e-006,
          1.72983582e-005, 2.23551197e-005, 2.36514315e-005,
          2.56715448e-005, 3.00495285e-005, 3.73358671e-005,
          6.01395323e-006, 1.14668373e-005, 2.72470843e-005,
          4.56412664e-007, 5.50521827e-006, 2.05872875e-005,
          4.14830247e-005, 4.25232538e-005, 4.55205482e-005,
          8.72262244e-005, 8.81471133e-005, 9.58156816e-005,
          2.23242896e-005, 2.64127975e-005, 3.97816402e-005,
          1.04827332e-005, 1.47933961e-005, 2.77185518e-005,
          2.06123841e-005, 2.77043036e-005, 3.60704325e-005,
          6.11725591e-006, 1.45117301e-005, 1.58181720e-005,
          -8.28445718e-006, 2.74512263e-006, -1.58856358e-006,
          -5.47915488e-006, 3.22431379e-006, -9.87001295e-006,
          2.30320857e-005, 2.53016715e-005, 6.50153243e-006,
          1.51910263e-005, 1.17050658e-005, -8.08064397e-006,
          1.90273695e-005, 1.13885917e-005, -3.50551682e-006,
          5.89314686e-006, 1.89118327e-006, -2.06646655e-006,
          -3.81554264e-006, 4.04338323e-007, 6.55841950e-006,
          -1.74412598e-005, -7.35307322e-006, 4.15407430e-006,
          7.74345608e-006, 1.91025629e-005, 2.88674619e-005,
          1.81104951e-005, 2.73983915e-005, 3.21879561e-005,
          4.13399393e-005, 4.23989331e-005, 3.97640542e-005,
          3.20599684e-005, 3.30238763e-005, 2.75743296e-005,
          -3.35670563e-007, 9.36335528e-006, 6.30164413e-006,
          -3.42139028e-005, -2.07385547e-005, -2.47729877e-005,
          -5.25360338e-005, -3.84378254e-005, -4.63656688e-005,
          -2.94253878e-005, -2.10811504e-005, -3.44788132e-005,
          1.25677052e-005, 9.70381006e-006, -8.25582811e-006,
          1.24305243e-005, 7.87168119e-006, -1.05727340e-005,
          5.74383330e-006, 5.50527329e-006, -2.86612749e-006,
          6.53398820e-006, 1.11717000e-005, 9.17418947e-006,
          1.67668204e-005, 2.78567804e-005, 2.48114029e-005,
          7.47351487e-006, 2.10362523e-005, 1.81936684e-005,
          4.81607140e-006, 1.55582638e-005, 1.34901893e-005,
          -6.19819639e-006, 3.73764351e-006, 4.92608933e-007,
          -3.04495143e-006, 9.34380205e-006, 3.09027359e-006,
          -1.09600123e-005, 2.60702200e-006, -2.38692996e-006,
          -4.02104015e-005, -2.43820123e-005, -2.46003838e-005,
          -3.16376754e-005, -1.87829664e-005, -1.65362635e-005,
          -1.80720581e-005, -1.10830451e-005, -1.26225277e-005,
          -1.22897660e-007, 6.67839117e-007, -1.37704694e-006,
          3.65154801e-006, -9.17967441e-007, -2.12378109e-006,
          -6.19945195e-006, -8.52756239e-006, -1.47369074e-005,
          -8.94320146e-006, -6.74440025e-006, -1.57443264e-005,
          -2.25491272e-006, 2.27208488e-006, -6.05133027e-006,
          4.77002959e-006, 1.00035022e-005, 4.26234374e-006,
          7.51391963e-006, 1.13677979e-005, 1.32454497e-005,
          5.71950250e-006, 9.55420910e-006, 2.33143783e-005,
          -7.80705614e-006, -3.93449091e-006, 1.98858306e-005,
          -1.40981660e-006, 4.68647204e-006, 2.81289958e-005,
          6.31950243e-005, 6.33173768e-005, 7.41096592e-005,
          7.60171970e-005, 7.86133605e-005, 8.93408651e-005,
          2.13899275e-005, 2.66871157e-005, 4.44212528e-005,
          1.47656338e-005, 2.36832766e-005, 3.66590393e-005,
          1.65990332e-005, 2.51450074e-005, 3.39521212e-005,
          1.04887522e-006, 1.05717891e-005, 1.30085618e-005,
          -9.49517016e-006, 3.44516593e-006, -4.12303507e-006,
          3.77330093e-006, 1.28294005e-005, -1.25059228e-006,
          2.57816646e-005, 2.57265856e-005, 8.16978627e-006,
          2.18740333e-005, 1.65697184e-005, -6.74442902e-007,
          2.40872996e-005, 1.65437323e-005, 6.78834840e-006,
          8.60057241e-007, -1.98530211e-006, -1.35591370e-006,
          -2.30324804e-005, -1.69509494e-005, -3.31666138e-006,
          -3.00396059e-005, -1.89417224e-005, -3.51800486e-006,
          -1.24423777e-005, -6.34438891e-007, 8.85282498e-006,
          1.05493555e-005, 1.73131812e-005, 1.86738962e-005,
          4.06154686e-005, 3.65299966e-005, 3.00058018e-005,
          5.38325439e-005, 5.04120253e-005, 4.30565997e-005,
          2.92424265e-005, 3.39108847e-005, 3.17508966e-005,
          -1.90861556e-005, -9.41650433e-006, -1.01564756e-005,
          -5.12712650e-005, -3.97618205e-005, -4.48031060e-005,
          -4.22158337e-005, -3.42876629e-005, -4.52782551e-005,
          2.21560895e-005, 1.95513112e-005, -2.36923688e-006,
          1.83457050e-005, 1.27216927e-005, -7.42909879e-006,
          -4.98016163e-007, -1.40615134e-006, -9.63428465e-006,
          2.11500674e-006, 7.21786819e-006, 3.45532362e-006,
          -1.58512080e-006, 1.08942140e-005, 4.28639305e-006,
          -8.92832031e-006, 4.75687648e-006, -3.91810818e-006,
          -1.87407659e-005, -1.01818177e-005, -2.01861276e-005,
          -1.28107458e-005, -7.69632061e-006, -1.80797251e-005,
          -4.29400052e-006, 5.69851363e-006, -7.54772509e-006,
          -7.91340972e-006, 1.81558073e-006, -8.94568893e-006,
          -3.44638029e-005, -2.11250372e-005, -2.38920256e-005,
          -3.33432909e-005, -2.05054621e-005, -2.06743734e-005,
          -2.90573043e-005, -2.12953710e-005, -2.24035502e-005,
          -2.92310165e-006, 1.19084120e-006, -5.02895261e-007,
          6.61291870e-006, 2.90759863e-006, -8.09278049e-007,
          -1.16834428e-006, -4.04190405e-006, -1.10025221e-005,
          -1.60455074e-005, -1.33865979e-005, -2.41626567e-005,
          -9.52202208e-006, -5.17855869e-006, -1.72312084e-005,
          2.20366564e-006, 6.68578741e-006, 1.32644868e-006,
          6.50891889e-006, 1.11870741e-005, 1.05947083e-005,
          1.49054058e-005, 1.64368557e-005, 2.89511245e-005,
          2.92406748e-005, 3.28265996e-005, 5.23436865e-005,
          -1.68314400e-005, -1.18514463e-005, 1.08720715e-005,
          2.67373689e-005, 2.82464607e-005, 4.83940166e-005,
          -1.23526570e-005, -8.55176859e-006, 1.19332726e-005,
          1.26469722e-005, 1.98260059e-005, 4.13168054e-005,
          1.56662863e-005, 2.36252872e-005, 4.06646359e-005,
          1.26798132e-005, 2.19425056e-005, 3.16330916e-005,
          -2.70096649e-007, 9.02976717e-006, 1.34813627e-005,
          -3.64234302e-006, 9.77219588e-006, 1.91056893e-006,
          1.33669482e-005, 2.23458865e-005, 1.00996067e-005,
          2.45270203e-005, 2.44861149e-005, 8.44593706e-006,
          2.08431156e-005, 1.67114376e-005, 1.94072595e-006,
          2.25563344e-005, 1.81370506e-005, 1.16311221e-005,
          -3.15794728e-006, -4.55989948e-006, -1.30908313e-006,
          -3.21602965e-005, -2.43183822e-005, -1.20557024e-005,
          -4.23047604e-005, -2.87099101e-005, -1.63430705e-005,
          -2.32219882e-005, -8.00464113e-006, -3.02472358e-006,
          2.92203595e-006, 1.20760797e-005, 9.73133592e-006,
          2.55734467e-005, 2.44419425e-005, 1.90377468e-005,
          3.75447671e-005, 3.39150065e-005, 2.74397080e-005,
          4.10822540e-005, 4.13797279e-005, 4.06601757e-005,
          -6.99374652e-007, 4.99194948e-006, 5.20001504e-006,
          -4.30923064e-005, -3.45711196e-005, -3.58662037e-005,
          -4.73436776e-005, -3.93725350e-005, -5.08800222e-005,
          1.35434948e-005, 1.31102706e-005, -9.84412691e-006,
          1.09035673e-005, 7.29673911e-006, -1.47060964e-005,
          -1.02268959e-005, -8.01365150e-006, -1.95060420e-005,
          -1.29711907e-005, -6.90208708e-006, -1.28809124e-005,
          -1.36362714e-005, -3.47814171e-006, -1.21332787e-005,
          -6.85649820e-006, 2.22053791e-006, -8.44293027e-006,
          -1.21716139e-005, -8.63855257e-006, -2.10075777e-005,
          -2.11535053e-006, 1.74063743e-007, -1.53487435e-005,
          1.45272111e-006, 4.58463364e-006, -8.88727209e-006,
          -3.94910558e-006, 1.85211968e-006, -9.70727342e-006,
          -3.20124091e-005, -2.29077395e-005, -2.36521828e-005,
          -3.34389770e-005, -2.29994821e-005, -2.08700003e-005,
          -3.24887187e-005, -2.55039868e-005, -2.46586551e-005,
          -4.18371928e-006, -1.65359154e-007, 1.44634740e-007,
          5.89804085e-006, 3.17646709e-006, 2.90000202e-007,
          3.57758353e-007, -2.57055876e-006, -9.69792927e-006,
          -1.64135054e-005, -1.45504100e-005, -2.68786644e-005,
          -1.73603894e-005, -1.32451323e-005, -2.66256066e-005,
          -1.49241134e-006, 2.03668219e-006, -4.89473314e-006,
          8.09978701e-006, 1.19088700e-005, 1.02570284e-005,
          2.95946611e-005, 2.91570832e-005, 4.09856402e-005,
          3.63130821e-005, 3.66615859e-005, 5.72105273e-005,
          1.46542825e-005, 1.76294052e-005, 3.88778026e-005,
          1.50716924e-005, 1.79688086e-005, 4.29565516e-005,
          2.61600198e-005, 3.15756697e-005, 5.73184516e-005,
          1.13777514e-005, 1.87575697e-005, 4.08628002e-005,
          1.80947718e-005, 2.59533208e-005, 4.36689625e-005,
          1.06369762e-005, 1.94373879e-005, 2.96333819e-005,
          -1.13423057e-005, -1.20011327e-006, 1.50897097e-006,
          -6.54628866e-006, 4.70585519e-006, -3.63136064e-006,
          2.10017079e-005, 3.00479933e-005, 1.64017256e-005,
          2.04018215e-005, 2.05102770e-005, 6.44315151e-006,
          1.40198254e-005, 1.12140360e-005, 1.54492653e-007,
          1.68109018e-005, 1.55760990e-005, 1.29930295e-005,
          9.86325722e-006, 1.08352742e-005, 1.39247359e-005,
          -1.14485356e-005, -3.16229284e-006, 7.02077250e-006,
          -1.89056791e-005, -6.00962221e-006, 2.88577235e-006,
          -8.26486848e-006, 5.93291998e-006, 5.65160281e-006,
          1.77629602e-006, 1.09433067e-005, 5.43730221e-006,
          1.73431745e-005, 1.81206033e-005, 1.06394582e-005,
          3.66661989e-005, 3.39219805e-005, 2.90848675e-005,
          3.66318527e-005, 3.82647704e-005, 3.79304329e-005,
          2.42856140e-006, 9.08508628e-006, 9.67714186e-006,
          -4.64475233e-005, -3.60965896e-005, -3.62329520e-005,
          -4.91731007e-005, -4.03525701e-005, -4.77457652e-005,
          1.10685778e-005, 1.13168944e-005, -1.07685746e-005,
          3.83303768e-006, 1.79921369e-006, -2.01225175e-005,
          -1.85384852e-005, -1.47701912e-005, -2.68978838e-005,
          -2.31530412e-005, -1.64925586e-005, -2.36564301e-005,
          -1.83512584e-005, -9.98012001e-006, -1.94023451e-005,
          5.16250566e-006, 1.12094431e-005, -7.80956213e-007,
          1.72507373e-006, 2.73762544e-006, -1.20810182e-005,
          6.93709899e-006, 6.99301290e-006, -7.95370397e-006,
          1.36500130e-005, 1.33961785e-005, -1.52899077e-006,
          4.87805619e-006, 5.13014174e-006, -2.77496815e-006,
          -2.65056206e-005, -2.08283673e-005, -1.97137160e-005,
          -3.03345987e-005, -2.18122241e-005, -1.87429268e-005,
          -2.83689751e-005, -2.04305088e-005, -1.88521735e-005,
          -4.91488663e-006, -1.07098138e-007, 7.73140982e-007,
          4.05772880e-006, 3.52216421e-006, -9.94020183e-007,
          -1.69337955e-006, -2.58076216e-006, -9.67065534e-006,
          -1.32316572e-005, -1.23869286e-005, -2.38635803e-005,
          -1.86913949e-005, -1.52325256e-005, -2.84181606e-005,
          -1.22000301e-005, -7.00911778e-006, -1.60946693e-005,
          3.76091180e-006, 5.74055366e-006, 4.81112329e-006,
          2.25276090e-005, 2.12480609e-005, 3.29645518e-005,
          2.42560836e-005, 2.43901522e-005, 4.55620029e-005,
          1.02923714e-005, 1.20689820e-005, 3.52480529e-005,
          2.57238607e-005, 3.24959074e-005, 5.98190454e-005,
          1.77573238e-005, 2.58198070e-005, 5.11915605e-005,
          8.51204277e-006, 1.65161073e-005, 3.75853670e-005,
          1.54173813e-005, 2.49051391e-005, 4.06331164e-005,
          5.42560247e-006, 1.48573708e-005, 2.31209560e-005,
          -1.61390308e-005, -5.48241724e-006, -5.21860920e-006,
          1.78834443e-006, 1.15061212e-005, 2.44905641e-006,
          1.93357791e-005, 2.66728021e-005, 1.53967012e-005,
          1.39728281e-005, 1.51574077e-005, 2.60329784e-006,
          5.79596508e-006, 4.36779374e-006, -3.40999372e-006,
          -2.08564279e-006, -3.49282459e-007, -2.86043559e-007,
          -3.23504878e-006, -5.72962455e-010, 5.51261110e-006,
          -1.28096940e-006, 3.54673875e-006, 1.37327816e-005,
          2.46908849e-006, 1.08073600e-005, 1.62472861e-005,
          1.00953757e-005, 2.02021147e-005, 1.50694050e-005,
          1.31443794e-005, 1.89038183e-005, 1.02687845e-005,
          3.36848607e-005, 3.29121649e-005, 2.34365270e-005,
          5.04991185e-005, 4.88481091e-005, 4.31745284e-005,
          1.94301974e-005, 2.51938254e-005, 2.48571196e-005,
          -1.71145148e-005, -5.18082379e-006, -1.97116970e-006,
          -5.22096525e-005, -3.73757430e-005, -3.50144110e-005,
          -5.15627617e-005, -4.03102931e-005, -4.57694587e-005,
          6.92759977e-006, 6.96555026e-006, -1.03524690e-005,
          -3.00529746e-006, -5.44363456e-006, -2.39638375e-005,
          -2.79124270e-005, -2.19192279e-005, -3.28059541e-005,
          -2.83996997e-005, -2.08631391e-005, -2.61840833e-005,
          -1.73123008e-005, -6.98691247e-006, -1.72390173e-005,
          1.34180937e-005, 2.02180745e-005, 7.81972631e-006,
          1.01205333e-005, 9.32855983e-006, -5.02850662e-006,
          1.47057872e-005, 1.05569425e-005, -3.33538492e-006,
          2.07062876e-005, 1.56510305e-005, 2.78109655e-006,
          9.92055539e-006, 5.89872616e-006, -1.38100734e-006,
          -2.05128727e-005, -1.91847394e-005, -1.62318083e-005,
          -2.50585254e-005, -1.96104866e-005, -1.38807591e-005,
          -2.39425826e-005, -1.58616640e-005, -1.34788115e-005,
          -7.08972630e-006, 1.75938112e-007, 4.23132747e-007,
          1.96607289e-006, 3.52482994e-006, -5.21530467e-007,
          -6.99260852e-007, -2.06645538e-007, -8.99558472e-006,
          -8.47989213e-006, -6.61211106e-006, -1.68167662e-005,
          -2.09203208e-005, -1.90887095e-005, -3.01538948e-005,
          -1.92309399e-005, -1.52737412e-005, -2.06735804e-005,
          -8.68395000e-006, -8.61447188e-006, -7.36811489e-006,
          1.30332619e-005, 9.28537884e-006, 2.08087422e-005,
          1.52317070e-005, 1.27221483e-005, 3.45785811e-005,
          -2.29036641e-006, -2.00017621e-006, 2.27222990e-005,
          2.08669953e-005, 2.82749443e-005, 5.63568537e-005,
          -7.28025270e-006, 3.21370379e-007, 2.57247175e-005,
          -9.56655526e-007, 6.03147100e-006, 2.77097715e-005,
          1.21337935e-005, 2.06211134e-005, 3.58592333e-005,
          -8.86995110e-007, 8.59457487e-006, 1.63862424e-005,
          -1.65910351e-005, -6.86420253e-006, -7.11355642e-006,
          -3.93301264e-007, 9.73437636e-006, -1.14737372e-006,
          2.20454422e-005, 2.89690597e-005, 1.61388398e-005,
          1.08264931e-005, 1.16171368e-005, 9.92398554e-007,
          5.28896408e-006, 4.34384538e-006, -2.09511791e-006,
          -2.32412185e-006, 6.64158904e-007, 2.55623604e-006,
          -4.13864245e-006, 1.33672279e-006, 6.42484292e-006,
          3.96266309e-008, 3.92937727e-006, 1.20487466e-005,
          1.85988429e-005, 2.19077447e-005, 2.37957556e-005,
          3.30979747e-005, 3.66477834e-005, 2.72404559e-005,
          6.19050625e-005, 6.31585499e-005, 4.90647872e-005,
          8.26569012e-005, 8.08426048e-005, 6.71906746e-005,
          6.04092638e-005, 6.17099140e-005, 5.21960428e-005,
          1.13972483e-005, 2.19542453e-005, 2.09518039e-005,
          -2.77503914e-005, -1.07602564e-005, -7.68769041e-006,
          -5.16739965e-005, -3.54731965e-005, -3.19912760e-005,
          -2.56296134e-005, -1.47057381e-005, -1.61689004e-005,
          4.45360638e-006, 5.24785628e-006, -7.41124040e-006,
          -5.44980730e-006, -5.82022903e-006, -2.06018758e-005,
          -2.47330972e-005, -1.89440525e-005, -2.60451106e-005,
          -3.09556817e-005, -2.22867475e-005, -2.58906439e-005,
          -9.59892623e-006, -2.84531950e-007, -8.78893479e-006,
          2.33593255e-005, 3.04648911e-005, 1.85652862e-005,
          1.90938572e-005, 1.63475615e-005, 4.23045640e-006,
          2.17024262e-005, 1.47514957e-005, 3.26194572e-006,
          2.02200317e-005, 1.46016037e-005, 3.26498684e-006,
          1.34600514e-005, 7.77787227e-006, 3.48545313e-006,
          -1.86196612e-005, -1.83876527e-005, -1.62820088e-005,
          -2.48386714e-005, -2.08638958e-005, -1.51893437e-005,
          -2.17778252e-005, -1.38159066e-005, -1.13208152e-005,
          -4.04891716e-006, 4.01206944e-006, 4.81033157e-006,
          5.61320576e-006, 8.85433565e-006, 4.09967106e-006,
          2.01974171e-006, 2.37437666e-006, -1.87848013e-006,
          -1.35186883e-005, -1.00500047e-005, -1.55442740e-005,
          -2.49933801e-005, -2.26983593e-005, -2.93346639e-005,
          -2.51414313e-005, -2.34980671e-005, -2.51384208e-005,
          -1.90107476e-005, -1.67305807e-005, -1.49502566e-005,
          -1.50801643e-005, -1.87751139e-005, -6.34656863e-006,
          8.88800230e-007, -1.99763508e-006, 2.14925749e-005,
          -9.38814082e-006, -5.56059922e-006, 1.86276829e-005,
          1.52914326e-005, 1.78493956e-005, 4.82716059e-005,
          1.48350473e-005, 2.26406646e-005, 4.69095830e-005,
          4.14338047e-006, 1.36046510e-005, 3.42738567e-005,
          6.65991183e-006, 1.56832793e-005, 3.05957401e-005,
          -1.18494418e-005, -2.95574046e-006, 3.77375000e-006,
          -2.15703894e-005, -1.22838792e-005, -1.35223490e-005,
          -3.76488561e-006, 5.29577301e-006, -4.12787404e-006,
          2.01957209e-005, 2.64926093e-005, 1.73524622e-005,
          1.10368792e-005, 1.42110857e-005, 4.17737874e-006,
          -3.52373803e-007, 7.52177471e-007, -3.70091084e-006,
          -4.23841402e-006, 4.00422024e-008, 8.46426360e-007,
          -5.40692668e-007, 3.49220636e-006, 7.24226265e-006,
          8.89830517e-006, 1.08954309e-005, 1.36507851e-005,
          3.13691016e-005, 2.99193034e-005, 2.72244106e-005,
          5.61644665e-005, 5.16127511e-005, 3.90315654e-005,
          8.86107518e-005, 8.36700128e-005, 6.53296374e-005,
          8.78802166e-005, 8.42326917e-005, 6.90530287e-005,
          3.90509740e-005, 4.15860959e-005, 2.99864041e-005,
          -7.16777458e-006, 7.52715505e-006, 3.34300034e-006,
          -1.57430932e-005, 4.14975466e-006, 4.56335829e-006,
          -8.24406106e-006, 5.58552529e-006, 8.37805692e-006,
          5.75755757e-006, 1.46860275e-005, 1.65357596e-005,
          9.06483729e-006, 1.20064415e-005, 3.54770395e-006,
          -1.06909931e-006, -2.63947953e-007, -1.00573425e-005,
          -2.88768897e-005, -2.38116445e-005, -2.51415786e-005,
          -3.50715891e-005, -2.69644133e-005, -2.83922618e-005,
          -3.98904649e-006, 5.29573435e-006, -6.64287398e-008,
          2.91999859e-005, 3.60998456e-005, 2.63785514e-005,
          2.52906739e-005, 2.24006035e-005, 1.26653031e-005,
          2.09499394e-005, 1.53509973e-005, 5.55439783e-006,
          1.78394275e-005, 1.10394576e-005, 2.72904072e-006,
          1.25505612e-005, 8.32198475e-006, 2.75290358e-006,
          -1.67116686e-005, -1.71377305e-005, -1.65015972e-005,
          -2.14735101e-005, -1.63330951e-005, -1.60187392e-005,
          -1.74947236e-005, -7.66959511e-006, -9.19750528e-006,
          2.59565127e-006, 1.12297621e-005, 9.71353256e-006,
          1.07312253e-005, 1.31249044e-005, 1.04963065e-005,
          6.00923386e-006, 5.52375013e-006, 4.80234166e-006,
          -9.47996250e-006, -7.90863942e-006, -8.96867004e-006,
          -2.58951186e-005, -2.36357864e-005, -2.44547045e-005,
          -2.51621168e-005, -2.18925052e-005, -2.14156153e-005,
          -1.73862118e-005, -1.48490108e-005, -1.11714298e-005,
          -9.88581087e-006, -1.28920010e-005, -8.88734746e-007,
          -3.56942110e-006, -3.74236993e-006, 1.74084962e-005,
          -3.66574823e-005, -3.10873329e-005, -4.43927320e-006,
          1.59961801e-005, 1.63423974e-005, 4.57703791e-005,
          5.27888233e-006, 1.31587676e-005, 3.82483158e-005,
          4.51116148e-006, 1.45292252e-005, 3.43705069e-005,
          5.11774806e-006, 1.46014563e-005, 2.86977738e-005,
          -9.31912928e-006, 7.84109204e-007, 5.03296542e-006,
          -2.03243817e-005, -1.16100573e-005, -1.31538864e-005,
          -6.70093095e-006, 1.81293603e-006, -5.28576220e-006,
          1.73088411e-005, 2.53519174e-005, 1.64006542e-005,
          5.83403289e-006, 1.03103057e-005, 1.87296973e-006,
          -6.16622083e-006, -2.14642318e-006, -8.65691163e-006,
          -7.73581996e-006, -2.32915752e-007, -7.96886638e-007,
          1.00326372e-006, 6.35021433e-006, 6.36202458e-006,
          1.08057620e-005, 1.10751935e-005, 1.00350999e-005,
          2.75548373e-005, 2.50271351e-005, 1.72030486e-005,
          4.11990186e-005, 3.54993717e-005, 1.70731964e-005,
          4.49942381e-005, 3.86031097e-005, 1.69888226e-005,
          -3.06315633e-006, -5.30092120e-006, -2.44972271e-005,
          -3.11896038e-005, -2.76186456e-005, -4.00301324e-005,
          -1.06979414e-005, 3.47756418e-006, -3.37994879e-006,
          4.68041835e-005, 6.36133118e-005, 6.36614350e-005,
          6.18406411e-005, 7.25339632e-005, 7.69572507e-005,
          4.39033538e-005, 4.95098648e-005, 5.16664477e-005,
          2.51437505e-005, 2.59906083e-005, 2.21314949e-005,
          4.46088279e-006, 4.53611028e-006, -1.10155599e-006,
          -2.72901689e-005, -2.25080439e-005, -2.28435492e-005,
          -3.13682285e-005, -2.45259180e-005, -2.36495016e-005,
          -2.37813978e-007, 7.95520464e-006, 4.17101046e-006,
          3.28566603e-005, 4.04032471e-005, 3.10275427e-005,
          3.08868439e-005, 2.97377319e-005, 2.01976309e-005,
          2.29509114e-005, 1.86509278e-005, 9.62484955e-006,
          1.63400582e-005, 1.25647175e-005, 2.81349139e-006,
          4.98365716e-006, 3.86939337e-006, -4.05680566e-006,
          -1.84881519e-005, -1.68277620e-005, -1.88748545e-005,
          -1.99609058e-005, -1.34743432e-005, -1.46392385e-005,
          -1.36913714e-005, -4.60777210e-006, -5.52442452e-006,
          2.96271014e-006, 1.19060551e-005, 1.10037263e-005,
          1.08505146e-005, 1.24005019e-005, 1.04197106e-005,
          4.88413525e-006, 4.17097317e-006, 5.16445380e-006,
          -1.39451540e-005, -1.12872076e-005, -7.87504632e-006,
          -2.96998060e-005, -2.62664980e-005, -2.33961800e-005,
          -2.44493349e-005, -2.19105059e-005, -1.68159004e-005,
          -2.16600019e-005, -2.05760534e-005, -1.46870334e-005,
          -2.92729728e-005, -3.32267009e-005, -1.95675530e-005,
          -1.57457125e-005, -1.71827633e-005, 5.18974321e-006,
          -3.16685619e-005, -2.55260638e-005, 9.19874026e-007,
          3.29474242e-005, 3.41440937e-005, 6.28629350e-005,
          1.29278833e-005, 1.99582191e-005, 4.53717221e-005,
          8.27614258e-006, 1.82093754e-005, 3.78814439e-005,
          9.65240361e-006, 2.04148346e-005, 3.31809606e-005,
          -3.72774480e-006, 6.96500047e-006, 9.36817378e-006,
          -1.81182895e-005, -8.14797113e-006, -9.17357647e-006,
          -9.13425174e-006, 1.84597752e-006, -5.64226593e-006,
          1.11771033e-005, 2.00729446e-005, 1.18687249e-005,
          5.27530665e-006, 1.18197131e-005, 2.35264247e-006,
          -1.11024656e-005, -4.17329193e-006, -1.31046554e-005,
          -9.62589093e-006, -3.56197847e-006, -7.64376637e-006,
          -2.36445567e-006, 3.52352504e-006, -1.11815461e-006,
          -1.45264082e-007, 9.26656412e-007, -5.55505540e-006,
          4.74266017e-006, 3.10633459e-006, -1.11673226e-005,
          -1.70302555e-005, -2.06451405e-005, -4.17612137e-005,
          -6.54320102e-005, -6.80732701e-005, -9.30182068e-005,
          -1.07358064e-004, -1.08599299e-004, -1.28953776e-004,
          -8.13812803e-005, -7.79664915e-005, -9.10813760e-005,
          -2.12682198e-006, 7.73297234e-006, -8.68514064e-007,
          9.18194419e-005, 1.02350466e-004, 1.00688128e-004,
          1.06178129e-004, 1.12433241e-004, 1.15097166e-004,
          7.71446794e-005, 7.74912041e-005, 8.06594689e-005,
          4.68918442e-005, 4.52716740e-005, 4.03683371e-005,
          9.06896821e-006, 5.75295644e-006, 1.24435269e-006,
          -2.39572510e-005, -2.29970246e-005, -2.29150064e-005,
          -2.94558486e-005, -2.48441047e-005, -2.47091975e-005,
          1.62825802e-006, 9.51312086e-006, 5.39440225e-006,
          3.75189775e-005, 4.50814077e-005, 3.63782201e-005,
          3.29304712e-005, 3.36936318e-005, 2.43014983e-005,
          1.84708206e-005, 1.72074906e-005, 6.82049176e-006,
          1.23897689e-005, 1.08657823e-005, 3.17152171e-007,
          8.30164481e-006, 7.58817123e-006, -2.88565752e-006,
          -1.66750579e-005, -1.35795617e-005, -1.68820188e-005,
          -2.14150386e-005, -1.29145228e-005, -1.45757194e-005,
          -1.41073524e-005, -4.11627889e-006, -6.37289259e-006,
          6.92748063e-006, 1.40266347e-005, 1.34910697e-005,
          1.40857646e-005, 1.50142077e-005, 1.30604130e-005,
          1.30616456e-006, -6.30018349e-008, 2.37691006e-006,
          -1.66819627e-005, -1.49838470e-005, -9.23043535e-006,
          -2.97474289e-005, -2.66324078e-005, -2.27673590e-005,
          -2.36059786e-005, -2.26010998e-005, -1.65149268e-005,
          -1.06639336e-005, -1.05394374e-005, -2.98982673e-006,
          7.47605736e-006, 1.19689093e-006, 1.54202662e-005,
          1.60871386e-005, 1.15193752e-005, 3.58188263e-005,
          -2.01376843e-005, -1.66115897e-005, 1.16923966e-005,
          2.98357863e-005, 3.03341913e-005, 5.98516090e-005,
          2.32471502e-005, 3.10169744e-005, 5.57282110e-005,
          1.30859835e-005, 2.19309986e-005, 4.29897664e-005,
          1.41477749e-005, 2.53434755e-005, 4.01029647e-005,
          -2.44348428e-007, 8.85340251e-006, 1.44082551e-005,
          -1.39372196e-005, -3.70749058e-006, -3.14892532e-006,
          -1.03336442e-005, 1.23263908e-006, -2.67407063e-006,
          6.12365375e-006, 1.60289601e-005, 1.04971923e-005,
          7.12331939e-006, 1.30429025e-005, 3.81936343e-006,
          -9.13693839e-006, -4.07096877e-006, -1.35832324e-005,
          -1.00095422e-005, -4.92232721e-006, -1.14156928e-005,
          -4.41170914e-006, 5.78241838e-007, -6.03442868e-006,
          -7.61871252e-006, -5.74802698e-006, -1.48620165e-005,
          -2.19817757e-005, -2.02596129e-005, -3.40229672e-005,
          -8.07685574e-005, -7.86533856e-005, -9.89959663e-005,
          -1.43536803e-004, -1.40082455e-004, -1.62486831e-004,
          -1.43210360e-004, -1.38594260e-004, -1.58936076e-004,
          -8.21167996e-005, -7.83807773e-005, -9.37138902e-005,
          2.68389649e-005, 3.29059330e-005, 2.09855989e-005,
          1.06913176e-004, 1.12122900e-004, 1.06191976e-004,
          1.27850042e-004, 1.30810324e-004, 1.30019645e-004,
          9.15695418e-005, 9.04724293e-005, 9.09600785e-005,
          5.79034422e-005, 5.49346587e-005, 4.97666770e-005,
          1.32965979e-005, 8.26384075e-006, 2.07051812e-006,
          -2.46592899e-005, -2.53913968e-005, -2.80893582e-005,
          -2.87638177e-005, -2.66784136e-005, -3.00896827e-005,
          -2.81356233e-006, 6.77279058e-006, -1.06901484e-006,
          3.49059592e-005, 4.25467078e-005, 3.32114214e-005,
          3.09696406e-005, 3.45287081e-005, 2.32991497e-005,
          2.23308962e-005, 2.44348175e-005, 1.17565496e-005,
          1.47958526e-005, 1.74166598e-005, 2.20027505e-006,
          4.19948037e-006, 8.20028981e-006, -4.82450196e-006,
          -1.92660882e-005, -1.25791157e-005, -1.65236270e-005,
          -2.13321146e-005, -1.17153786e-005, -1.17103145e-005,
          -1.51194708e-005, -5.45703006e-006, -6.34373282e-006,
          3.05284561e-006, 1.03356560e-005, 1.04016899e-005,
          1.18931339e-005, 1.13010092e-005, 1.18457383e-005,
          -1.94392624e-006, -3.94906647e-006, 5.61378329e-007,
          -2.35850166e-005, -2.08476395e-005, -1.55002544e-005,
          -2.89109030e-005, -2.44777402e-005, -1.99586248e-005,
          -2.16283661e-005, -1.96648652e-005, -1.52260136e-005,
          -1.16891761e-006, -2.07580456e-006, 5.98425959e-006,
          2.09408736e-005, 1.50950973e-005, 2.94432211e-005,
          3.25939836e-005, 2.71499448e-005, 5.23010567e-005,
          -1.07123960e-005, -8.35758601e-006, 2.59294848e-005,
          -1.11535985e-006, 1.61890671e-006, 2.90204534e-005,
          2.52331356e-005, 3.19596365e-005, 5.83477522e-005,
          4.42560531e-006, 1.45983167e-005, 3.89443485e-005,
          9.97301959e-006, 1.93215110e-005, 3.85306848e-005,
          -1.38031260e-006, 7.89488786e-006, 1.71811789e-005,
          -1.42420840e-005, -5.20186086e-006, 1.20682444e-006,
          -2.08439524e-005, -9.08444599e-006, -6.40130747e-006,
          1.53076871e-006, 1.19180922e-005, 1.16208457e-005,
          8.16599731e-006, 1.31053466e-005, 5.44592694e-006,
          -3.63238678e-006, -1.66356381e-006, -1.15111652e-005,
          -8.12334110e-006, -6.33672789e-006, -1.38139285e-005,
          -4.73741380e-007, 1.57698594e-006, -4.14074293e-006,
          -1.15736293e-005, -1.00178877e-005, -1.72692780e-005,
          -5.23170856e-005, -4.82425821e-005, -5.85366106e-005,
          -1.33297464e-004, -1.23189922e-004, -1.36378789e-004,
          -1.62089185e-004, -1.49394647e-004, -1.65443242e-004,
          -1.30226341e-004, -1.21568715e-004, -1.38776595e-004,
          -4.31950903e-005, -3.69572881e-005, -5.50625191e-005,
          3.90524474e-005, 4.28307540e-005, 2.55828800e-005,
          1.09279943e-004, 1.13596376e-004, 9.85254956e-005,
          1.28628817e-004, 1.31023524e-004, 1.26984844e-004,
          9.01230596e-005, 9.07674330e-005, 8.66015980e-005,
          6.37997582e-005, 5.86436799e-005, 5.05848002e-005,
          2.03581021e-005, 1.54129029e-005, 4.47285220e-006,
          -2.07283156e-005, -2.28149074e-005, -3.24160901e-005,
          -3.09792813e-005, -3.02221142e-005, -3.83355982e-005,
          -5.26931854e-006, 4.08096275e-006, -8.51416371e-006,
          2.84187845e-005, 3.80771016e-005, 2.52607424e-005,
          2.82881574e-005, 3.36895755e-005, 2.14672255e-005,
          1.80812003e-005, 2.04072330e-005, 6.21907066e-006,
          1.26587465e-005, 1.60339532e-005, 1.72912920e-007,
          1.76110086e-006, 7.09301639e-006, -5.93412688e-006,
          -1.96714973e-005, -8.00894941e-006, -1.05574027e-005,
          -2.86949726e-005, -1.39900321e-005, -1.28168158e-005,
          -1.56181632e-005, -5.38528548e-006, -3.36946505e-006,
          1.64988774e-006, 7.79829134e-006, 1.05065474e-005,
          1.63918467e-005, 1.42697272e-005, 1.67544731e-005,
          -1.39680617e-006, -3.98063548e-006, -2.61815472e-007,
          -2.66989991e-005, -2.20093334e-005, -1.94699896e-005,
          -2.82988840e-005, -2.21054343e-005, -1.82141757e-005,
          -2.05201177e-005, -1.73817625e-005, -1.32795922e-005,
          -5.56628834e-007, 2.00709974e-006, 8.58668591e-006,
          2.18613077e-005, 2.00718114e-005, 3.49893635e-005,
          3.20042927e-005, 3.08382951e-005, 5.39704888e-005,
          4.49480012e-006, 8.51286950e-006, 4.06353247e-005,
          1.93817868e-005, 2.36925898e-005, 4.84708689e-005,
          1.88020385e-005, 2.46388354e-005, 5.00889109e-005,
          -1.01363294e-005, 1.29249173e-007, 2.71040426e-005,
          -5.07099048e-006, 2.55898476e-006, 2.38147022e-005,
          -6.99113843e-006, -1.29008833e-006, 1.29831615e-005,
          -8.77392176e-006, -1.77559218e-006, 7.40020550e-006,
          -2.16638437e-005, -1.11427098e-005, -4.70392797e-006,
          -1.07663245e-005, -1.93563324e-006, -6.46329909e-007,
          1.14844916e-005, 1.25970928e-005, 9.36122251e-006,
          1.09518087e-005, 8.41027941e-006, 4.88715841e-007,
          8.45698196e-006, 4.52760514e-006, -3.32845161e-006,
          1.21272324e-005, 8.55813323e-006, 4.06956315e-006,
          -1.85883408e-007, -3.72616188e-010, -2.82065253e-006,
          -6.32125084e-005, -5.68719806e-005, -6.11760624e-005,
          -1.28466316e-004, -1.13354617e-004, -1.19374294e-004,
          -1.34650778e-004, -1.18066506e-004, -1.26460844e-004,
          -8.71579978e-005, -7.63917124e-005, -8.98634898e-005,
          -2.24655141e-005, -1.53771925e-005, -3.18582061e-005,
          4.49842082e-005, 4.86443314e-005, 2.90047301e-005,
          1.08187756e-004, 1.11471069e-004, 9.50554095e-005,
          1.18717646e-004, 1.23887134e-004, 1.14525035e-004,
          8.04137817e-005, 8.37836487e-005, 7.69193430e-005,
          5.61974848e-005, 5.29139870e-005, 4.22586672e-005,
          1.50938167e-005, 9.91471279e-006, -4.90179627e-006,
          -2.01343082e-005, -2.11880269e-005, -3.56326673e-005,
          -3.65513188e-005, -3.28167662e-005, -4.76015339e-005,
          -2.08744659e-005, -9.23132939e-006, -2.53845392e-005,
          1.26007963e-005, 2.34162271e-005, 8.32688420e-006,
          3.43721404e-005, 3.88451117e-005, 2.52078753e-005,
          2.75764487e-005, 3.05919930e-005, 1.70524199e-005,
          2.11812003e-005, 2.36465239e-005, 8.27685835e-006,
          -3.34376273e-006, 4.76207879e-006, -7.48933780e-006,
          -1.98808339e-005, -5.54794224e-006, -7.28447822e-006,
          -2.92556015e-005, -1.54119880e-005, -1.16715792e-005,
          -1.52032117e-005, -7.04285139e-006, -2.64400023e-006,
          7.94754669e-006, 1.08716804e-005, 1.39021367e-005,
          1.33307249e-005, 1.04548462e-005, 1.64220164e-005,
          -9.89844739e-006, -1.33075218e-005, -7.67390520e-006,
          -3.08722483e-005, -2.73838850e-005, -2.55896612e-005,
          -2.80389359e-005, -2.25677068e-005, -1.99555143e-005,
          -2.03982690e-005, -1.53813344e-005, -1.10192186e-005,
          -2.82981568e-006, 2.77225035e-006, 8.65624042e-006,
          2.80045697e-005, 2.96301441e-005, 4.24707541e-005,
          3.78368713e-005, 3.87663604e-005, 6.03522203e-005,
          1.04319388e-005, 1.42679773e-005, 4.03393133e-005,
          -1.22935962e-005, -7.17340026e-006, 1.39797239e-005,
          7.00469718e-006, 1.04819783e-005, 3.39913786e-005,
          2.30724163e-006, 7.62796208e-006, 3.13712444e-005,
          -5.74393198e-006, -5.85804116e-007, 2.04009993e-005,
          -4.14126589e-006, 2.05454640e-007, 1.54592708e-005,
          -1.24367389e-005, -8.61499120e-006, 3.39037001e-006,
          -3.31870651e-005, -2.44835137e-005, -1.43300194e-005,
          -2.49192472e-005, -1.72735545e-005, -1.25631168e-005,
          3.60691047e-006, 4.11480960e-006, 3.37657161e-006,
          1.38526993e-005, 1.00107691e-005, 2.86404475e-006,
          1.09746225e-005, 4.44121224e-006, -3.50022060e-006,
          1.20884824e-005, 6.63584115e-006, 1.14661123e-006,
          -2.79371488e-006, -4.76069863e-006, -3.75316449e-006,
          -5.66256422e-005, -5.00947244e-005, -4.84470183e-005,
          -9.21339815e-005, -7.69650360e-005, -7.55714136e-005,
          -8.36502513e-005, -6.65221451e-005, -6.80892845e-005,
          -4.24761311e-005, -3.02776498e-005, -3.94025119e-005,
          -9.47576063e-006, -3.14603938e-007, -1.39758768e-005,
          3.45463595e-005, 3.99027231e-005, 2.32995426e-005,
          7.76305824e-005, 8.39380082e-005, 6.91529785e-005,
          7.53111672e-005, 8.29653436e-005, 7.47985905e-005,
          2.93302055e-005, 3.59726218e-005, 2.80492277e-005,
          2.78780644e-005, 2.79009146e-005, 1.41226783e-005,
          1.06355228e-005, 7.81912695e-006, -9.21459377e-006,
          -1.85188692e-005, -1.75091936e-005, -3.54167423e-005,
          -3.38834107e-005, -2.95462651e-005, -4.74705557e-005,
          -3.06164729e-005, -2.08173315e-005, -4.10795183e-005,
          -5.73140687e-006, 3.99556120e-006, -1.17415657e-005,
          1.71682623e-005, 2.15852779e-005, 9.00853502e-006,
          2.61778587e-005, 2.97509687e-005, 1.73773951e-005,
          1.25098013e-005, 1.70775365e-005, 2.90318462e-006,
          -1.43476482e-005, -4.53912298e-006, -1.45788736e-005,
          -2.48637771e-005, -9.89382352e-006, -9.67292908e-006,
          -2.63099610e-005, -1.18163262e-005, -8.42690770e-006,
          -5.61720663e-006, 5.16151374e-007, 4.55630834e-006,
          5.63929780e-006, 5.65247637e-006, 1.02689582e-005,
          4.11435076e-006, 1.07431816e-007, 9.54623010e-006,
          -2.03778818e-005, -2.41064608e-005, -1.66428872e-005,
          -2.95744539e-005, -2.65806775e-005, -2.42873612e-005,
          -2.41420494e-005, -1.60581094e-005, -1.32488904e-005,
          -1.33495078e-005, -6.35839206e-006, -1.03359878e-006,
          -4.63545439e-006, 3.27048633e-006, 1.09835155e-005,
          2.28474291e-005, 2.86851227e-005, 4.36616392e-005,
          2.94957554e-005, 3.49392758e-005, 5.39922003e-005,
          -1.94957829e-006, 3.49492382e-007, 2.29783182e-005,
          -4.00107128e-005, -3.58446850e-005, -1.89297789e-005,
          2.44970925e-005, 2.69973589e-005, 4.62007993e-005,
          -1.56165811e-006, 3.30637761e-007, 2.41620710e-005,
          -2.68648910e-005, -2.54947681e-005, -3.47156742e-006,
          -2.19393296e-005, -2.14782031e-005, -5.71059763e-006,
          -1.54526861e-005, -1.36361259e-005, 3.75773936e-007,
          -3.88386652e-005, -2.93316371e-005, -1.89633502e-005,
          -4.06652580e-005, -3.37690799e-005, -2.71992012e-005,
          -1.33978747e-005, -1.05368990e-005, -9.54280495e-006,
          -8.77869468e-007, -1.92345169e-006, -6.59472107e-006,
          -2.48674155e-007, -5.20165486e-006, -1.25196702e-005,
          -7.72159910e-006, -1.32743171e-005, -1.79381204e-005,
          -3.43676256e-005, -3.45677799e-005, -3.26616610e-005,
          -3.59597361e-005, -3.03027082e-005, -2.49904224e-005,
          -3.70762973e-005, -2.52886075e-005, -1.79019207e-005,
          -3.41033410e-005, -2.03553027e-005, -1.52799657e-005,
          -1.54259669e-005, -4.81408051e-006, -6.67422319e-006,
          -6.80320363e-006, 1.23073607e-006, -4.81497364e-006,
          1.22827332e-005, 1.89938564e-005, 9.26775374e-006,
          1.49376319e-005, 2.28562803e-005, 1.43982252e-005,
          -2.44315834e-005, -1.38245287e-005, -1.89085331e-005,
          -4.13763046e-005, -3.22805427e-005, -3.81584359e-005,
          -9.28502777e-006, -4.51534606e-006, -1.78081809e-005,
          8.20160585e-006, 1.06999878e-005, -6.55087524e-006,
          -7.32480476e-006, -6.60935348e-006, -2.44816019e-005,
          -2.99043713e-005, -2.62613230e-005, -4.34391077e-005,
          -4.65042212e-005, -3.81976570e-005, -5.46604933e-005,
          -2.48109645e-005, -1.60646923e-005, -3.04722835e-005,
          2.20354664e-007, 4.72449119e-006, -4.98976078e-006,
          2.22422250e-006, 6.89000808e-006, -2.81557504e-006,
          -3.20410049e-006, 5.54171902e-006, -5.40698238e-006,
          -1.36726467e-005, -1.82008148e-006, -1.06820680e-005,
          -2.42046954e-005, -1.17056734e-005, -1.21889143e-005,
          -1.22244537e-005, -3.47990226e-006, 7.51157927e-007,
          8.24611379e-006, 1.03310840e-005, 1.33637668e-005,
          -2.98098894e-006, -4.37208746e-006, 2.98544506e-007,
          -1.14373415e-005, -1.39591966e-005, -6.83775579e-006,
          -2.89722902e-005, -3.06332586e-005, -2.35471725e-005,
          -2.50743524e-005, -2.02666888e-005, -1.87932546e-005,
          -2.02010942e-005, -1.13785536e-005, -9.17355828e-006,
          -1.03415141e-005, -1.91364529e-006, 5.23237532e-006,
          -1.49486527e-006, 7.95749293e-006, 1.83629472e-005,
          3.36201447e-005, 4.13690250e-005, 5.71493256e-005,
          6.87924398e-007, 7.05401908e-006, 2.72782927e-005,
          -4.91403480e-005, -4.61957534e-005, -2.79766973e-005,
          -3.51943272e-005, -2.95369719e-005, -1.96622077e-005,
          -4.65702069e-005, -4.26169463e-005, -2.82719429e-005,
          -4.74296667e-006, -5.50643290e-006, 1.44752985e-005,
          -1.08953018e-005, -1.33878484e-005, 7.87793851e-006,
          -1.98716534e-005, -2.03650616e-005, -5.00909027e-006,
          -1.60805848e-005, -1.27488256e-005, 3.34323545e-007,
          -3.38466343e-005, -2.58158398e-005, -1.28609654e-005,
          -4.37871531e-005, -3.44817854e-005, -2.54856259e-005,
          -2.61400437e-005, -1.97535373e-005, -1.82416879e-005,
          -1.25353536e-005, -8.63905916e-006, -1.11294894e-005,
          -7.68970312e-006, -8.92064872e-006, -1.30897906e-005,
          -3.47013593e-005, -3.74318006e-005, -4.18655291e-005,
          -6.28200869e-005, -6.34277094e-005, -6.00242638e-005,
          -4.58827890e-005, -4.28910826e-005, -3.49305992e-005,
          -1.81854211e-005, -1.08921031e-005, -1.46208879e-006,
          -1.26048290e-005, -3.83044608e-006, 3.64783318e-006,
          3.20157005e-006, 9.60571833e-006, 1.58979656e-005,
          9.28957263e-007, 6.48313835e-006, 1.07247361e-005,
          -1.18946491e-005, -4.41506518e-006, -1.41910596e-006,
          -4.92741965e-005, -3.85767489e-005, -3.68414621e-005,
          -9.00704399e-005, -7.79656766e-005, -7.38156741e-005,
          -8.41737492e-005, -7.23682242e-005, -7.32021144e-005,
          -3.29781615e-005, -2.33560149e-005, -3.05693939e-005,
          2.92458344e-006, 9.48664274e-006, -2.33815558e-006,
          -8.60637647e-006, -7.98002657e-006, -2.21252067e-005,
          -2.75921921e-005, -2.77329200e-005, -4.11898691e-005,
          -4.92451945e-005, -4.29893043e-005, -5.34122373e-005,
          -3.58385005e-005, -2.75284419e-005, -3.57006320e-005,
          -2.15008440e-005, -1.43030384e-005, -1.73187273e-005,
          -2.53143189e-005, -1.72378750e-005, -2.07668818e-005,
          -2.45535393e-005, -1.34548936e-005, -1.95519169e-005,
          -2.76719911e-005, -1.68627557e-005, -2.15440450e-005,
          -1.39192734e-005, -6.85508758e-006, -6.02085311e-006,
          8.91450327e-006, 1.05871977e-005, 1.41793616e-005,
          2.11978045e-006, -5.94374399e-007, -6.00853525e-007,
          -4.43681216e-007, -3.48961521e-006, -1.66884490e-006,
          -2.85269452e-005, -2.76171904e-005, -2.28079116e-005,
          -3.61998937e-005, -3.35187651e-005, -2.80156983e-005,
          -2.12583873e-005, -1.41557857e-005, -1.29522305e-005,
          -1.87683472e-005, -9.06943296e-006, -5.05815706e-006,
          -1.14728409e-005, -2.25553322e-006, 8.80925745e-006,
          -3.08886456e-006, 4.73851924e-006, 2.05089800e-005,
          2.19032663e-005, 2.94463389e-005, 4.92545805e-005,
          -1.95944062e-006, 3.32533114e-006, 2.14858301e-005,
          -4.21002442e-005, -4.19614771e-005, -2.70217461e-005,
          -1.75455061e-005, -1.33345029e-005, -6.92468711e-006,
          -3.66351996e-005, -3.38271748e-005, -2.35638727e-005,
          -2.97531415e-006, -4.33283731e-006, 1.05626095e-005,
          -1.58679939e-006, -3.86997817e-006, 1.38771984e-005,
          -2.62106460e-005, -2.52754671e-005, -9.44032126e-006,
          -1.83997272e-005, -1.54737609e-005, -1.47094454e-006,
          -3.11302429e-005, -2.44396524e-005, -1.08892273e-005,
          -3.90392415e-005, -3.02932949e-005, -1.95244174e-005,
          -3.63649415e-005, -2.67463111e-005, -1.97212812e-005,
          -2.15904056e-005, -1.41695009e-005, -1.25697306e-005,
          -9.81014182e-006, -7.40229871e-006, -1.02222230e-005,
          -4.99094531e-005, -4.93379885e-005, -5.22922819e-005,
          -8.19857378e-005, -8.10344936e-005, -7.88224497e-005,
          -6.32822921e-005, -6.14800301e-005, -5.37318811e-005,
          -2.92666155e-005, -2.57053671e-005, -1.47281207e-005,
          -8.40476969e-006, -2.49435766e-006, 5.66635435e-006,
          1.99640726e-006, 6.73834938e-006, 1.59875890e-005,
          -6.78690049e-006, -2.88532328e-006, 5.63192543e-006,
          -2.42450533e-005, -1.64143403e-005, -9.61288424e-006,
          -5.38400964e-005, -4.55345071e-005, -3.79406229e-005,
          -6.99515003e-005, -6.05827991e-005, -5.59865148e-005,
          -6.01498723e-005, -4.85860764e-005, -4.88778824e-005,
          -2.09574337e-005, -1.14118029e-005, -1.84801047e-005,
          -1.06088764e-005, -3.24598795e-006, -1.34981801e-005,
          -1.13908563e-005, -8.75122441e-006, -1.98636189e-005,
          -1.36686249e-005, -1.22510919e-005, -2.21528317e-005,
          -8.10131041e-006, -2.99372573e-006, -8.50520610e-006,
          -1.32045616e-005, -7.18505180e-006, -1.12877933e-005,
          -1.93012547e-005, -1.24733397e-005, -1.23334103e-005,
          -2.47882181e-005, -1.49118732e-005, -1.59934771e-005,
          -2.07913999e-005, -8.87502301e-006, -1.22721158e-005,
          -7.55297151e-006, 1.32519062e-006, -1.10977271e-006,
          1.61282514e-006, 4.47296998e-006, 6.30046770e-006,
          -8.28698467e-006, -8.92288699e-006, -7.65734785e-006,
          6.05268667e-007, -1.30160163e-006, 2.34116143e-007,
          -1.50151764e-005, -1.54726113e-005, -1.48238132e-005,
          -3.19392711e-005, -2.93480462e-005, -2.60697398e-005,
          -2.99006897e-005, -2.29920606e-005, -1.81059640e-005,
          -2.04207718e-005, -1.14261065e-005, -9.94374841e-006,
          -1.07594542e-005, 1.71107388e-007, 4.80931385e-006,
          -2.90755324e-005, -2.00438753e-005, -8.32157730e-006,
          -1.64299636e-005, -9.52241771e-006, 8.94254481e-006,
          -1.15692874e-005, -4.91325090e-006, 1.54595728e-005,
          -1.42826966e-005, -8.63198693e-006, 1.15404755e-005,
          -2.37116037e-005, -2.22836625e-005, -1.09449056e-005,
          1.35561186e-005, 1.19828801e-005, 1.12239641e-005,
          -2.38306566e-005, -2.48023716e-005, -1.77397451e-005,
          -2.58543532e-005, -2.65378003e-005, -1.28150714e-005,
          -8.32919704e-006, -8.64147478e-006, 8.92010121e-006,
          -1.59999145e-005, -1.41121382e-005, 2.81338248e-006,
          -1.72363216e-005, -1.42874205e-005, 2.70232681e-006,
          -2.62060057e-005, -1.89639286e-005, -4.05392620e-006,
          -3.56633827e-005, -2.70446781e-005, -1.38137830e-005,
          -4.34405374e-005, -3.18804741e-005, -2.11919196e-005,
          -3.04332934e-005, -2.01631810e-005, -1.34074553e-005,
          -1.22323854e-005, -4.44071293e-006, -7.29321027e-006,
          -1.78755363e-005, -1.31365869e-005, -1.62022534e-005,
          -3.55538905e-005, -3.37820675e-005, -3.51477320e-005,
          -3.72962459e-005, -3.45103690e-005, -3.20000981e-005,
          -1.89034017e-005, -1.61081389e-005, -8.32855039e-006,
          -5.79490052e-006, -9.24818721e-007, 6.82628570e-006,
          -4.71065050e-006, 1.73062062e-006, 7.10599625e-006,
          -7.26563121e-006, -4.55596165e-007, 3.62761921e-006,
          -8.17929231e-006, -1.35087055e-006, 4.16962121e-006,
          -6.65922380e-006, -8.03849161e-007, 3.53377436e-006,
          -7.96594395e-006, -2.72370562e-006, -3.56005962e-008,
          -5.86273927e-006, -9.39124050e-007, -3.40579186e-006,
          4.58197889e-007, 5.88644525e-006, -2.20198581e-006,
          1.55503278e-006, 7.60688499e-006, -2.48884521e-006,
          2.70985743e-006, 7.14351836e-006, -4.52323184e-006,
          9.77798754e-006, 1.42375211e-005, 4.42912415e-006,
          1.12629887e-005, 1.57413378e-005, 1.26254399e-005,
          8.94234199e-006, 1.37353127e-005, 1.23364425e-005,
          6.31516627e-007, 4.95927225e-006, 4.92798881e-006,
          -4.01258740e-006, 1.29721661e-006, 6.93051106e-007,
          -5.82599114e-006, 3.57766544e-006, 3.96990139e-008,
          -3.84790752e-007, 6.23185861e-006, 2.84383782e-006,
          -5.73134366e-006, -2.25978511e-006, -3.84737541e-006,
          2.57931970e-006, 3.70461771e-006, 3.28827809e-006,
          -1.06978105e-005, -7.18618730e-006, -6.07110132e-006,
          -3.40174302e-005, -2.94144429e-005, -2.94921538e-005,
          -3.19708961e-005, -2.40214158e-005, -2.27564597e-005,
          -2.25969816e-005, -1.42757090e-005, -1.13241740e-005,
          -1.85702047e-005, -8.05788750e-006, -6.21022582e-006,
          -5.59026648e-006, 5.07180084e-006, 9.49791684e-006,
          -3.01231103e-005, -2.15832370e-005, -1.16538213e-005,
          -7.45340139e-006, -1.14001345e-007, 1.63901841e-005,
          -1.78627070e-005, -1.16266156e-005, 1.01708501e-005,
          -2.21260634e-005, -1.70544299e-005, -3.04478158e-006,
          -4.30165528e-006, -2.20983338e-006, 4.11869905e-006,
          9.03573982e-006, 6.67646282e-006, 6.89342096e-006,
          1.74006220e-006, -2.23769376e-007, 2.21999267e-006,
          -1.24649696e-005, -1.38761134e-005, -2.76247010e-006,
          3.90901096e-006, 2.19148615e-006, 2.11418683e-005,
          -1.59825959e-005, -1.37469597e-005, 3.54652593e-006,
          -1.00465322e-005, -6.36989989e-006, 9.33998035e-006,
          -2.95512436e-005, -2.52114787e-005, -8.69752421e-006,
          -2.79269352e-005, -2.08644742e-005, -4.73087857e-006,
          -4.07116531e-005, -3.26322770e-005, -1.68862116e-005,
          -4.05785067e-005, -3.11860822e-005, -2.20305792e-005,
          -2.39618475e-005, -1.55935177e-005, -1.62727138e-005,
          -1.07091137e-005, -3.85475960e-006, -6.59040188e-006,
          -9.31603881e-006, -5.38118502e-006, -1.01042242e-005,
          -1.88365157e-005, -1.64525500e-005, -1.61692224e-005,
          -2.24796913e-005, -2.06101504e-005, -1.46254743e-005,
          -1.66625578e-005, -1.29406471e-005, -6.54733094e-006,
          -9.48783781e-006, -3.99306327e-006, -2.24326755e-006,
          -4.93637754e-006, 1.06194386e-006, 2.08133474e-006,
          2.62806793e-006, 7.75679382e-006, 9.77599848e-006,
          1.22279180e-005, 1.67476392e-005, 1.77906004e-005,
          1.98272664e-005, 2.19985432e-005, 2.14674019e-005,
          2.31134763e-005, 2.49914465e-005, 2.10890757e-005,
          2.46958516e-005, 2.85662663e-005, 2.21499249e-005,
          2.28416720e-005, 2.83053523e-005, 1.83860302e-005,
          2.49566092e-005, 3.23096829e-005, 2.26990851e-005,
          2.20216934e-005, 2.93360827e-005, 2.16444168e-005,
          2.24061350e-005, 2.60065462e-005, 2.43418472e-005,
          1.51853974e-005, 1.79502131e-005, 1.85030676e-005,
          8.83757457e-006, 1.08059758e-005, 1.19715323e-005,
          3.89890101e-006, 7.65350796e-006, 7.48857155e-006,
          -2.80902736e-006, 1.90460116e-006, -2.15820864e-006,
          -1.26485429e-005, -8.41626661e-006, -1.15024613e-005,
          -2.45337492e-006, -8.45878162e-007, -2.50859830e-006,
          -7.79459606e-006, -4.70198984e-006, -6.15696263e-006,
          -3.39570142e-005, -2.81809225e-005, -2.93835219e-005,
          -3.27919151e-005, -2.42237329e-005, -2.48488541e-005,
          -2.24807136e-005, -1.34261718e-005, -1.21088997e-005,
          -2.22845556e-005, -1.22019146e-005, -1.06000189e-005,
          -8.21550020e-006, 1.45116860e-006, 5.27539714e-006,
          -2.95348195e-006, 6.35661854e-006, 1.21068651e-005,
          -7.17291368e-006, 2.09129257e-006, 1.07485257e-005,
          5.56194266e-007, 6.15122235e-006, 1.93651431e-005,
          -1.02402474e-007, 4.60419869e-006, 1.81039086e-005,
          -8.21642425e-006, -3.52694224e-006, 4.52023141e-006,
          -1.77186703e-005, -1.41405026e-005, -9.54570714e-006,
          6.87128522e-006, 5.71823603e-006, 6.86180010e-006,
          4.02756177e-006, 4.17919091e-006, 6.48079777e-006,
          -1.84172131e-005, -1.97795252e-005, -1.04032970e-005,
          -8.11791597e-006, -8.99203042e-006, 4.22608719e-006,
          3.54953067e-006, 6.61784316e-006, 2.18160494e-005,
          1.93336928e-006, 5.59368209e-006, 2.29912748e-005,
          -1.68092683e-005, -1.40924421e-005, 3.82673488e-006,
          -2.27210221e-005, -2.00655668e-005, -2.06101754e-006,
          -2.89894488e-005, -2.47643075e-005, -9.71978352e-006,
          -3.19964056e-005, -2.50944249e-005, -1.49500547e-005,
          -3.89361012e-005, -3.15234065e-005, -2.83982008e-005,
          -2.17514535e-005, -1.39834174e-005, -1.53894453e-005,
          -4.28242447e-006, 1.74144202e-006, -2.99859062e-006,
          -7.38219978e-006, -5.11295184e-006, -5.82621351e-006,
          -1.21987805e-005, -1.03514330e-005, -5.23805284e-006,
          -1.67652579e-005, -1.31813431e-005, -8.01709575e-006,
          -1.97234003e-005, -1.42244189e-005, -1.22595911e-005,
          -9.24058804e-006, -3.68736573e-006, -4.24140353e-006,
          1.50145991e-006, 6.33181344e-006, 6.65460948e-006,
          1.46490092e-005, 1.73207100e-005, 1.73095505e-005,
          2.00368941e-005, 2.03110540e-005, 2.09342361e-005,
          2.21886312e-005, 2.30905480e-005, 2.02914816e-005,
          2.29213238e-005, 2.80201402e-005, 2.34619765e-005,
          2.20671536e-005, 2.78664975e-005, 2.28735298e-005,
          2.09398750e-005, 2.85338392e-005, 2.44451548e-005,
          1.77404199e-005, 2.33622031e-005, 2.05720644e-005,
          1.55199705e-005, 1.75807290e-005, 1.83559914e-005,
          1.35984646e-005, 1.45571066e-005, 1.79755862e-005,
          9.42307088e-006, 8.25623010e-006, 9.20338971e-006,
          2.73551768e-006, 2.03801187e-006, 1.57744284e-006,
          -2.88026581e-006, -1.37496727e-006, -5.03786896e-006,
          -1.47283583e-006, 5.56544762e-007, -3.15379611e-006,
          -6.11442420e-006, -3.99328928e-006, -3.49875017e-006,
          -2.58224700e-005, -2.31697013e-005, -2.39738056e-005,
          -3.10263677e-005, -2.38098764e-005, -2.60729939e-005,
          -1.97815771e-005, -1.00199377e-005, -1.22645888e-005,
          -1.64684716e-005, -5.87705290e-006, -3.97954136e-006,
          -1.74665984e-005, -5.66434028e-006, -6.99996860e-007,
          -6.23845517e-006, 3.48668846e-006, 1.27163639e-005,
          6.27832605e-006, 1.37852821e-005, 2.43232353e-005,
          5.74263249e-005, 6.50109432e-005, 7.57924281e-005,
          5.13238629e-005, 5.58341962e-005, 6.66786364e-005,
          6.40023927e-006, 9.31787417e-006, 1.63677068e-005,
          -7.17127341e-006, -5.13658233e-006, 7.57908026e-007,
          -1.22372512e-005, -8.19192155e-006, -5.65639266e-006,
          8.45903287e-006, 8.51382811e-006, 1.03251059e-005,
          3.44945261e-006, 2.75830917e-006, 5.79530115e-006,
          -2.30954902e-006, -2.41289922e-006, 2.66413258e-006,
          -7.80732307e-007, -3.18891080e-006, 7.56380496e-006,
          9.31314617e-007, 1.48239576e-006, 1.33026033e-005,
          3.39141588e-005, 3.49924521e-005, 5.09729398e-005,
          -1.51031736e-006, -1.01356591e-006, 1.81449104e-005,
          -1.53351430e-005, -1.56454953e-005, 3.74822139e-006,
          -2.11094884e-005, -2.00728518e-005, -3.99621149e-006,
          -2.58880445e-005, -2.31345875e-005, -9.48961133e-006,
